{"layers": [{"weights": [[-0.4424331124777617, 1.293919945132422, -0.9996972736062566, 0.5505616584201651, 1.3127274437162533, 0.24562133490386914, 0.329345286138316, -0.7839950850404214, 0.17317275791071926, 0.3171533778291825, -0.6407461692247314, -0.2997839294347609, -0.14410332000455625, -1.0099382500287097, 1.1314095676190554, -0.36462647264283843, -0.4332180109979488, -0.8559033932995824, 0.6094996313246305, 0.8612960510665381, 0.4950139656844164, -0.27130267886930093, -0.09720443268332693, 0.06684794500965371, 0.3693404189273643, -0.965863524275586, 0.8256687987430174, -1.033072785698511, -0.02562728915981735, 0.5037872051841666, 0.363680561150734, 0.5626720372693875], [-0.32662397972172125, -0.16249039113381175, 0.8810608976390231, -1.0125719887265212, -0.33723004794499645, 0.4618700631591224, -1.0330674463041147, 0.6265390743919761, -0.3520918297505492, 0.829028419398327, -0.2417106223173349, -0.40798994000712746, 0.467226357220388, -0.6628018774887825, -1.8151356532209242e-05, -0.1878703664719482, 0.0523443342210361, -1.218118883512175, 0.33491427635170523, -0.1336070325003109, -1.0839092716085839, 0.1093493370193988, 0.26486154646346177, 1.2192837593974157, 1.2097757598028038, -0.5794113094142638, -0.915045938699318, -0.185825477756739, 0.04739677316753568, -0.34718989410876266, 0.7617984543197953, -0.07074564152949962], [-0.9498860418089375, 1.1812116484226025, -0.014849965735959994, -0.6110264601630786, 1.11096395879491, -1.1430099568914522, -0.14461137993873083, 1.0952238849977847, 0.022135659675227924, 0.9688560234454681, -1.0813901458984665, -0.41972332067393336, -0.6428924461385143, -0.11437151850280577, 0.5762521472070448, 0.07332570928238938, -0.21959768626910423, -0.07784231419009353, 1.1158550716263325, 0.5918577503465955, 0.196166359250916, 0.22589952742017938, -0.48416378087447737, -0.5807206901259736, 0.8505222394495595, -0.2622190473267983, 0.7404131432547831, -0.5152573754077401, 1.4906983757163295, -0.544484844861363, -1.0714075510770462, 0.20768330713261246], [0.3363356448547541, 1.737451101345442, -1.2207954977424023, 0.8030824908985061, 0.5138005296048518, -0.34804224114921706, -0.8121579690451257, -0.38761691695302514, -1.4556928515331364, -0.41846510262664793, -0.2487863952927401, -0.40231339098878394, -0.8883926966757885, 0.25571492192755657, 0.9067912724644918, 0.0688730797687804, -0.19758379180248783, -0.9507455541730858, -0.46925282258199336, 0.365132573379644, 0.8986966868823989, -1.10602991614681, -0.5218732675287223, -0.2902569524912669, -0.8380483289238272, 0.8447413661368681, -1.0826880252227524, -0.013931268425373747, -0.3492895425902228, 0.37691916796743313, 0.6894577208684463, 0.42016965637730014], [-1.2449956026694995, -0.5462936849266513, -0.03467559387490837, -0.15131467036063653, -0.6440516871211048, 0.03524359532759544, 0.07857626238405745, -1.03919970056333, 0.02736898767438465, 0.435147475386314, -0.8375596086954491, 0.19339908123754526, 0.49025988959116046, -0.35333683311343017, -0.19970526017605197, -0.4921512364672904, -0.06985477170165708, -0.5917819523459442, -0.5934922062533479, 0.2353642749657011, -0.8091623495548032, 1.6097396518297673, 0.8121527310408734, -0.22469447244945806, 0.1293264488395672, 0.4818006951164796, -1.335432297195775, -0.03870418447876301, 1.2384639534250166, 0.39765245393621657, -0.0799770444900342, -0.4809846477923626], [-0.0329299011021997, 0.5293053863399788, -0.6135852549035457, -0.5665214253169271, -0.6189262967900071, 0.25167898533604904, 0.40205362100952, 0.29466155384175624, -0.5626590896173187, -0.5391536239365918, 1.4700461888244671, -0.8710471214398738, 0.12019654217981304, -0.031093161991923288, 0.23395198565827222, 0.8002952706103105, 0.4018511358708927, 0.37165862028285285, -0.4634004298013374, -0.4588475681900658, 0.13832417821849308, -0.01264715430668675, 0.6107321246771504, 0.20628845644974766, 0.5903540242276859, -0.4521363722919152, -0.43370511658726624, -1.0202178808282383, -0.09375067425298447, 1.1291816395922059, 0.2196294021878884, 1.053778934892274], [-0.15250236732150385, 0.5827752275365413, -0.3933733255656061, 0.4210271750448834, -0.15444657568408526, 0.7027350623439872, 0.6362649948069115, 1.231109593054642, -0.2176697318814201, -0.9720248653314432, 0.17550019423256435, 0.5540512235195556, -1.091336626813808, 0.11865112745696463, 0.4306418758452621, 0.8474054543373193, 0.052799266814030764, -0.07518139991311784, 0.7735414488468165, 0.6632331746812627, 0.545660086558305, 0.6254883655252941, -0.018212704058142164, -0.6822415139669915, 0.04783262814390707, -0.35044281843567604, 0.9064065128062044, -1.1807056758290666, 0.3527059295349304, 0.016458623509923963, 0.410158813907407, -0.05082448179560188], [-0.01768001289803949, 0.545036137629604, -0.03665405220841982, 0.40752751989073355, 0.2901132956107158, 0.7926619948857985, 0.1603478741821797, -0.041230505276376846, 1.3176918785901464, -0.3564568375223742, 0.14548808545057068, -0.739422929119874, -0.21400748233246875, 0.7037134010329711, 1.0213950337814037, 1.3539234695264217, -0.174200215133957, 0.2950066972111532, -0.14507177867743595, -0.20026116483266426, 1.219234584870347, -0.023951278357348435, 0.03990807187904019, 0.40525102270869023, 0.9064149897391853, -0.06460799542882305, 0.1416442128817822, 0.0861143597047685, -0.08494465286215566, -0.9628060698726094, 0.367079172275902, 1.1183878586601426], [-0.031478302828686994, -0.07881641661369126, -0.3211139070525053, -0.04623482238102014, -0.6616229833357402, -0.6733630864945532, 0.20219142415256008, -0.005294835139250439, -0.24098084003020687, -0.434886010412439, -0.41125973523745024, 0.3623651434297551, -0.6144489417366806, -0.11021611488649707, -0.10529507330146261, 0.036428296065335215, 0.7813000349714466, 0.6546982552038414, -0.9558082086660098, -0.7879514966243173, -0.738970666091971, 0.5328436722220372, -1.1022941386561302, -0.05288609645344597, -0.9125206180713926, 0.18379423032265493, -0.12987658835967703, 1.0231818260832028, -1.2028926447591033, 0.258534990590581, 0.8985705776614044, 0.8878969496850526], [-0.7694987597673342, -0.618396198658201, 0.2837177274472664, -1.0308198204222614, 0.7268976742631905, -0.359806726937973, 0.2529643195032048, -1.1593662384737824, 0.1616354821270095, -0.009335724980824987, -0.7532301236995862, 0.84984915750115, 0.157724718456508, -0.44375455466072156, -0.04564872300342309, -0.29787966822896866, 0.2507530764102561, 0.25850137227998193, 0.3612583679324942, -0.4630259654501091, 0.39192000562485874, -0.04216757732030819, 0.3306206147965574, -0.2550551549358321, 0.21431735250698458, -0.04355952963243735, 0.06893152235423933, -0.013594941234525926, -0.7301724099229616, -0.6674255663650923, -1.0998734938042785, 1.0881717180438648], [-0.4764087592376084, -0.7222864009376161, -1.0700047916916549, -0.6925762315880049, 0.06928561738341452, -0.19861616854786462, 0.1946769421692361, 1.1166649580613288, -0.5576950867362712, -0.133040363515176, 0.10047752031681527, 0.15962269184142558, 0.3499881370786426, 0.9073148164616025, 0.23452288010427247, -0.5474048876226327, 0.8476403836351505, -0.6728038437997466, -0.48588685564793405, -0.4289606114437955, 0.5178393019392145, -0.37245829309985296, -0.1402761016048234, -0.08891246987580564, -0.5297810644912352, -0.6841013932867293, 0.916660084949744, -1.042945063722554, 0.07919567670299088, 0.5720463767615589, -0.1367603160027301, -0.16939662870338418], [-0.14298456640874324, -0.23163849841936646, -0.36374610471083335, -0.19336162764050974, 0.7733453903442178, 1.419951683750348, -0.43376186774819786, -0.37490639208568505, -0.9666068678362855, 0.07225087777475195, 0.46115515130116636, 0.317647724965744, 0.26878606405496797, -0.13648011636251747, 0.4261534883871021, 0.7781555113562841, -0.13729707141680603, -0.47508652751805164, 0.2690001419427179, -1.28559360824801, 0.573476256400989, 0.0578603055499024, 0.06739979037509464, -0.002698656546745626, -0.9018826131011449, -0.7623299956920618, 0.20506323918756653, 0.5554464266599947, -0.41745018476099016, -0.3977445413803835, 0.38552906298648304, -0.07893126046158545], [0.18131227941613576, 0.189846997058227, -0.34396845351960725, 0.039619314754811764, 0.6722571514189529, -0.5816335874455804, -0.028038480544667538, -0.19762379948482922, -0.39399498684906537, -0.4878475047536565, -0.6394516705886747, 0.016612830364869442, -0.6553938794167535, 0.5309585994462842, 0.4044248880857133, 1.5456476318374062, 0.7566975071366191, -0.2839095015543034, 0.2551963313461267, -0.39984231256379676, -0.9910615596579013, 0.3641732190902112, 0.19207898121017117, 0.22776552773293285, -0.2608119096771787, 0.08525147738677638, 0.9432052847161913, -0.5845143178007927, 0.8390958488504542, -1.3967321760272404, -0.3446702874027059, 0.6368029677724562], [-1.2335852251631776, -0.03161625478478906, -0.19612640296932615, -0.6893901513897605, 1.0024538737611235, 0.8563716484424412, 0.22483329931341672, 0.32571010372382936, -0.4233726498992897, 0.35847047831948514, -0.3623472448018897, 0.06836652347251086, 0.718174138688011, -0.14781570612118802, -0.4565079566606063, -0.17230443452479882, 0.34307484985265047, -0.41892798687347776, 0.24778412407847983, 0.7079037939642132, -0.45478935214331195, 0.046674244830251205, -0.9662786133302353, -0.2942300169124017, -0.19700159868202513, 0.050013580680167674, 0.007274046303397352, 0.5852594866993289, -0.4853716276262549, 1.135121871227778, -0.4404027159372326, -0.0035427900901734257], [-0.6813776610496454, 0.7644453865887161, -0.05035234092109139, -0.2109480081855853, -0.829923425736222, 0.626616116497601, -1.503427564132541, 1.3115285784873632, -0.8428304032906941, -0.30627725480764756, 0.1854972073810281, 0.1975371728226262, -0.22342470241059653, -1.1695598697496208, 0.8475249628452116, -0.0177125164912921, -1.3802899276433493, 0.13316376001525698, 1.005345810584457, -1.3835171072223489, -0.20045942358033336, 0.00849808324093199, 0.2953995140589921, 0.09961935665719539, 0.2801745607346864, -0.3638828407780228, 0.3231709682820484, 0.33836209004173223, -0.1331478848893014, -0.25725496378011625, -0.6536947517215359, -0.24226556430173268], [-0.38364636613798, 0.4898592552302832, -0.6183087226060986, -0.3718945735541514, -0.684257434477036, 1.0595682295018902, 0.07644767170307955, -0.20533028957798105, -0.6048632525095566, -0.11249002657167066, 1.7080170524899918, -1.269462612496072, 1.215462748120539, 1.636205567346992, -0.7252715343305678, -0.13924408172157868, 0.3686028042070794, 0.849914927833608, 0.26870654479148864, 0.7205490064497235, 0.2939613557743901, -0.34827915249562963, 0.9245739000082175, -0.7157194223690695, -0.07665139274761892, 0.6713864390998394, -1.2411740422510034, 0.11010080767118066, -0.06872280431592181, -1.07532316109668, 0.598262509874251, 0.6621580355517758], [-0.31453485845397244, 0.2303300888331349, 0.3019162845927026, 0.0769822799016146, -0.4921386974500385, -0.4058969531898533, 0.03149297943985883, 0.29651160484562833, -0.13124044884594652, 1.023988707125447, 0.2847741834370199, 0.45003847825746873, -0.1834362490509744, -0.005325540035939771, 1.5096043545169033, 0.0004785440572210621, 0.3322230174648658, -1.0393882501943883, -0.5623146460415965, -0.8046414941226763, 0.1573162294283032, -0.2905491242562796, 0.3948277045710633, -0.25884482608032555, -0.5633470852615299, -0.8976984924892284, 0.6248756664468551, -0.566150349493515, 1.419756282503343, -0.127401122524712, -0.46445633939232894, -0.3495249689342324], [-0.6540242985903083, -0.013751194404131098, -0.5507804341899611, -0.26749979946297747, -0.16089171857934126, -0.6960977519367634, -0.8786144565693979, -0.2963434301410668, -0.1348007564192576, -0.15143559118329397, 0.3469721137528399, 0.37522812203284406, 0.7762260049247967, -0.5126360877114629, -0.4043014506668603, -1.0484908115879144, -0.061883197395319015, -0.2242550034960529, -0.8398669744677351, 1.1814219071311451, -0.8278497055514579, -0.18319801886572262, -0.7482137724608617, -0.0070336998845454655, -0.9043649403905867, 1.042461709971954, -0.33434910036555227, 0.4723303693639961, 1.3488933956303832, 0.7343714332542142, -0.2037198635151373, -1.6326739734931768], [0.3925698286917181, -0.637334705243215, -0.007915128721817375, 0.2523276101423423, -0.4556189189415925, -0.3263937087628422, -0.5505081031714764, 0.04661377596124961, -0.8359743774663386, 0.08661373846777318, 0.5786920278595059, -0.7735418011628021, -0.17520066463272987, -0.22225834250866972, -0.3091850638781255, -0.17199225328543905, 0.6372041274313147, -0.16386599342772648, -0.5906013757750977, -0.3023683758495429, 1.2272241802251886, 0.19998711490442223, -0.21953745983121992, -0.1389677064477745, -1.0075100735928189, -1.2552796133223907, 0.37396198747919596, -0.65872501975499, -0.05339041581484284, -0.6510852112361769, -0.4167415288614714, 0.2418878119950592], [0.6090158950350372, -0.509061751668298, 0.9184236994800394, -0.008913162293645964, 0.4331925415089623, 0.2358074153129573, 0.5494080016872251, 1.5138785467648344, 0.23219842931870632, -0.6693012844852863, -0.20497686325739228, 1.0758375880682776, -0.31214271178884645, 0.25226347700583995, 1.0782441801224973, -0.5246063503349234, 0.974917958399549, 0.5552922199457563, -0.08303557819802765, 0.01801325766205779, 1.1102701789858775, -1.2709680170939457, -0.13684253279146194, 0.7563476072932307, -0.21312208563218654, -0.9083735382176478, 0.34331581456896476, 0.21724730762288214, 0.8578941007119583, 0.06810466611113639, -0.6793253450810297, 0.5159258989009909], [0.26923316579999257, 0.4331347670231793, -1.180304488026246, 0.5759992415170676, -0.09539725400902006, -0.6879722105253966, -0.19765866026870665, -0.39617900905134584, -0.2787426054862712, -0.03695991805640776, -0.34825018482140846, -0.1383233521271719, -0.19557250343882832, -0.2039839138700586, -0.3159983805378456, 0.6201866984847104, 0.618627304815712, 0.4680136000103196, -0.1644330814916639, -0.4628170394291036, 0.1798967336437705, -0.5202859273633835, 1.0986409584353356, -0.7357502251889753, -0.11155380323588321, -0.0790343338685589, 1.0680678222184594, -0.5664737752582976, -0.23012040136052894, -1.3619273654969972, 0.8685229191906207, 1.8388636743987141], [-0.10261880514809622, -0.6444352619241107, -0.025078041923381363, 0.20524588373939803, 0.3021550906029926, -0.23488247587240796, 1.1777392301147143, -0.8977423352419792, 0.5014254373297533, -0.42007115909487536, -0.3665121686321836, 0.17937943953916663, -0.11864108072655744, -0.16504898276990174, 0.4610075089726301, 0.6714843407008179, -0.32559720530705893, 0.2220287995539513, 0.025497229436693754, -0.28839469227002446, 0.2135270405318901, 0.9119574717416605, 0.7949655726765349, 1.25694738646408, -0.40795573869770907, -0.05249210261085336, -1.084289098507702, -0.9158093668712525, -0.6566482287000999, 0.11122351874814083, 0.46398546740380986, -0.799745207008335], [0.31454288722714907, 0.1766132130309081, -0.35145908624515576, 1.2283747066526383, -0.9157404860075469, -0.007330165679164341, -0.47917674169960195, 0.37265103065015415, -0.6661807818690928, -0.23087274011913383, 0.5111230131167276, 0.562330531191642, 0.3151887658074518, 0.3839111891564277, -0.5355206865861747, -0.16633042071403867, 0.31588846151750366, 0.8510099831068432, -0.12172976603139285, -0.7475072491272776, 0.1714448262569765, -0.37681647333500723, -0.7549365504725118, 0.1811807214728693, 0.45658284500938207, -0.7158244925809386, -0.26191660885980234, -0.3743502780533902, 0.20261619102604672, -0.5832081841138521, -0.11272611657052961, -0.23209315921027257], [0.643741017718457, -0.30961915062452516, -0.5152493538404869, 0.23076984727184424, -0.5880357819972122, 0.18971263090641238, -0.8851217664399397, -0.2977410210010397, 0.3284631717859119, -0.8235418403057992, 0.6891059231202323, 0.3579489267837721, -0.33615989738750296, -0.9205585249436611, 0.3637177612875129, -0.13363746350393718, -1.4414138588509657, -0.3694963101228129, 0.9100669665162375, -0.17085209122412257, 0.47261991468375625, -0.16483437467300222, -0.15405482408940555, 0.6825654528238273, -0.6530791447222809, -0.5422826992240484, -0.10457299723424249, -0.36900989503143733, 0.6999328686121568, 0.03632425621357087, 0.7220166339585765, -0.5102093754861563], [-0.05566602488355096, 0.40235729397555126, -0.04837065278617131, -0.1394898820743616, 1.1508455147092336, -0.3203385757288566, -0.19898630538748469, -0.6012329007151165, -0.9019833863058555, 0.3335740835736632, -0.6420157012239799, 0.24002491454798983, 0.2586887833979143, 0.1594473461778287, 0.36422741548333626, 0.7195332226861031, 0.23638840976763706, -0.7070143714130281, -1.1041714675229664, 0.9556986930497003, -0.28939964238526805, 0.18018588388636547, 0.8320735423275947, -1.1310720964822905, -0.07780794931638049, 0.804687383996774, 0.3424698902004768, -0.16281627134514165, 0.17361800810662317, -0.39701799191374676, 0.15754791240341834, -0.7204523652352477], [-0.7967358170778329, -0.547073806353629, 0.1647596574395318, 0.24264141110358473, -0.10260575665413013, -0.7586113896954008, 1.2286337793735889, -0.017022408601028716, -0.4156758146494739, 0.357695303755231, 1.048726784214527, 0.8512176387760937, 0.6496439276233159, 0.011518791923949341, 0.5816514485725928, -0.6061208605476629, -0.2278981893082369, 0.3141250362239877, 1.0296079392006474, -1.0453556578017082, 1.2258639380228407, 0.05761534621382921, 0.13235921863859773, 0.41426723151496836, -0.4030624161783261, 0.06619946109741347, 0.17811885289989446, -0.6001013463732484, -0.23940207197125263, -0.9725114040787686, -0.18833069575040234, 0.4771099125300657], [-0.7749614476185354, -0.2106426079330283, -1.3451804753026497, -0.3130147033981278, 0.7779922297197737, -0.28382838752662654, 0.2007416676665384, -0.6880015301471984, -0.47869091207203185, 0.17843637976601767, -0.03925579783838379, 0.05745990664525878, -0.4145757966133897, 0.245820811872404, 0.5279390621612101, -0.41692840024391, -0.39541807953341324, -0.9144731521785358, 0.14618475635983702, -0.339600387859302, 0.23903311114452824, -0.34460685933829677, 0.6139608487407858, 0.0024031357896906703, -0.13222957771812816, -0.4980708596698219, 0.6146481041965329, 0.044966650689222454, -0.7172912686910109, -0.8496310406864679, -0.6641341287551406, -0.6458663861723062], [-0.26175395859870165, 0.4923020220067213, -0.5137565315398748, -0.21622246388233562, 0.05126557593610171, -1.157760623581492, -0.4147502595565724, -0.2961488626752554, -0.10022383564907014, 0.8788816145490352, -0.767197732762489, -0.17684797636000588, -0.3397246650482038, -0.4975429200845327, -0.36806458835141703, 0.8799780126221938, -0.37235309147540274, -0.020040920846870335, 0.6864761716079502, 0.6563484717279409, -0.22631918433849785, 0.697505529586602, 0.08369903956746588, 0.8183779986907517, 1.0016093890500057, -0.046287948396161016, -1.315776954798864, 0.39088355851907974, -0.38379211510642064, 0.6192625570623095, -0.31300113359190884, 0.8944154620091249], [-0.35007617747468117, 0.9881198474644419, 1.1410667667332097, -0.24192198907567045, 0.11692865179203529, 0.705490963194594, -0.2148517707194097, 0.593226392361457, 0.0589854278092604, -0.88951250841547, 0.36228154564916515, 0.450564005350759, 0.8495584517246169, -0.22704422832107424, -0.4747298390354828, 0.8773480739736266, -0.9485032793037561, 0.37965659965811516, 0.22406778247951548, 0.5256968017639391, 0.009890827223914888, 0.004613765775543526, -0.34463085790318815, -0.820604369624296, 0.2152518975483939, 0.4877709415850142, 0.6070361126356123, -0.46237290111270335, 0.6848449645591853, 0.11001838196202926, -0.2366131886115065, -0.10619924141351095], [-0.11164516364013856, -0.13547357861247364, 0.9205485510120547, 0.14241467637169436, -0.5937755096449906, 0.2088713308001991, -0.4597057385901095, 0.25649138240335767, 0.20556881298467644, 0.7415958896237297, 1.116126744511237, -0.1504158122054702, -0.5524699486989822, -0.18641061634189016, -0.9659092879521063, -1.1806805424244633, -0.44987723644610444, -0.7552014979075712, 0.39644591904914883, 0.6201659776647821, -0.8123643132684447, 0.8070819639637827, 0.2335606227956239, -0.3877592740177645, -0.05848279696817964, 0.4225485340905387, 0.14164200921315856, -0.5974784387904568, -0.3976197838100042, 0.2238326600914269, -0.6055041845257438, -0.18786937049694202], [-0.5441891587207904, 0.6412476435390992, 0.560850274534465, -1.2938587721838277, 0.2887359729574994, 0.707037373435597, 0.3835847876027767, 0.3110435402180892, 0.7082478503124665, 0.13966481574323558, -0.2250021512077552, -0.10463928712702025, -0.5149213636271421, 0.8212549772937968, 0.24799200779511382, 0.6331606433230503, 0.606214662323606, 0.22185577834971987, -2.0825397831597696, -0.8642714819091193, -0.4446642360033817, -0.4219338966694608, 0.016704189493792015, -0.45478226317810294, 0.47368913862609197, -0.6524993177526383, -0.4855116499080305, -0.1931405537966312, 0.7212972662864816, 0.5429937971812375, -0.05862567171135531, -0.7597653801503803], [0.16447745746273779, 1.0441345462379847, -1.5069541900230106, -0.4375082390846086, 0.5537449409219176, -0.08290696443749149, 0.6229418829541187, 0.0726701794121186, -0.23457554176843953, 0.8568732711816258, -0.22978740577808748, 1.2473434215960009, -1.072118597099238, 0.5621845028374349, -0.7176521210687573, 0.40446358863466125, 0.02159562513788736, -0.028754542542700837, 0.1666629648937678, -0.21320008774616112, -0.4724959121504617, -0.6964719136301278, -0.025551987860849952, -1.0439318003349216, -2.1132180313351197, 0.7129416814473571, -0.03417574646793484, -0.01830002948190524, 0.01621272534954355, 0.9328685551893815, -0.3673597430459914, 0.564576465855096], [0.27250641127722536, -0.19367532375649893, 0.7313562000417947, -0.42987001842067984, 0.1314653135208297, -0.6010401119097855, -0.40451583081406295, 0.30718240174845374, -0.9017747375915606, 0.8033113580487907, 0.5401638258602615, -1.1408705527116103, 0.919309841683249, -0.33605247388135034, -0.2792569547596093, -0.626439319576092, -0.21363225447510903, -0.3056837300354831, -0.5414452210439862, 0.3879723549061465, 0.946714412523508, -0.10108060584662486, 0.031917717347641816, 0.10797085942958323, 0.29305070588768556, -0.6390720688386257, 0.3861311565027025, -0.3044771669384232, -0.23708936106761605, 0.72297189225866, 0.7992548630338494, 0.3143323972977905], [-0.5040633041556006, 0.11358831292859513, 0.4794008534103814, 0.32596756413850714, 1.186364807759348, 0.3669954311990423, -0.9065565310539555, -0.15689584131594037, 0.28408571135027266, 0.8993579332644761, 0.12366841882163458, 0.9443855585412682, -0.694681804786033, -0.5926572335167739, 0.07148088098245203, -0.17896320976181362, -0.07345205026562393, -0.07042762408907927, 0.1271858991902479, -0.7588002837598733, -0.5728691879123924, 0.13508696966670242, 0.12534045306231306, 0.54677866784504, -1.0944747974424789, -1.4650381671213748, 0.6991079232184857, 0.2165707264393572, -0.45835552340393865, 0.3237478523918184, -0.43224121031973195, -1.0908119616366587], [0.2658518612136277, -1.2353981170312314, 0.834859205234469, -0.1317375284865975, 0.45682333526818814, -0.09083744967113895, 0.03448078065792828, 0.15147715719784194, 0.404262270553421, -0.6461132826079794, 0.13647000648403323, 0.15490930530803715, 0.26285091702974617, 0.3717764948061643, -0.6056710108075936, -0.057479475509916333, 0.6927549213548019, -0.42772993889926353, 0.4119044712823379, -0.1437910880092998, 0.34774262648481646, -0.2498694526950868, -0.10258341970286249, 0.7859404557164349, 0.22452437203150724, -0.4169702223378592, -0.539647837802804, -1.376067311417064, 0.2901371418526488, 0.7169128587391971, -0.6797793947287547, 0.8250118391648764], [-0.6204296951405653, -0.6655464840918364, -0.16996172017811428, -0.9504567750693743, 1.4877887530700393, 0.288107421215174, -1.2032831162396809, -0.1033549637065122, -0.12033540768493842, 0.9177933462106634, 0.2921108006285347, -0.3554028987294028, 0.6212038333312628, 0.4769076890225994, -0.8191375123148297, 0.018446307149847112, -0.017719721852250254, 1.4676519599428703, -0.47356865109260154, 0.15057793915922893, 0.5780237113219983, -0.17301824296325763, 0.4218889928131429, 0.004601236705019921, -0.6726622640037027, -0.05558991935723678, 0.5322498674029272, -0.20580207871163905, 1.066000107305796, 0.3363037087724119, 0.37863444950156233, -0.5914900690019196], [0.25108685195997854, 0.13381425788061185, -0.14287664146072215, 0.048071677227272486, -1.2607598952842185, -0.18723952934511573, 0.2944946086275503, -0.7202123894956598, -0.01452577780317945, -0.41142323594499136, -1.14317034994132, 1.0742954478363087, -0.8778959931783998, -1.0783718190697749, -0.6198738862678852, 0.021846060425347417, 0.10165865929927742, -0.04830998604934963, -0.838988472312753, 0.29719999956396725, -1.1122965785891856, -0.4971733039490817, 0.3450408330823712, -0.4752718765840675, 0.10025465237104694, 0.2845796714493542, -0.8928527240648079, 0.7522050389272739, -0.6295832064734381, 0.0539678584015093, -0.7593750651653619, -1.044369938656319], [1.416098058530061, 0.4437512249254226, -1.458560399180576, -0.4805352276244981, 0.38887424845726504, -0.34276716611804736, -0.17822494967852975, 0.2931377336126943, -0.4478841762132655, -1.0624493503182117, -0.8189127075618416, 0.38388247121482144, 1.395188265471643, -0.0003043174177724807, -1.584952217265501, -0.5277267558985195, 0.18925287739713148, -0.5166695348479786, 0.17544836918431378, 0.5968496451417966, 0.8860244616206009, 0.2950625951492571, 0.056874085839027075, -0.012237561997230252, 0.669378931741486, -0.7169359203575909, 1.180301707267728, 0.012431373631998211, -0.07711415233435909, 0.5031710538366537, -1.372651468544083, 1.0370106406016268], [0.05038567406283903, -0.09644934752398518, -0.9960107549365609, 0.03212181153129521, -0.5901580727750527, 1.1034633260747548, 0.19368200471104674, 0.8407052442451982, -0.04726101288763061, -0.5596979198855749, 0.406056978594978, 0.697256288453127, 0.1683551296657263, 0.5361838862714086, 0.16064044124539767, 0.15016035651959375, 0.7892781668940647, 0.5973641228943954, -0.26481943332733915, 0.3834716270696311, 0.4400166416871305, 0.7055452783557694, -0.10775306539808974, 0.9411313205314625, 0.502434580481482, 0.888285545291899, 0.2741233057285691, 0.22712820325359784, 0.33639188610457466, -0.14553111808990413, -0.33034092316212527, 0.02069610162826652], [-0.7256719857536695, 0.262744400184735, -0.3031229374483855, -0.2921182364777535, 1.1626476219611614, 0.7229347065556525, 0.552803484157905, 0.08159805602464479, -0.3094819220303757, 0.683828834540034, -0.3076399916768312, -1.1325679757196827, -0.4830690711676934, -0.5935698738727977, 0.5504449646015938, 0.6303564605984742, -1.0528713768185678, 0.7362863508835845, 0.17411257684377895, -0.588235186291898, 0.1197427141002885, 0.4022327789656134, 0.9046866090623142, -0.41815459288049944, -0.07940613157672613, 0.2536843973997086, -0.8919220921526307, 0.03957244446702299, -0.22392414686308973, 0.7736173943889935, -1.002001624636911, -0.7988907117482396], [-0.18736089741863735, 0.6936233347302468, 0.5897297682255473, 0.9896317498861246, -0.4991499736461209, 0.13679548894895932, 0.5121612842387866, -0.7595864649591895, -0.3806652097216248, -0.3002982687473703, -0.3610770145413347, -0.07814930026267836, 1.0845705985451959, -0.20065426699207817, -0.44788998424685156, -1.3726638427755655, -0.4088349839548914, 1.1066835797341184, -0.9576515663948314, -0.3606045243307294, 0.8341130621491046, -0.03879667783110735, 0.5358265616360972, 0.4848953531153477, -0.32276823981026126, -0.025927486546946307, -0.7757720546280494, 0.6111516322803787, 0.05770042038559468, -0.39091767321123283, 0.8150823612779563, -0.34234276336634756], [-0.6107307436310536, 0.5369873821545776, 0.03430631869701735, 1.1190606840344672, 0.7133012015269, -0.7045411513281172, 0.7385615439540512, 0.8213674804120332, -0.970406714912275, 1.8722384885549919, -0.7099490071218135, 0.11875803873139543, -0.05119528438936242, 0.787997434622914, 0.07935879976901714, 0.2371001964930716, 1.4624495275676543, -1.2740733434143188, 0.14896436426578386, -1.2719884567660797, 0.9180395614750598, 0.044962122468564125, 0.18943453077197236, -0.584537785876043, -0.45125379615286465, 0.0998003443023599, 0.019173808070736993, -0.4424000076884751, 0.7296190724731829, 0.5925427044772005, 0.0004169785927811029, 0.6788507344196695], [0.80352915299148, -0.7947965587160439, -0.27822339863477774, 0.6408506500077685, 0.6352324459308487, -0.4098124260245437, 0.16201346923746943, 1.3548557736817752, -0.018523478629631895, -0.8161255107326765, -0.5761362260776128, 0.4897668192851412, -0.035701757861891295, -0.051454986158396276, 1.4290524902376034, -0.09773337851261946, -0.5031632457357255, 1.21325632556897, 0.019100310239867458, -0.8883430124009704, -0.4314988905593646, -0.9474089519367874, -0.7621906346706572, -1.0609942026555266, 1.3137897167400374, 0.4099452954556922, 0.8757396032342375, 0.5329820521237272, 0.26350277208809225, 0.18984867556765225, -0.36037910554909214, -0.48788267801723756], [0.028466728285724323, 0.5055102766987287, 0.547622146472891, -0.7409063846842101, 0.34864850769047306, 0.07603161772421532, 0.45699114332156787, -0.3631987274599252, 0.265231418331881, -1.5218277677185017, -0.6066042387169124, 0.5711079479811363, -0.5593867006527236, 0.01981805160426977, -0.5498137604315577, -0.2290683660084857, 0.456152113068718, -0.452889022117186, 0.2822056735655444, -1.287936504752801, 0.05578650136179201, 0.2361017473529392, 0.029907562292042365, -0.9637762282978116, 1.0215624339884284, -0.29309329814937823, -0.7823028226461035, 0.39113608869390754, 0.18440492301197348, -0.48562142541991504, -0.08814933809579097, -0.3376812030423383], [1.5620263437859687, 0.39002658786254757, -0.402791273387595, -0.345861357106764, -0.18607589606690594, 0.10702606673356507, 0.9332294181108207, -0.2209943890072923, 1.4628752233616102, 0.08558060638747444, 0.5925124834545192, 0.6711640221161943, -0.22847038287768, -1.233618144079732, 0.5070092473964388, -0.46157116006334376, 0.39940966000302713, 0.5380688033781277, 0.24140072271068852, 0.2989281612651241, 0.0733720259221452, 0.480247227416344, -0.12747838365803338, 0.41682466338524465, 0.25513940353583764, -0.8630035476164724, 0.15864637610806276, 0.6687733099396734, -0.3078184131714953, -0.05453717232784262, -0.1916643821094266, 1.1211431460553718], [-1.5388104967706238, -0.37540179075163205, 0.2437089849556219, 0.2865529343530435, 0.8085333125639788, 0.20975069271171953, 0.1875455830583758, -0.8065114088514604, -0.3140623371562292, 0.9788298062164864, 0.08440493401418962, -0.5621726606742973, -0.5271494053369868, -0.6386551021651278, 0.1008082013224224, -0.6001107850846865, -0.956626403555263, -0.6846685228220761, 0.1268526226364977, -0.7225314722137159, -0.4104300898132563, -0.18387185400538292, -0.14021485646400356, 0.636068739494928, -0.15781824190479798, -0.29069666256213034, 1.3545627648940175, 0.5010390476551894, 0.036425521391199034, 1.1965648566295644, -0.17813827462647458, 0.3564731526984264], [1.0463944962740435, -0.09629998629179091, 0.42921008515216785, -1.3467811578152888, -0.12891314408064522, 0.18325858266594947, -0.3991534253718891, 0.55206090289738, -0.7621685080962044, -1.3658575293269055, -0.05124373522483838, 0.5357788351558026, -0.8856036767131003, 0.5542768061882847, -0.6856513466401684, 0.12400371336720639, 0.2350813326163157, 0.45171027130215297, 0.3107068872737154, 0.7171095429194, -0.0007211272640710964, 0.7396715747828304, 0.04603328691583671, -0.12844940104228586, -0.27981114281903874, 0.08447517417450055, -0.41864999541983294, -0.4811840754368515, 0.7873100798030784, -1.0943144497791464, 0.02635760739781991, -0.23270532769716434], [-0.5591517304362446, -0.36248886421914384, 0.12960835430191636, -0.5330509626338827, 0.4620925507351234, -1.2860921778604597, 0.26458777444827986, -0.48132249430528357, 1.1604974215273658, -0.5799486654938786, -0.37931928446796026, -0.3183493863028162, -0.4805051195644795, -0.48736097772905246, -0.1389996505243184, 0.22584062597094426, 0.6426300520341773, -0.22348243616040464, -0.5709111439163044, -0.30140702534614605, 0.0849658818577192, 0.335288696613248, -0.28316365830402496, 0.7408883242026781, 0.8034096707839268, -0.6036813023991903, 0.5048628335606147, 0.3645284332896249, 1.4510081154677428, -0.23743113794340132, 0.7267581054739782, 0.23548019957867966], [0.7065746603062801, 0.14950411682788212, 0.5896329436907217, -0.2843302174489865, 0.39977291712165935, 1.3011372900761544, -0.6096899789542616, 1.312126870274596, 0.4120029366984638, 0.16702601647922394, -0.2586518737370619, -0.03407266650734997, -0.5896420027793079, 0.06240893231482485, -0.49475339232115345, 0.13564947499747315, -0.2565704598797981, 0.31492439299797503, -0.9874718955159787, -0.7423244633295223, 0.8200561888618327, 0.6709512343805595, -0.013612804526052664, 1.0850383134713177, -0.5359133515205303, 0.8317598820602498, 0.537266339876801, 0.5061755745094667, 0.7541281250100843, 0.21132114641464747, -0.23788679269952198, -0.7420561750574779], [-0.882395904971907, 0.6649422621696557, 0.02645320098390869, -0.7443934419620062, 0.21426593105775327, -0.3620352382504797, -1.0840191177910832, 0.15653442525455194, 0.056557903856016375, 0.90888426439236, -0.9254933651114543, -0.65958783609473, 0.9667754221785365, 0.43480267783245596, 0.16508171519074016, 0.19880409749945732, 0.9757865836061461, 0.6142286561794668, -0.8082136628325705, -0.4631654088420258, -0.1445018328794082, 0.5966506246213836, -0.3887293912362016, 0.27826992738615786, -0.5825360242284323, -1.538687781493772, -1.0436635550125861, 0.6635774488986291, 0.5904941785380213, -1.4082829115758497, 0.3157979414965587, -1.3839913008761244], [0.9720289405162963, 0.10460279398476154, 0.35459656886487384, 0.18357769549508843, 0.42544700274303443, 0.37837376881380536, 0.35156421534835297, -0.6124742260925224, 0.7874932829435822, -0.32992382354682626, -0.2716285392085253, 0.5693804713708945, -0.7273369774845231, 1.0420228249346577, -1.279622343965886, -0.3789993178016604, -0.22973860726567266, 1.1775004841549968, 0.5035585605176378, -0.41773096441283697, 0.7501549551167439, -0.4075778967361668, 0.1599031915100264, -1.045133492925021, -0.34876721719160453, -0.2460215465662618, 1.0150994044630313, 0.8005482915967992, 0.34491593671107323, -0.6441620003976741, -0.518053444977445, -0.050755743584979196], [-0.7207648574699608, -0.2538650689262739, -0.12692614727159848, -0.2120446130350535, 0.7599018252482421, 0.6289331047384039, 0.5559889799194602, -0.1185072403628121, -0.25748544651613503, -0.5407531587677674, 0.7787519484297549, -0.3498237264805318, -1.1721088463677147, 0.6848473717243657, -0.06326038374570193, -0.286760422004003, -0.7361780661678032, 0.20107976358059274, 0.8782046302304425, 0.9493706997718494, -0.884431041311509, 0.05234247270810981, -0.9023976367306462, -0.26732915238275057, 0.7068247428904114, -0.9036411686749737, 0.9871050587460869, 0.5296125455235603, -0.8740156270001952, 0.37465758586020076, -0.01918474919362169, -1.2424408377055967], [0.8203510250613129, 0.13864260127344838, 0.11894207706345086, -0.5398151389503871, -0.1572716538598561, -0.6430334163973096, -0.5818764906457095, 0.4130068247868206, 0.029118000538119457, -0.1407103598531161, -0.6414188009134294, 0.8779081605278622, -0.21996432812495914, 1.469628866177002, 0.36751034663913584, 0.27775179641117614, 0.1324699876451358, -0.0011248513605027974, 0.011698055226325887, 0.15366929995150014, -0.6076473315834171, -0.43860776996278505, -0.09138259175557231, 0.7775287555080105, 0.4627379440300101, -0.09245515904642966, 1.124960355442997, 0.2536803719784627, -0.9323276217278971, -0.08499562785227484, 0.5243094961839554, -0.005044433569700553], [1.1086424898107197, 0.11850221078142902, 0.14050121660097992, 0.22378388180232806, 0.41960552848442667, -0.19057023086616137, 0.41805200625200356, -1.1677651340957282, -0.43108786464175397, 0.29258455815618645, 1.3039099603748014, 0.12795280901704092, -0.3328691198155585, 0.45520027088997617, -0.45782323479133286, 0.3563392986265798, 0.2856842367023222, 0.1831337599094437, 0.3069181981712136, 0.3787153514632722, -0.2326897551187104, 0.9609727209190537, 0.3296725821126893, -0.3560474039042906, 0.2416744701513506, 1.2446356557040419, 0.09425497785525064, -0.9588985534258525, -0.16115657895108282, -0.45622901926476833, -0.38069991493217703, -1.6598947576087595]], "biases": [[-0.12579680410708893, -0.03249502413768107, 0.2481972700775597, 0.4525402360180685, -0.16449301379970882, -0.15602645521833783, 0.015708295012359208, -0.01149337572144621, -0.07940989067566304, -0.4639771358560723, -0.8369122530682012, -0.45767976205113015, 0.2495981057355705, -0.1415414755373619, -0.36246472002593455, 0.8397267199619176, 0.160101376675765, -0.044758878102421525, 0.6959760406093378, 0.16434510810120662, -0.4593973765817284, 0.35046192778993346, 0.16083218611357475, 0.2494444358300888, 0.8891226453478078, -0.4093525410745562, 0.26862569322760543, -0.10791246719594116, -0.1634000274672926, 0.05737147181931304, 0.03508153926673867, -0.022227971754596457]], "output": false, "input_size": 54, "neuron_count": 32}, {"weights": [[-0.9836618253777198, -0.22708525336915092, 0.3467447789609243, -0.9425200108353314, -0.23170585874885413, -0.2595527711707172, 0.6137951504905929, -0.30423747676251583, 0.39004892483905895, -0.5310022350887824, -0.43211678592430325, 0.15901562682282122, 0.34488621484301374, -0.42882005623152075, 0.03536089671562268, -0.12207709424850524, -1.2823519709305022, -0.14319201237790286, 0.2034566539087199, -0.3567924279430566, 0.5020503527149569, 0.7148171026258691, -0.636047128959841, 0.8994106432879216, -0.04135347185356958, -0.1299935335477009, -0.07496956894949332, -0.4423226714716525, -0.47602516578856013, -0.638209758912305, 0.20947565627599057, -0.1161489649934194], [-1.3379774440121825, -0.5139077595312659, 0.12182942701619442, -0.04869758200108447, -0.48217256048080703, -0.6895733592303135, -0.41654451609152354, 0.726360132614869, 0.5965278985182075, 0.294277055032361, 1.3478628374309116, -0.6554821427722334, 0.007442091703999877, -0.14465766951897568, -0.5162285752768334, 0.9084084656458928, -1.0518304715388647, -0.18731247495462844, 0.3504647750746944, 0.006596417432083709, -0.1640610548237585, -0.007600190860574132, -0.7733437110012304, -1.0393380813546966, -0.19079959792732648, -0.3707122975710979, 0.2907173785734015, 1.0133598257108825, 0.5291133099738622, 0.11060204961107267, 0.27214568310569426, -0.6165923806185551], [-0.5385260691014994, -0.9237081205184363, -0.030535196636893955, -0.06195161224634613, 0.6619307594735864, 1.084016362737999, -0.758769385329505, -0.11920258987180529, -0.15985960959256013, -1.4952159961384213, 0.4524576951608046, -0.29132682492158246, -0.14685589600787263, 0.6648764754553582, -1.4423703048560568, 0.12293443167663239, 0.16521041338190323, 0.006430132565616621, -0.00952055012155136, 0.5483610567276787, -1.135100025508737, 0.7271637170523231, 0.5837295795155653, 0.8430923326255435, -0.7196850077886479, 0.49625284270675774, -1.7434607141877299, -0.5486265510761232, 0.6718887506730744, 0.21451493245001307, -0.4782797499272565, 1.346696809501565], [-0.06712881664845657, 0.22998810261313263, 1.0688787930277757, -0.6336771045931463, -0.13865017409456526, -0.1628811713022249, 0.07703561618610791, 0.5232676249115162, -0.4086332560401428, 0.0595058087958769, 0.052337600352822936, -0.06840664995976752, -1.1948722654183919, 0.31143607068783463, -0.08401085225012137, 0.517461083663844, 0.4781779252701521, -0.4384889300784086, -0.90051981122801, 1.1719200556938647, -0.8117293139820864, 0.5029970330711618, -0.42722332076225344, -0.5039275357502075, -0.26345598983153606, -0.7780409289048044, -0.5199419218084667, -0.7847834547807822, 0.20945905160713144, 0.21288414524001692, 0.4458845149347421, 0.8422050516687629], [-0.6502008750762118, 0.3528214084397553, -0.3725231741949093, -0.13781261396935202, -0.213887957237337, -0.38424079438450087, 1.5571262273137378, 0.6596073583922601, -0.7998535949912956, 0.8344679332648555, -1.039588478465171, 0.1280016593749162, -0.8853226509484711, -0.36545846304064494, -0.9867035645423382, -0.7251105008386082, -0.19475333278575185, -0.29880875537970486, 0.42934522251939683, -0.19641959158549033, 0.634555747369246, -0.044741895913249285, 0.24491003612761553, 0.21101886318976432, -0.9451047921717646, 0.2655188872842593, -0.5800257972834906, -0.4682559525866051, -0.08067306748005498, -1.255573869661124, 0.2759542184975737, 0.896524744616417], [0.3716959994186906, -0.37770917226171397, 0.12765599780794812, -0.31191969160416555, -0.4303424864826022, 0.002120304079256303, -0.5641195772534482, -0.16688144435887559, 1.0112248241750814, -0.5546752052137376, -0.9010550358296363, 0.7069156102222554, 0.1279184796517044, -0.1173032746755878, -0.5168453895287897, 0.6251729383956155, -0.5915976222884145, 0.8520794900486829, -0.8527006650951992, 0.1418708627698556, 0.803421383387583, 0.7215562430292007, -1.2453204899656998, -0.3172757388900058, -0.07370361525540473, -1.2714536960622342, 0.03380565191367675, 0.8381424721681505, -0.6493443837336002, -0.8616817014329178, -0.26709537067999356, -0.25260427565289345], [0.29283938771565965, -0.4859728231279813, -0.77731043185162, -0.28824636823128363, 0.5516421980579473, -0.20031004585784057, -0.20076123139607194, 0.28231100549558663, -0.11836478625597784, 0.23677886517593139, -0.23191818308782974, -0.423642997775946, -0.1192436935644321, -0.7117620437560008, -0.8553948988823958, 0.1621740206229546, -0.6404896930120222, -1.275429840514404, 0.7204035688299958, 0.16125185250268545, -0.1885082914739269, 0.41882533570739355, -0.3769490063539638, 1.1528878411215902, 1.3268870160267436, 1.6082191287757666, -0.11270785206117126, -0.8242505332594978, 0.547567734477922, -0.5242783854673413, -0.3594988756332419, 0.948890870148926], [0.43404528945448023, 1.5022226185705359, -0.38685915517088876, 0.10323913688199063, 0.47504642834074484, 0.7697687648523555, -1.093994972317136, -0.2418716478504197, 0.12023421570058646, -0.17070081756431166, -0.757596369167687, -0.6551132428071978, -0.02295060296941221, -0.3201399687018034, 0.05946264756246349, -0.5416464319832985, 0.05687311796317029, -0.26907008511077124, 0.615650214113739, -0.6884439575254728, -0.18111606133758812, -0.07903864887492723, 0.5046053266220074, -0.6564872038624272, -0.4297830192301231, 0.03795792208175594, 0.27051780998903663, -0.44613026204673156, 0.14523520436237358, 0.16973435801235856, -0.6878978398257785, -0.9112384850481371], [0.6712118934384903, -0.12539099905614592, -0.007351994545405798, 0.1849958946454099, -0.23022610585054612, 0.5640977360401311, -0.07016667215171232, 1.0573778949153068, -0.39644904953239596, -0.284617919236016, -0.7221410797157748, -0.021420736002691197, -0.12742685196069642, 0.13601848848910325, -0.028611826679636, 0.07108165581736273, -1.1981799460251121, -0.1812167907838798, -0.3588830785097743, 0.41576126934862223, 0.7726202596139851, -0.20075432610199895, 0.25798184619975273, 0.3052673372872525, -0.00867424308041854, -0.360045198593241, -0.37618137811185137, -0.5008237886285773, -0.07468599966978758, -0.23124690171006923, 0.44190885566143356, 0.1700591621183657], [-0.37293926907683805, 0.6800717709009212, -0.7557477295928026, -0.204975315121353, 0.4242914655990337, 0.15805283224541936, -0.7216307275326372, -0.7932935355074255, -0.8688719240517373, 0.4089034471199058, 1.2387107938296815, 0.019890237834768936, 0.2664625914824641, 0.6926171419775968, -0.8877194587173973, -0.47593711945386696, 0.2870873812811351, 1.4111324493941932, -0.9880012332285837, -0.3539773518885754, -0.534993829495959, -0.6810722356124224, 0.6724943885654475, 0.9169843425071755, -0.07189673582243097, 0.48042817366644286, -0.3519143998761498, 0.10322000585264257, -0.20519636915073883, -0.6729542777664909, -0.1738519027035463, -0.5452063903985649], [1.697744487263603, -0.24066236275950537, -0.20006616320930468, 0.46489214856047545, 0.8444457298890575, -0.3184974337151246, -0.1964426081373971, -0.8342255089751288, -0.24040931130594428, -0.4607960330204789, 0.6012557602058185, 1.1085980566919136, -1.4257636099010638, -0.4425851035041831, 0.697398411016388, 0.36790145680446795, -0.05128222193907334, -1.087542623071874, 0.37867833341347534, 0.5816815643538318, 0.39897801274014255, 0.7812570551687061, -0.2501554532539787, 0.6893183989503753, -1.0240501230364323, -0.3156611622002078, -0.7429548822432113, 1.1256873996113195, 1.227556498047437, -0.8161242927698977, 0.2032736829302621, -0.9661307192506642], [0.6676284410592694, 0.7656947530226987, -0.9953069347148956, -0.0113462602772895, -0.8627874581806287, 0.1463284545645763, 1.1120916686429902, -0.1679784998968713, -0.21320250172754251, -0.41149527786563056, -0.03625588539190121, 0.697605704918989, 0.04484271601133795, 0.7679834641812429, 1.927407886390272, -1.064036728589262, 1.1373552333923038, 0.3711618185119319, -0.7703945375278413, 0.9234839392834766, -1.0510049229199012, -0.7588935533660097, -1.435666425949015, 0.7700810856799626, 0.10825871477286972, 0.9144717938957158, 0.984016474011945, -0.15938008369506257, 0.029868777902999386, 0.5777894896935354, 1.0165626246245811, 1.3218097317764217], [-0.22762318316946867, 0.4686694467514958, -0.36396403195667, -0.3759069953717462, -0.8033371433691903, 2.1646302541939955, -0.6390417382560415, -0.39982589824413606, 0.41617003329101077, 0.6351604731784615, 1.0211061726839024, -0.20580898245695659, -0.2718876920237422, -0.3416678945972776, -0.6389636152794277, 0.0005235943101130659, -0.48334276186386604, -0.10030884533592709, -1.229739051784621, -1.1378382173997537, 0.1659054043252257, 0.15932614528261044, -0.4500294606419026, 0.7725120412785345, -0.08355260144902787, 0.07171995110316909, -0.37968856490164987, 0.3161793478542123, -0.7899871621831741, 0.5385949317124283, -0.14215287640359026, 0.19363368909916762], [0.3022400283961766, -0.34514876529575556, -0.27699870091890044, -0.5218044423391116, -0.524356745286092, 1.2151912427995684, -0.3304246602565332, 0.467188601399475, 0.8596171576018881, 0.14314919308772298, 0.4182793612060619, -0.6047145315265781, -1.1948141377012238, 0.19799394258430295, -1.0822014445077213, 0.6283167752412602, -0.13062024874826533, 0.6585207164122612, -0.08800025915240312, -0.29864178626068494, 0.8777021697366642, -0.3375656466427871, -0.4109489239448969, -0.6539036406310997, -0.25560986998679747, 0.15125571348792663, 0.0827079923867754, 0.3146053983011499, -0.15214508305714078, 0.006087608725827233, -0.32948090507524236, 0.1626979468462695], [-0.11207449993275097, 0.6212248126745865, -0.1402829906848883, 0.18631483579786778, -0.16542865418697011, 0.6010357161207232, 0.43351132864261044, -0.36469405321825316, 0.9099827070439208, 1.3622374875514833, -1.6327117224427028, -0.16463088541925563, 0.2624021521712014, 1.0672439635103177, -0.4844104768057272, 0.2560101285257242, -1.0720192212804314, -0.07669507558325664, -0.8786733146031258, -0.02651220818890115, 0.671017083921924, -1.1957605323959881, 0.08666176700446052, -0.0760959656673926, 0.7664119159158349, -0.06347022494453256, -0.8376322124431168, -0.9520289953295413, -0.03472506552008007, 0.0192884132705609, -0.5209117484778225, -0.5302663738490709], [-0.2901443679537463, -0.43403418509949077, 0.4351895438282518, -0.2563757504626301, -0.9643932522048961, 0.691757191757484, 0.6207049947994562, 1.0987056664431742, -0.3794380209217934, 0.6888650067766611, 0.454279317640507, 0.12646257131535363, -1.0034663236450003, -0.14064015502491256, 0.36555105718040637, -1.147307838626119, 0.48271000565629196, 0.49179055829084717, -0.012904388499439355, -0.4934226200620552, 0.5609699812380857, -0.15397532155874058, 0.22056013279955436, 0.1708756430709713, 0.5939460554885747, -0.22772931123411788, 0.61880715848155, -0.46568474607445465, -0.22916703808978697, -0.09511219171310652, 0.6366249988122044, -0.2738695617159304], [0.02583275103093048, -1.1937084139369314, -0.4769383562136116, -0.49485954449476893, -0.6029507432713653, -0.7486104538934357, -0.08773410663334959, -0.16267612326926745, -0.08301875474086257, 0.05662787539624692, 0.781626611090766, -0.2872535705801629, -0.11337410806886146, -0.969816473328627, -0.5028539315404776, 0.03248712470749765, 0.33450247185608173, 0.6096515495364392, 0.30533518514534125, -0.6035876112856194, 0.4408641646719914, -0.5504701987928237, -0.6982977372288011, -0.5252763774806601, -0.5329653277880335, 0.720884607420113, -0.34025048204656805, 0.07438187944397233, -0.943572556174453, 0.9587749235628913, -1.6818200769794234, 0.6865670019355372], [-1.0617396817293627, 0.037977004250569754, 0.04000039814592801, 0.513225344870858, -0.6550656900833333, -0.331232124155695, 0.013562801065753513, -0.45544613340719703, -0.4405835097715727, -0.8943396183110076, -0.994991822453393, 0.11625572227344302, 0.2910480679165911, 0.5662453197928635, 0.5774180917453173, 0.7611375585615787, -0.9214007197476034, -0.027396416905983836, -0.5457870842377187, 1.1825770632779453, -0.3741757504967181, -0.8442965992234279, -0.5320983396633672, 0.06716248979071797, 0.18703482006736188, -0.06517819152530885, -0.1224655655924034, 0.42688221038777585, 0.014477964444138958, 0.033296432080507865, -0.19881890276894187, -0.6489373267680951], [0.6673416340485524, -0.816239911669959, 0.25127981042947517, -0.4824506858081352, 1.0640018628699017, -0.8503557616303816, -0.21654110603170706, -0.420510738960946, 0.17019450136068426, 0.021406935898137542, -0.540121431065401, 0.15046196959957578, -1.57376141681276, 0.01897567697678816, -0.0026962882947231233, -0.20676262241636606, -1.0548219577554008, -0.23874589773896895, 0.9786989181161008, 1.4126633393953738, 0.5589971850462734, 1.2877360584788369, -0.2186151367677259, 0.2712595280314125, -0.5397804496098381, 0.11584647161297823, 0.41143431693119525, 0.8206783637171285, 0.7798572850299593, 0.1330385731419343, 0.23939816220090682, -0.9121065426989118], [-0.5634896360959228, 0.6138952337390934, -0.08156779278543612, 0.3527409579420518, -0.25354836548439885, 0.17606470938424015, -0.5059171800213856, 0.5069288565132926, 0.039778283992455046, -0.2861240188135398, 0.1282076288559738, 1.0477836107166159, -0.346034162171673, -0.2305961866529599, 0.9459190636554602, 0.2548977594458779, 0.7918592951347834, 0.8418570701124657, 0.12146494124190228, 0.4655325608980748, 0.14620043362528284, 0.501665384332288, 0.6784090405033798, -0.22666116710889583, 1.1221386757558443, 0.696600543436882, 0.3925440230658293, -1.0115084398337193, -0.25764540835069605, 0.0891988507812787, -0.2583368542729031, 0.31626542151007797], [-0.6863087414737065, -0.3901764827971924, -1.1531686137287709, -0.7177780091973336, 0.8050749426905828, 1.3110552291992401, 0.7191633826602155, -0.691771148543452, -1.0492157156883883, 0.48424010076975177, 0.2939526658973959, -0.3399399699498451, -0.4161393957978243, -0.4082526293933648, -0.4081290953315979, -0.1206474178772814, -0.3898466931015814, -0.44278970446716803, 0.4670821241602917, -0.6886182467010542, 0.606240118267606, -1.6010940145388133, -0.1625507158621879, -0.4887917805260011, 0.9368332002612119, -0.7977513501849327, -0.34075413837646235, -0.0816328062767605, 0.4223177011672533, 0.4883242342305699, -0.5926876253279945, 0.45990750968152155], [-0.3509791794535301, 0.49534590429291875, 0.2895054297054244, -0.4205378510338783, -0.13776454886942488, -0.8696280721888328, 0.3213306083064109, 0.6475573005476576, -0.8239968551439809, 0.9499039671693057, 0.8436551889452311, -0.14948547764010872, 0.054074295465110625, -1.263577968869075, 0.4631522098960521, -0.46516118089207703, -0.3821601868145136, 0.28701383833355165, -0.15092467188425948, -0.6652243953217933, -0.5515423064076774, -0.48111410758655787, 0.9054985161126825, -1.1989007204221873, -0.4993675087781146, 0.9323976178394601, -0.5948929075796985, 0.38159536942918565, -0.3011893630810801, 1.2157557622386284, 0.7534838015488219, 0.6999726654493612], [-0.03142136789793078, -0.7733015816965068, 0.6342496684385507, 0.20319884234420513, -1.0241218786099697, -0.2756116533477627, 0.05954384573136612, 0.2846903163868583, 0.2632235217759651, -0.22238585026744165, -0.3430279273141391, 0.8532057063884688, -0.13113901860805718, 0.05815309258531667, 0.3112032019745823, -0.8102102810869444, -0.5398887109697776, 0.3706418263396557, -0.3676544160416683, -0.40299678837294417, 0.4595795196638035, -0.08600010105267959, 1.1021767597513408, -0.406108149804841, 0.04398538377283523, 0.6704358384424173, -0.3246977364142753, 0.30902963076071177, -0.061092172920924295, 0.3001409617158139, 0.1267000838353999, -1.1851768391330058], [0.7699892922018872, 0.6926237433604939, 0.05066039027293585, -0.5724502135487464, -0.4954642877154787, -0.8166145701566141, 0.06401625438555189, -0.7422860602835892, 0.20043331145790586, -0.29185145952272795, -0.8833220213896159, 0.5799851221730572, -0.3570213859824356, 0.08521380970438996, 0.31160617464718365, 0.023848979470590007, -0.3654960854562038, 0.02242159484081322, -0.7630754045539723, -0.36756778050821115, 0.6349842462603533, -0.27557365888326213, 0.9780958998088828, 1.038322588781842, 0.391049473545017, -0.1241615184877288, 0.3102351952951232, -0.65667563496644, -0.00694922243651558, 0.21083576692407394, -0.34432190051798706, -0.6425968338193098], [-0.24921189894144535, 0.7114833596277668, 0.34983362379118593, -0.6542781255293475, -0.29982280687706286, 0.5074556623770332, -1.4548115685691232, -1.0029954652156556, -0.5201003453987749, -0.6960893435523545, -0.8838644700948886, -0.5879004194370245, -0.38330236515002136, -0.38149782753372663, -1.0788379580204157, 0.18054310334393064, 0.7533036291469701, -0.3250546628208787, -0.3910241555953935, 0.4851466265381373, -0.10791992643830602, -0.5628546066154907, -0.9436008054983597, 0.2742478260383584, 0.024872460073615807, -0.7435758259783594, -0.4909939720024037, -1.1877394916120225, 0.033488403254151866, 0.38283866382532095, -1.2491511755224767, 0.1749303862187751], [-0.13233655511057557, -0.617344593882062, -0.338909585579339, 0.47707803434319795, 0.765174429276282, -0.28176058240301116, -0.5249033448453798, -0.09828538043389196, 0.5433156637227683, 0.8272359063216366, -0.08693574068259127, -0.11545639767361231, 1.203382453089866, 0.7917871826422203, -0.8445691262579839, 0.12520841669615237, 0.7189409879376645, 0.10820867427544072, 0.7874240246005645, -0.26006597178701624, 0.7354052615161736, -1.5715739917654021, -0.16997508955878696, 0.07238152525951373, 0.4339048095557037, 0.13594959287826794, 0.5942530509961621, 1.5970277351965394, 0.07483952139470407, -0.20557865918837553, -0.3688439106513529, 0.8040073932298455], [0.7209348238565976, 1.4170745207980264, -0.5830844762615367, 0.026423813186685928, -0.6729084827088447, 0.7785700222184709, -0.039786223764240444, -0.03716148673248862, -0.33200195526558973, 0.6607107680940003, 0.5537829109362562, -0.016086178179837988, 1.4963320833719793, -0.6108630432897778, -0.2523938317601611, 0.4956472852545963, 0.36111731497660404, -0.48948863218806143, 0.21649112178358015, -0.6663914836876114, 0.003184739373323881, -0.752516047742283, -0.22869586484126186, -0.5702938724344013, 0.7674694874484885, -1.1630098728576024, -0.5113868113673178, 0.38852578299866236, -0.6635547633077059, -0.7946499261004667, -0.7708590135840194, 0.19882896580042464], [0.37584003432925484, -0.5485919583892842, -0.41322073849945623, -0.5439334018971564, 0.965353623027262, 0.7989149976042847, -0.28591245484151717, 0.18176780391147623, -1.0000043471378648, -1.3867172502827756, -0.48435565760475985, 0.02460501113958584, 0.9958567475210307, 1.1495953693896372, -0.9920104073159102, -0.9791527116476547, -0.639387066480692, -0.7032826026839634, 0.5986958127659174, 0.3467279917455819, 0.019655023359365236, 0.7793072711658579, -0.10043009254813799, 0.2836443964764817, 0.7746513412570404, -0.04233631241530084, -0.48994493687417706, 0.5883089692669583, -0.3005923844277095, 0.09707780600597118, -0.9210669812529942, 0.27050535525255603], [0.7784948491941106, -1.0888329094179987, 0.6584419624050095, -0.40828715546198413, -0.41149138655405354, -0.03429050847397636, -0.6623880070149342, -0.3601178813796335, -0.024715698112994157, -0.6778272890764419, 0.42930489307258035, -0.421475980448055, -0.3494237647289099, -0.6265398268834288, 0.44193073922732834, -0.3221439149511047, 0.011579688161051146, -0.14009496370257865, 0.23305556459079668, -0.1614933430534099, -0.6683922308617065, -0.5433600475773994, 0.2085666531443775, 1.3912659227984945, 0.25192879905933924, 0.39449711087559214, -0.6871699720492834, -0.14362409370428558, -0.4512065662160033, -0.30878351357791267, -0.4290352042063613, 0.9559589018179584], [0.6540221163045051, 0.3084722412022797, 1.0682489390848735, -0.7225034464596365, -0.43307689347898504, 0.06814891745903015, 0.0970054059580937, -0.5228750751497088, -0.40164450968233667, 0.36410771214839954, 0.10373538634348958, -1.5818238717855566, 0.041694117967228855, 0.8934147142337338, -0.37158103016883104, -1.1544463436725105, 0.6778166702643993, 0.3010209185414253, 0.04449823104701019, -0.8496842117267459, -1.0739972431929419, -0.24255095040132768, 0.34196762051641827, 1.221340846911814, 0.3980891048374907, -0.02135549377527598, 0.07302127352252272, -1.1642309706891578, -0.509267438487451, 0.9792374255436593, -1.0268392241943516, -0.9261150734033698], [0.034297575405799835, 1.1166700755690389, -0.269550633090348, 1.4723761317056836, -0.006668240301388358, -0.5973064235107304, -0.14382134373547706, -1.3233612666540626, -0.5217857596228278, 0.07821698013061733, 0.7000952302485441, 0.3332254411584326, -0.023512197567980855, -0.12108760933380096, 0.03282986544152213, -1.339951495494216, -1.3214499065638443, 1.4029269368068225, -0.2690833409230988, -1.549339326783023, -0.015375473371586413, 0.6203934220286131, 1.186353004327302, -0.1298252455389731, 0.6783429797054221, -0.5134463993402174, -0.46903544534620567, -0.4930703357892272, -1.0341681312963926, -0.08626699783872252, 1.5734309630092569, 0.8323938174918845], [-0.19023726586205247, 0.3043945159682643, -0.5285807981237765, -0.47362041885168016, 0.9092126632674447, 0.9218795620808999, -1.0771239564927826, 0.41554726809930265, 0.23040301785826128, 1.0731282721700188, -0.05091751207028422, -0.5181455419665522, 0.6609852847964058, 0.6623867057155891, -0.5665137049583624, 0.06586917984550347, -0.7035694009131797, 0.2030325958704442, 0.9060223825919476, -0.6189044917776212, -0.42022285993296715, 0.3794535175786268, 0.5727155915082904, -0.37715438598702933, 0.15883081434144525, -0.17387858425060243, 0.14040440592645764, 0.3375447667136521, 0.3161460951677125, -0.22424625190735667, -0.8755748438229809, 0.04382799323638412]], "biases": [[-0.16758702445599855, 0.2389609831807822, -0.2328121292798659, 0.07226753633090756, -0.5009137920256728, -0.5435351719806006, -0.10840647985429049, 0.5223379467367614, -0.3372637259379509, -0.7076022218786504, -0.23377475085244087, -0.30853189053267155, -0.31908807286290725, 0.5372264549881048, 0.24826082905126243, 0.6015221615408584, -0.5553319788395091, -0.17126772904047494, -0.5668103098648495, -0.08160157808357055, -0.039414424961715044, 0.5457693720879148, -0.2630649622818108, -0.03363410027140988, 0.12973656404320918, -0.2683027357120523, 0.07102477672633185, -0.35362464025556717, 0.31430072305818246, -0.340217982629041, -0.3168098765572203, -0.3346659811801529]], "output": false, "input_size": 32, "neuron_count": 32}, {"weights": [[0.7276502565361067, -0.2883033512860135, 0.7635416713612267, 0.03893616769112902, -0.5267949849450758, 0.44163558735732167, 0.6560790955716043, 0.4584535217979211, 0.46716686154081977], [-0.9610333536361138, 0.3309786162603729, 0.8793454472648615, 0.3499462757356617, -0.14895014444525467, 0.8686800366507242, 0.3959873888346541, 0.030311032501722845, 0.9790428941810155], [0.013139890783821459, 0.07824760819498311, -0.3208569320551913, 0.33218510207927826, -0.2606000908355419, 0.5891103690053989, -0.7015676553604839, 0.153160902485181, -0.0738765789934661], [-0.32961115647441275, 0.4637245417974255, -0.021310623472596296, -0.15864666201909972, 0.6971337331098917, -1.1915754055690515, -0.6059050146447906, 0.7056109382151841, 0.19205824800924107], [0.8898022201870202, 0.3238693271252274, 0.3182733661202169, 0.8978590695037267, -0.6666490109489605, 0.518070920016303, 0.4371827606100436, 0.042448651509840535, -0.2237279358026713], [0.8537767007920574, -0.265507233545477, -0.8632264690534135, -0.8859376602606633, 0.4676600008399001, -0.5386839368907397, -0.05062316958079637, -0.5575627987853988, 0.2575996573327183], [0.16175497648411988, -0.3971877034767508, 0.7741068962168209, 0.08156741061546927, -1.1617601563955524, -0.524877406891518, 0.23645636512993332, 0.020222213574790406, -0.36112078618537624], [-0.09950869112344995, -0.06048385626145995, -0.9822605146138416, 0.6606979376539421, 0.26845794068592155, -0.7873806113936841, -1.0013310594949116, 0.2812867028280326, -0.8437506781395282], [-0.948162613709371, -0.27742665209417483, 1.4945246312376008, 0.6172744240850621, -0.010879370312520464, -0.19458297864200563, -0.08885400331857339, -0.9043643626794835, 0.4596449290819937], [-0.8617355042794986, 0.2819631555192522, 0.45517226537745964, -0.31189569928613853, 0.09413454204336574, 0.6942942197458405, 0.7730962271006558, 0.33261414525522237, -1.6138142722836468], [0.7010264856369831, -1.2323645899867743, 0.3514041548408703, -1.54467321620574, 1.043894286917379, -1.3121568487175659, -1.1910481638577526, 0.051016421616930895, -0.2839607516981222], [0.6085141375340917, 0.3479462004628196, -0.5138603736144296, -0.7752203636783004, 1.0925192333211737, 0.7096616155099216, 0.13541656989611922, -0.005254538502490547, -0.8710413008641988], [-0.28140506670351073, -0.04277402824774636, 0.23619367437221017, -0.4355828755323177, 0.3863969312249854, -0.504292071166526, -1.0167120101273999, -0.24310322529249162, -0.7181233397343897], [1.353513136802085, -0.35584555037880206, 0.02598454414388859, -0.6078544463349574, 0.32776247119522184, -0.9941067803100475, 0.32958924960034075, 0.045599602497729305, -1.8553285588903443], [1.3354196206801716, -0.4571107944437308, 0.32456523981887997, 0.37721106060896037, -0.906892264587277, -0.4458471041824925, -0.6996166476846262, -0.6084077574389025, -0.8690988497440615], [0.6587099830570442, 0.9896787339609929, 0.4202117912867453, -0.0015287206150418273, 0.674094675354838, -0.6614816887882666, -0.008136217689380183, 0.7644056091688105, 0.7335110306932826], [0.4515031413150403, 0.9619601852158767, 0.38322120064728626, -0.7195222078739298, -0.8025037496419001, -0.30318135276832314, -0.18646072947157233, -1.2043822749514532, 0.6604722225835072], [0.14713653915814282, -0.0714895770075174, 0.0009890630699205584, 0.4068512733833547, 0.3804346220531393, -0.6399890568578058, 0.20808277939952363, 0.17035555827446747, -0.1769096505067408], [-1.5956908921365953, -0.6502164281917296, -1.209035032659442, 0.35842252759123117, 0.546676156658644, 0.2040866392267554, -0.3152790642191027, 0.6993553161890755, 0.27335722563194215], [0.8079588306369738, -0.342161127770127, 1.1488881111075386, 0.06275494130914808, 0.24712161679713535, 0.8672892679358397, 0.4181447868524273, 0.4539236377454011, 0.6022288839950769], [0.8485021629428351, 1.082665506257495, -1.0327790923389446, -0.30231056423547725, -0.6427577478483497, 0.42275052471624974, -0.3308376835850376, 0.14938128632928221, -0.30082590328782016], [-0.9531927611038463, -0.24126467128613066, 0.11049919399418685, -0.2830013319624285, -0.5920872234783903, 0.023141147563854828, 0.9169984997974747, 0.48448048197988763, -0.7382586241380142], [0.44321676373134566, -0.33505219217040183, -0.3492546321024163, 0.8428157235412093, -0.05592721672546154, 0.5091635744036144, -0.4658460345465188, -0.46226957640228344, -1.1027508048542036], [0.008056332685406663, 0.3432459034339522, 0.6821807220141435, 0.10922032884733875, -0.7641559360615148, 0.6576342093136562, 1.1626700728385444, -0.23991110234792945, -0.2906513824151432], [-0.5233071971359445, 0.7293957182854025, -0.46354878758846785, 0.040143358248474176, -0.06204663280024598, -0.6520593721922281, 0.8849707894104328, 0.31905862155439607, 0.17616433918959185], [-0.2377872600238754, 0.9268940755209583, -0.664711567433588, 0.09969931072908121, -0.154904482740464, -0.7901944126478782, -0.1961487529361205, -0.2658072734845389, -0.15736610862261197], [0.6897340618149989, 0.1406696054539598, 0.9729671687336241, -0.4793974153753795, -0.33925966150637143, 0.3290083106498025, -0.9246804191220471, 0.3078798729542857, 0.11424121463025769], [1.1618496854681712, -1.04791308366711, 0.7556098118711554, -0.5613440675745985, -0.2101991956854643, 0.6563509838692124, -0.13288247417105922, -0.04263341420876909, -0.6432733940826665], [0.4787185446268324, 0.29049868985517463, -0.13952175057099658, -1.270351624271891, 0.40189318561496207, 0.37805966923632484, 0.5547875634802741, -0.17794084780009412, -0.5996562506976644], [-0.2891414222450659, -0.9910197179202953, -0.1881025197448366, -0.26021659630641997, -0.39277531729554727, 0.787370923183418, -0.8931304117891387, -0.0037646092025835896, -0.12905185965115473], [0.8598702374718081, 0.1327162926008753, 0.11092598857131256, 0.544616662437129, 0.8360526699895174, -0.8318322488885423, -0.6491024478401529, 0.5077108695683047, -0.3378321742994046], [-0.5124922111362267, 0.9070759786847367, 0.4205038989935497, 1.3516756069954885, 0.11557623561793773, 0.7245560124268703, -0.4776450861208261, 0.07138907087093489, -0.6391175035975222]], "biases": [[0.24567951767274224, 0.035317542768217226, -0.22900224834604685, -0.30544687266574067, -0.18394265235989676, -0.08704535970346976, 0.4370256937905382, -0.22886414987772308, -0.04553665682423649]], "output": true, "input_size": 32, "neuron_count": 9}], "shape": [54, 32, 32, 9]}