{"layers": [{"weights": [[0.9782003122624052, 1.583065305536382, -0.735341323810045, 0.21337047393636965, -0.23395895285083076, 1.3767629291789087, -1.1088124517001492, 1.3636060617169896, -0.6232790113983139, -0.13080826391954636, -2.4071378870334943, 1.7301432684876006, 1.255299872322225, -0.24680855266394172, -0.3134571919768129, 1.2224872186859443, -0.11896036450403101, -0.04272541006370657, 0.12769622900978997, 0.6316023895777794, -0.0478964894357112, -1.366377596812455, 0.019738394360193548, -1.081491993607798, -1.7829982271910936, -0.1660056674961828, -0.21339006958344753, 0.051859921806344314, -1.3284029559928565, 0.38526551827597616, -0.8622952558353711, 1.4332442095788327], [-1.6854702678105502, 1.315213848106937, 1.4664164119544587, 0.12166817455477197, 2.3974743499431046, 0.5982392428439609, 0.8345547632960573, -0.1410970663513143, 0.8804222309058474, -1.727315292363566, -0.1595603042143765, 0.24867798018357598, -0.752244166515412, -1.0538160474736733, -1.2269791200302027, -0.4477882295292449, 0.2900692409816242, -0.8025478805651174, -0.42365899134125085, 1.8404068366798891, -2.445267609663034, -2.8404648713629026, -1.9224593380426662, 1.6596508213844694, 1.2669865421673376, -2.046438231234668, 0.7946260691798008, -1.1716381724116514, -0.27954074570981297, -0.09423589413563024, -2.397833874228436, -0.4897807055544615], [1.6686729350346048, -0.7139245510276109, -1.022165086968551, 0.3516134570244319, 1.1576134965088754, -1.4907932344471526, -0.19161588257325557, -1.0803089641249826, 0.625759962609678, -0.7567471786504163, 0.8021727204459059, 1.034516814469868, 1.7124623351033073, 1.4220384413842444, -2.2573599965340976, 1.1641460911022228, 0.09022585930289351, 0.43962554130699066, 0.18040293509447944, -0.19875426095113696, -1.432231579802862, -0.7982803663604106, 0.7906304561657835, -0.6153912126780634, -1.125356199135286, -1.220945052566935, -0.302173313576706, 0.38073566305541684, 0.5307677476054481, 0.38395291360175393, 1.4155383326336863, 0.3925910489797657], [-0.10473925247254672, 2.271584028946736, -0.040389313680773614, 0.1266317644593177, 0.4613172223812313, -1.8279204520856844, -1.4653868560016374, 2.3774926775683225, 0.8554959646902753, 0.6846428679401473, -1.665265733656458, -0.06383687276704059, -1.3024646624163618, 0.30108949273967955, -0.021634508758138285, -0.644413902466683, 0.7985180255968903, 2.7337663405561665, 0.13630444569439915, 1.2373566557921079, -0.24449298986608906, -1.2660750403562666, 1.3116040627232621, 0.930597117110922, 0.8827077156106498, 0.4501820668285348, -0.2199799985811868, -0.9642357622407558, 1.652365294549087, -0.10537054151803432, -0.9788960523380956, 0.7121303998011494], [1.9831949312308, 1.4387540043607805, 0.37825306038731543, 0.39542679514228163, 1.5503165172097702, 0.27486672522119926, -2.3565441515716765, -1.2154140865161156, -2.1923627026227357, -0.7110101525014589, -0.909495412013567, -0.49580436091119295, 0.3052302857613147, -0.12974349430697935, -0.13104310142405734, -0.6816111102229412, -0.02072196066968276, -0.3633947811989924, -0.3116297742558497, -0.6744306283171088, -0.5543889158938088, -0.7993842489005214, -1.1362933927090781, -0.2816964514781773, 0.33846760720952984, 0.7827688288494322, 0.27032785711238505, 0.11890149673928906, 0.040619346096397425, 1.8768411058455903, -0.3415261335764131, 1.1271556520995216], [0.17669594415396658, -0.8828769215743129, -0.034213855723585734, 0.2318008708531626, -2.1632332585378222, -0.5862899938594023, -2.165295393256426, -1.1901284597660298, 0.8330731805346424, 0.11099301902467738, -0.8244120799017775, 0.5008958370218741, -3.047001734809103, -0.19155540445890043, -2.454432558226923, -0.33102834949555926, -0.15276090578984391, 0.7778847708235933, 0.025473653359309248, 1.3105518954958848, 0.608236197211624, 0.2927587590901986, 0.17608861811130852, -0.01680929495499655, -0.731754381788649, -0.8690347284384838, 0.3269587993440989, -1.4592064181026507, 2.334984124426418, 1.7541403128323352, -1.9627375752021579, -1.243238866229464], [-1.700561288857367, -1.7081493698430723, 0.18457170737069167, 0.2272967109399232, 1.789656769944778, 0.6144353177286148, 1.9270278575728457, -0.935902252423827, 1.0077718868507306, 0.970564457557257, -0.0081283066753359, -0.8364456595622185, 0.12261496126332981, 0.16695372286832505, 2.2016131383175273, 0.4191387500556333, 1.7394653749891131, 0.4252670908421822, 0.23968340951113887, -0.42297562389882926, -0.32074610367982315, 0.10833808735880426, -0.6226269438067211, -1.163142654781732, 1.8825830877565717, 1.191702989535581, -1.725778361875215, -0.8373174479372083, 1.4363016411834102, 1.899904455482365, 0.15997901622947955, 0.9085392280963606], [1.058455971276238, -1.9757552479645217, 0.6879597242624218, 0.02285216485859564, 0.8018543829173194, -1.7456235842443788, -1.6027281299068497, 0.49195614114060754, -0.5883166685029118, 0.0743066310793277, 0.8253963857476171, 0.4699660651720919, 0.8857273454504355, 0.12307798686970196, -0.22050533033609598, 0.9286143243911533, 0.24656760954371887, 2.0691518105240787, -0.0852054823344629, 0.8375095484675534, 1.8772645050083907, -1.5619681760859705, 0.9015139152701277, 0.7385150016105826, -1.9132646075919633, 0.7849569241691949, -0.11912513510754136, -0.8944488293599164, -0.1376901877923714, -0.49994111393032126, -1.9828944890638835, 1.4082784283324465], [-1.7967765621794731, -0.24022028001849496, 1.4019852059451496, 0.4790085054185976, -0.5205711695093906, 2.6580110638579764, -0.4303159326188155, 1.1951023667367333, -0.8802972974943918, -2.6204249297505164, -0.49550856173785546, -0.527015024977578, -1.4872246557815174, 0.27759110976791046, 2.1399451593313907, -0.21444713915058666, 0.9804117872974929, 1.2606213099987076, -0.18424124955630095, 0.4171626146448435, 2.8290321433679138, -0.4638621717482367, 0.5497642484822304, -1.1894043507954382, -1.7527312554016277, 0.009775023053291377, 0.36831818638294245, -0.11092547884246731, -1.5186175712797643, 1.364468040006368, 0.05805224243640107, 1.195145466296244], [1.0950507738705457, -0.862481284327308, -0.5320813010641658, -1.953841584286627, 0.610706388065443, 0.00633727281664209, -0.7648933786035226, -1.2410639901352347, 0.9713304808330967, 0.532225871419338, 0.7022250996006703, 1.626660351707928, 1.3142156722339138, -1.3545990662299117, -0.42208586958793454, -0.14267403061250034, 0.29047683113300077, 0.7283475959005129, 0.6623708972429223, -0.30928767569691135, 2.1118001040076892, -2.0524083694549367, -0.9894418723384181, 0.7459636422432238, -0.9042361687348388, -0.34169364086124143, -0.25837669063647317, -2.007871564651092, -0.3889253244574532, -0.6829074846774577, -0.5851534518789194, -0.4675349796615363], [-1.7958416776273862, 0.10258209098876955, 0.6795099377296266, -1.6378132077768064, -0.9564341516552521, 1.0764413897137093, -0.6881033236635734, -2.2607017515755916, 1.7175361915224086, 1.1578196694985725, -0.2308893881805957, 0.5656771673784822, -0.9177728533811363, 0.18012802199210437, -0.024254463442050882, 0.047328551196102187, 1.5732308066547827, 1.400999010446723, -1.1036515535601508, -0.20328068050793033, 0.35551469191082774, 0.6599729219246373, -0.2727149293153357, -0.009156119327012647, 0.5808281839974495, 0.1441841855709119, -1.1309929819372777, -0.01993676677238746, 1.0508444887892852, -2.07619760984293, -1.1104875343091514, -0.7529970934381776], [1.0362224794336234, -0.23433706935001603, -0.8732399903813309, -0.5565352952643685, -0.558559496595414, 0.32437091017722375, 0.9025130924189257, -1.8352941680370523, -1.088189903067295, -1.5906448970575289, -0.04942815117165279, 0.8384016079526702, -0.5457346526419513, -0.3211271799319082, -1.610374182537567, 0.23619167964169183, -2.361733921436696, -1.5605159426112234, 1.6691571349428758, -1.000048139846481, 1.793732145321879, 1.2299645925442948, 1.8238068778452943, 0.0047180705859701435, -1.0163767891911646, 0.9322059724892593, 1.8814967164167153, 0.8261203291606716, -0.8930760198703682, 2.568169370037052, -0.27224428431031644, 1.1257540434041637], [-0.5927592348737414, -0.4687632515422845, -1.530661688650865, -0.18517972736820248, -0.0940707958066517, -0.20845585932456928, -2.1552778833778095, 1.8371270500050878, -1.1366472037069235, -0.21649087711181947, 0.8348574292747319, 1.0585472044871889, -1.1577955655656516, 0.5232004648615147, -2.0655059121569406, 2.4969444114671333, 1.0611494639340147, 0.8188934278559359, -0.23399033811235131, 0.2853520826043719, 2.759222387161163, 0.3239300256064804, -0.9627622816451558, -1.7604007516271212, -1.9345488225648515, 1.1217203664682347, -2.6155826786067338, 0.9876421620559023, 1.1272896366376406, -0.25092984289964193, -1.1971193962301523, 1.6248431220687158], [-1.3023880076094867, 0.9008780493969923, -0.010809287176872623, -0.0765625486729396, -1.7109055265571584, 0.46905200110191125, -0.023794817719846022, -0.9144155888577168, 1.3196796160896462, -0.09726243209663737, 1.4488364930900341, 2.3853228701623483, 0.9630330324408538, -0.6929386954348375, 0.5607304804495066, 1.2271228342685947, 0.4331983119460079, -2.1792156261882765, -2.3547942050579707, -2.390635764787795, -1.0832598674598832, -0.2548580655911391, 0.2218780118918368, -0.10711741454537459, -3.046679535458375, 0.67331496263903, -0.0909368419296187, 1.0526135413233821, 1.2227032600692178, -0.5714148436407952, -1.6949710321469336, 0.11251788719083514], [1.5470373975436158, 0.1970287363905606, 1.109354488729109, 0.33152168191771797, -0.7893631916379324, -0.8515222893502836, -1.0118808954182987, -0.7739899712062788, -2.704098088703075, -0.9238796709719566, -0.6344894550626955, 2.136729121584381, -1.5030739297838354, -0.7272211786009892, -0.2425551883936547, -0.3315621570465821, -1.3710136324075872, 0.7119869992345909, 2.68889073086923, 1.246380826598393, 1.884616760451368, 1.18150460079272, -0.4927549381312816, -1.7873519439470287, 2.1183760662277438, 1.966168682013869, -0.8816324666125565, -1.7633670078187271, 1.3892094068082648, -2.2653923712375033, 0.39951681361364255, -1.0091449841017344], [-1.7531765240907684, -1.3538860113298639, -0.9903081124917015, 2.397983922108796, 0.17739217402978047, 0.3692716611361012, 1.9634063171202663, -0.782120843140352, -0.5708267473369335, -1.364464961317605, -1.9217401466962194, 0.2386749329662607, -0.38645881431725704, 1.1808420588880608, -0.9102563505198725, 0.3847424590347992, 0.8410741519454954, -1.827627871145475, -0.36792359745884906, 0.8725054633677305, -0.5929044217660524, -0.9899967406749164, -0.3367272556320162, -1.0244324756469045, -0.4407600403456802, 0.5241445076098805, -2.32651158961822, -0.3262373130824014, 0.8442058694614472, -1.7607054137511224, -3.939201740026553, -0.7574881126599315], [-1.9555643785282655, 0.56718504246635, -0.6659414586166276, 1.3854307664078045, 0.6396995322588713, 1.87654085669167, -0.6424592008780243, -1.2683852149212975, 0.41445076064138286, 1.004307617873813, -1.5619335931477394, -0.19655617196569505, -0.20757107141702263, 0.5942790786509307, 0.221017581096212, 0.31032507417402944, 0.5205536403889267, -1.0608621365458977, -1.56270865950352, -0.5973065242064522, -0.5705475859689025, -0.14356336340708503, -0.26367125600917285, 0.466587037586565, 1.0315209748381697, -1.4741879393611386, 0.18478856008049138, 0.049794068055795504, 0.9443684971114473, 0.7505430769768093, 0.8051974014722778, 0.8168680253186835], [-0.920460320045213, -1.27133513870278, -0.18456412759157978, 1.9065562700610834, 1.4523528413380717, 0.34305511612168943, 1.819654571812634, -1.795284629949697, 0.6065077926009396, -2.343624536754992, -0.02803084188135013, 0.6210260888704069, 0.653045902868614, -1.2953530087768859, -1.072539528861481, 0.020006158263047878, -1.599717508933863, 0.128493671430495, 1.3623830005735904, -0.08405098601793322, 0.6631235078045241, 1.5293520477212712, -1.5173316111332213, 0.011617420797575127, 0.579073800346474, 0.10459185655727868, -0.6219126249603759, 0.32258110548670144, 0.2445637142724706, 0.3502764603247985, 0.13670091020789535, -0.14625369114965445], [-1.5221106510639988, -0.4710195638085269, -0.1704226895052307, -1.819589287946885, 1.106307341756834, -2.15156844198248, -1.3042580223069216, 0.26592704356163954, -0.27827550306576415, 0.17306596231034982, 0.4338374620339337, 0.26109320141234216, 1.8941876105200688, 0.7811979373717708, -1.6024562239397424, 0.441134537472407, -1.633580010398418, -0.8550612556794028, 0.19771534298387552, -0.4619566029245886, -0.343736760190809, -1.420568951751938, 1.1917225635299777, -0.9756219659181354, 0.07709967071833375, -0.1841568269782592, -0.4228535025822644, -2.414073897670506, 2.2149519130990267, -1.374189851408858, -1.4013712471840323, 1.2884838974713433], [-1.4158952519962686, -1.2567267880037583, -0.5692650400434068, -1.1858107737325705, 2.1265716205372316, -0.6845819056999036, -0.8241121858800415, -0.7631053581130612, 0.9891739525045735, 0.9634345905089254, 1.2235269363331833, -0.18696623774770618, 0.2769877683071763, -2.5430058729237945, -2.0782355846607237, -1.7341136899260616, -0.8481546952066845, 0.3275123148126289, -1.3050538355735333, -2.411653768169174, -0.8095982248096313, 0.9274790857292998, -1.6694082072979284, -1.4640967394862547, -1.294495919382764, 0.2702754549202654, -1.2437465814501771, -0.6685360884609775, -0.6942315456988051, 0.9277496341803404, -0.9966480709123497, -0.27323601777170364], [-0.21650387602476792, -1.7009848407829276, 1.2077501975405114, -0.9382459776485943, 0.11862256572700056, 0.042463069397168075, -0.13628335508675213, 1.5883460240524783, 2.602015980705789, -0.8925230219278026, 1.7626957412006599, -1.0145580701288495, -0.5196188881231023, 1.3212899708381955, 0.21857920979615378, 1.2587510275843368, -1.722710480118169, 0.23324753798752706, 1.3572355523184068, -0.774903309678822, -0.6106570794190911, -0.5952162981442345, 0.299774206793867, 1.8148319000821278, 0.7311799570838973, 1.4654746934518796, -1.661037022792301, 1.4007464448839433, 0.0750080108708005, -1.438830330270438, 1.0301763011988787, 1.7082229266925977], [1.0947457663376525, 0.49495497662696314, -0.7139265355166722, 0.13606109025323757, 1.4989427022307222, -0.5443984407349702, 0.8108896140755886, 0.6055752624647196, 0.3543314121356723, -1.7445535928857896, 1.3370637596729398, 2.282769094121115, -0.06241878276984776, 1.4527600017032545, 0.06840672440284583, -1.4240774146110455, 1.3213180773990578, 0.09853647408489993, 0.5941443536942284, 0.37216369153000667, -1.20097394165445, 1.846090680908597, -0.19251057106013703, 0.685080887817627, -2.3634150679089183, 1.2725655987444595, -0.2538951750780965, 0.9528263029715142, 2.0526834699462313, 0.0032264690952041675, -0.320792729030597, 1.6439362701910454], [-0.6090923420299335, -1.6368908528951325, -0.4562668223581755, -0.3483034618571309, 1.937463832392824, -1.953437988097114, -1.2506111055002378, 1.7177621903929503, 0.4735750777251895, -1.4114510618024771, -0.5554353184777889, -1.0300227891629028, -1.9876530365369374, -0.0045455360224404846, 1.5078765106195209, -2.472164377294409, -0.3602279200056416, -1.528500998202691, -2.6271845675063754, 0.21355784099354322, -1.8570949117710784, 0.791269666961256, 0.48358431979849725, -1.6220110338642888, -1.062235705520465, 0.0330784093639651, -0.46082489549767264, 0.5517000374912873, 1.1505783791964244, 0.6853622016506093, 2.690867214083659, -0.623230383539336], [-0.3866821647776142, -1.5321279378553987, 0.465099887940102, 0.6513500297310262, -3.0892294115247343, -0.756532061497535, -0.6277820108475511, 0.40064145565587406, -1.5675239749247774, 0.6229231024322615, -0.7379022206372341, -0.6060165890171685, -0.9398425130723036, -1.3246412899802942, -0.5801079130514777, 0.36471662008144023, 0.616876543394923, -1.0739891448174195, 3.0356170021501443, -1.000437570335078, 0.2263654654432241, -1.7204802399006967, 1.756747535360821, 2.273809428927717, 1.6163075474866417, 0.7632240957009988, 2.0338408512035953, -0.3912364633008367, -0.8798420779492616, -1.5204589080380462, -1.419723310618701, 0.9319651466369473], [1.5387431893276404, -2.0020131340460763, -1.3380299150447947, 2.6631121971846676, 1.0965747804380404, -0.9504242046416429, -0.7642745950144398, -0.8598724013993829, 0.9597030165572145, -0.004475451098320711, 0.22011053348867463, -0.6884633472077569, 0.8093642892237174, 1.5146950531969336, -2.587101788446991, 0.23880612657346123, 1.384658815784847, -0.2594632137048899, -0.16222948299573983, 1.0844554235560548, 1.426843176998568, -2.0883639067042457, -0.3927065679595601, -0.1144783934687022, 1.6375444152191185, 0.11209979040624952, 0.3313317526849451, 0.7949904146506954, 0.3100776883083861, 1.7985677257404125, -0.06865934489261219, 1.2112800866491593], [-0.33114276482414573, 1.35579061561116, -1.6411355649876262, 1.133239342766859, 0.3800431182262549, 0.1646358734585097, 0.6069112611522043, -0.29918177920052946, -1.256253564137169, 0.7374606467120347, -0.4327949725858444, 0.24468126827796474, 0.2002151718357201, -0.2208691144901445, 0.4491143063816254, -1.9179084163043725, 0.9803280483866716, -2.8180429501323583, -1.6944213266690853, 0.35314865776733756, -0.23856292182951322, 0.8953102101507511, -1.692292697849667, 0.9838741270449438, -0.6988998709648626, -0.6189174480235022, 0.5042175102217978, 0.5017835053735067, -1.9999389446036233, 1.548610853117344, -0.37296543906994806, 1.4426057483767434], [-1.8088052782332158, -0.4496953992905319, 1.3868530408200517, 1.7328723120345233, 0.0001639581509593731, 1.7571353949176456, -1.8350160261543311, -0.961014359543914, 1.5790610057029886, -0.5874714086940688, 0.18772899746491162, -0.7660925477826296, -0.4071509761268759, -0.4850361097015063, 1.0820908911047402, -0.34775223219543444, 0.9747663081756303, 0.32563568262374787, 1.0171328556274273, -0.7855697691710068, 0.6700643043432415, -2.764972476580403, 0.5412724615642034, -0.2991492398613945, -0.705891073651296, -0.26149150865137905, -0.7705256250500321, -2.5515778878335, 2.4838388846593027, -1.8691571113328713, -2.3781448705538435, 1.5947336265238157], [-1.381436840732586, 0.5626942575712204, 0.9676648665582037, 0.08884951977462689, -0.06049906901892318, -0.8832492634449851, -1.2567353529116518, 0.9497982851130478, 0.5635085477799793, 1.1568942746079292, -0.7835940100691572, -2.536796714148748, 0.3442788957879134, -0.906029541838969, 0.7953877953809647, 1.046678377938708, -0.10381993872578975, 0.5636368391929318, 0.012609211777924977, 2.0510891841508103, 0.8919992654850666, 1.4597450424173808, 1.4995885093552697, 1.5926462920699183, 0.8306838856797284, -1.0652287426923996, -1.2149359345149848, -1.228805181329683, 1.4066990947359082, 0.6688308918916941, 0.03598159785586823, -0.8827941671823927], [0.7859115848776661, 0.6729090392922504, -1.4145866484782883, -0.48711638216640674, -0.7369442145347068, -1.664559675355501, -0.8629210343715623, 0.9164086153959548, 1.6934423754766912, 0.2504398524689423, -1.2054193587403121, 2.2110979789610288, -1.85671446407743, 0.6668924689015582, -0.3522449458224387, 1.686197133190059, -1.3231555990910775, -1.3122634891809566, -0.36931263299915695, 0.9173663372876326, -0.7976958364878354, -0.3363502632683135, -1.1455018756772022, 0.7253217679817358, 1.2320366896559398, -1.8366931896926655, -0.1863849546793273, -0.5908102990100187, 0.17380706951095498, -3.382203944788171, 1.0342554450412846, -0.06319635650886991], [-0.6250494892464502, 0.30751560856876914, -0.3831150984434146, -0.5619237990409911, 0.021859595355370576, -2.318979649786323, 0.9152218079058247, -0.9327232275386477, -0.15417837264155682, 1.75645522463283, -0.5602849570304858, -0.2498582681920703, 1.8071192017880757, -0.7799746151848028, 1.6829913155907794, 0.24519830788341068, -0.3413668106607363, -1.5264386538753436, -0.0590208226330543, -1.5905186701005942, -1.6232096802297682, 1.7921885133589777, 0.9809549720459693, -1.1948988902792943, 0.9649889109999652, 0.2833617601223214, -0.5645993318026901, 0.2893707326732508, -1.4384424716670747, 2.3642072318681646, -0.5102096707213897, 1.4305455842135766], [-1.711347259563662, 0.24022844912300378, -1.4861343676551777, 0.04996085268803573, 0.836070061733606, -1.298834039202583, 0.3714235258665567, 0.4175155055662273, -0.015145948397856955, -1.791077264708652, 1.7270100767928618, -0.5250745867198667, -0.9620567035058423, 0.6920434026954589, 0.6510357473888575, 0.6357714029177155, 1.6271296476042958, -2.1776963028496166, -0.031808549379449796, -0.6207237681677968, 1.5924163931613848, 1.5525120701544557, 1.1715292944807463, 0.31882307699745716, 0.6256649105261505, -1.3447975514533521, 0.8119026156706972, -1.3198084147648743, -1.227111219535131, 0.513444386687689, 1.7422440772980305, -1.0311523998060397], [-1.1252184648666175, 0.7102946601396292, -1.7211290773570815, -0.13407585289958035, 1.3104127369359069, -0.08699195667352064, -0.6647945803206177, -3.0924937585184757, -0.5613307898501388, -0.616296447784998, 0.6595641523747526, -1.3338232958090068, 1.2531623764324005, 0.44227496963727636, -2.4946453331216945, 0.5119370500420755, 0.9856789532003811, 1.3117810462378894, -0.25136579600144143, 0.20791496834795753, 0.4175385529464181, 0.12713727416236592, 0.12088057352116585, 1.0627818987928999, 2.039538400310449, -0.41541451627281956, 0.2730458255512219, 1.1422999961882598, -0.11370595134497442, 1.281642579201979, -0.6566857145571804, 0.40710781484919345], [-1.736328841429538, 2.0571211984309805, -0.9836767706752301, -0.07864380930954765, -0.3553893314541302, -0.7606414000393182, -2.2806786803071644, 0.5210779787743823, 1.4406662076700163, -0.3170462555624843, 1.0235757109421124, -0.23054372100854129, -1.2031670749049337, -0.45796156024888096, 0.5283509333672054, 0.2544452972732248, -1.062602940465061, 3.0740386777467457, 0.07743704811456559, 0.895490065937475, -0.28430542729776387, 1.0866958233071358, 1.9785735831519724, -2.2858478664981465, -0.32400253424546055, -0.7750061198453411, 0.6387904672382749, 0.0530217578228286, -1.0700617747198553, 1.147738680552873, -1.0769839553083527, 0.43598716775610585], [-0.5665207798759221, -0.7345057263447543, -2.3732848710969248, -0.3323583130191641, 2.2942802623390794, -0.8575464302331272, 0.34613613139977073, -2.1676628456713334, -1.8314529438914835, -1.2638509897450811, -0.47215050546780923, -1.6105097570249758, 1.458819079002033, -1.0424423743809643, -1.589357661439672, 1.4201263975739467, -0.6986200653523262, 0.41752837823818556, 0.3384311406743489, -1.964797033669091, 1.0069120231163105, -0.242315969413203, -1.6218143534808562, 0.08757405428971374, -2.2423151991191856, -1.1966629606816719, 0.10973253230817609, 0.15822908814216302, -0.25281131207245766, -0.5056573760192996, -0.4686482049085124, 1.499471167638725], [-1.4015983607448779, -1.1760645911496987, -0.09880093741147931, -0.16075204451250877, 1.3748357507677968, 1.565681450123688, -0.6770106798943656, -0.5714053631457578, -2.386572685018358, 0.9798336060384961, -1.7851451155666518, 0.39184700459035543, 0.8046983031712795, -1.2426337890358106, -0.4333841757396206, -0.3320405134511417, -1.3125919643177837, -0.181086325936606, -0.10965223862620468, 1.8545639231018822, -1.5259768769830648, -0.4739290860125498, -1.307463040309282, 0.5181495634068441, -0.07400276347447168, 1.3829121542273386, 1.2791836998485362, 2.3155718493703876, -0.14328266832452913, 0.7805609952165921, 0.439935273344205, 0.5561776583584122], [0.9194805153806305, 0.4535460674356282, 0.019978383280618774, -0.39547846554624033, 0.7199717858583407, -0.18988614614312077, 2.015861405747202, -2.9224237657683485, 0.44328081180261214, 1.615521469607168, -1.5055033793770471, 1.1331149615586356, 0.6369244307946401, 0.02700947650301918, 0.596376970803863, 0.4366822593120857, 0.9366864681393564, -1.1291286610510287, 0.3822403026297141, 0.7824476256571024, 1.5130769316261024, -0.18717470861163346, 0.6818088735532575, 2.029003764911188, 0.7300298757390525, -1.5035029037428078, -0.5383159226856279, -0.4843671976886662, -1.1278581566765524, 0.05971694917008909, 0.5348763338591499, -0.5976835374729845], [-0.15955980357061533, 0.35272265508263556, -0.08831289782379965, 1.78255796476201, 1.0493574799724374, -1.3971231643148738, -1.9800875739339252, 1.846982823495496, 0.5705273068158937, -1.4825311112048243, -1.0751452670182582, 1.7930326479059016, -1.2925158964202723, 0.6051202951056472, -2.0228184633358377, 3.0136665104810154, -0.35915700427303876, -0.8850396218874811, -0.8231953506752909, 0.3440320681755358, 0.4862813342195128, 1.1179516790401602, 0.4219737927660092, 0.993151904206793, -0.9322252380336534, 0.6548556451318915, 1.517262215969469, 1.1016503383931733, -2.2604217341172532, -1.2839047880801493, 0.34415616985728975, 0.2736954195990473], [1.3909215050410513, 1.0693666993697535, -0.7408515945918961, 1.4590169276780145, 1.544917662841073, 0.7287872578368659, 1.4858192988148353, 2.0884853016311826, -1.0291176120141292, -1.9873052799586597, 0.7566230421295004, 0.2918107642949519, 2.33191022882319, 0.7461056963612882, 0.3664680830760488, 1.378270916967157, 0.012791295101482865, 0.7058133539561404, 1.54348911400379, 1.6527648474636403, 0.7396994262078239, 2.909582268920776, 1.549022306680776, -1.0018482068975845, 2.647187346872362, 0.46845489805308, -0.27888310419736895, -1.3729243424681221, 1.854076538913667, 0.1920254278026033, 1.65066688897734, 1.006386977858476], [0.08597506196854746, -1.1668798650618182, -1.4677107621273064, 0.7199240215535221, -2.069135724049215, 0.7170392467837545, 1.451834092710336, -0.6747022072913705, -0.06421590430051288, -0.8941486651688197, 0.5687233655193005, -1.849447225522093, 1.3122548130624105, 0.9269468873889932, 0.1231097848483946, 2.022665022485249, 2.180537554920636, -0.7839134943607953, -1.3807052128027084, -1.0633723781325535, 1.8417341776744944, -0.38890571027877996, -1.0401816168405453, -2.7179794581329455, -0.1261338697053841, -0.6992942308381636, -1.8462945360482872, 0.7118824327019215, 1.5678618435928704, -0.10699454776462046, 0.39568231446806573, 1.3229652949802246], [0.17759827972862938, -1.7956319970822296, -0.7587925568187717, -0.17027198777008246, 0.9425386525595876, 1.0186623017260759, -1.1063715949517818, 0.9913703118293297, -0.07577765277034924, 1.129614893309438, 1.3058557338663896, 0.48947136958121906, 2.1260506392307135, -2.0400403159558387, -0.7032318409121905, 1.4805572629963923, -1.5956287824664264, -1.1706022236407225, 0.09330921790450768, 0.4534428295772401, 0.4255944381229053, 1.2963187881057423, -1.0706480958942057, -0.8996044526310851, -0.6646375388335163, -0.2890978320287022, -1.7704254543583906, -0.24871731654308585, 1.0546253531727783, -0.32474018610280336, 0.9091452539466822, -1.66906175201506], [-1.4854548435535422, -1.6132313334333295, -0.25374530493777986, 0.15078788371347757, -0.5396646531228521, -0.20692648256655455, -0.16920465277248503, -1.2481306044062856, 0.9424774734416577, 0.47912637168278366, -0.5797794731798076, 0.3175358425349844, -0.5029719594904652, 0.053888863835899414, 1.1880628160520001, 0.6018868819748193, -1.12638097602367, 1.0281745655074825, 2.2365793449703357, -1.0305732225430753, 1.7560742339018618, 0.7998423715146918, -0.2543044382699381, 2.6052239390666383, -0.6497499563385265, -3.041039336558616, 0.04845917688751068, 0.9494453573215199, 0.8630523048782304, 1.3596914570313683, -0.7261780722687672, 1.38902935029376], [-0.41310960712234807, -1.724763878904419, 1.377379272511639, -0.23883862722190238, 0.378545884760599, 1.3583738027476082, -1.7603729968984387, -0.9931308051518558, 0.8907793674053561, -1.645949466847286, 0.3612101030644536, -0.5044787347627859, -1.0331808494867154, -0.6675992546512204, 1.0490250208363128, -0.6431313557154102, 1.107916822117533, 0.6987986273982996, -2.594021705018925, -1.355788954728619, -1.130335618368722, 1.5619065629333564, 0.062272725645781575, -0.08302240956046936, -0.9278427665111436, 2.134154871637253, 0.2535055058397565, 1.3265049135295752, 1.1452918680456285, 0.24451946062808702, -0.08438308076751244, 1.2703928659195673], [-0.3626639185338018, -0.4508453080225986, 1.4112798787500973, -2.459038856240273, 1.9363884640962716, -0.9193609256370293, 0.10373125826078453, 1.3781272766370845, -0.20284331824879892, 1.213208100330033, 0.19018505588048698, 1.40675648469752, 0.5206278775549558, -1.2828233140600147, 0.6735022075136569, -1.231374070045851, -1.3479915504669828, -0.2979835163753389, 0.38829443092173693, 0.5726412295711576, 1.4710460197015514, -0.7017736259563574, -0.09837012686044473, 0.08330589121230998, -1.6079555695832282, -0.47314045511490277, -1.4602964552596365, -0.0731514994137083, -0.35329925486972896, 1.7565581389030154, -0.7762962296480578, -1.2177989109851215], [-1.3216628728221642, -2.283424038615479, 1.1330164752454914, -1.3058764637858555, 0.17228332585945613, 1.2286134660543526, 0.40992444986941257, 0.564246146112628, -2.277171233016394, -0.02493650421304941, 0.582721619356485, -0.10764207225106975, 1.7673316170062223, -3.3023701334645996, 0.2687776044811718, 0.44700529866687, -1.9035264842007553, 0.3408132048972773, 1.3226131716734293, -1.0908684680041318, 0.7832289910397834, -0.3312148661906639, -1.8538816152927389, 1.888512344443264, -0.37436103049832314, -0.6632167120432836, -0.2696747931844486, -0.9578353707208991, -0.80889976275184, 0.6424210271137042, 2.5911629923053514, -0.41306414328350616], [0.8661927831456049, -0.7498701781231593, -1.0941903270397741, -1.3904104822730055, -0.902087935355057, 0.15580997942625258, 1.205916314578438, 0.659111157661888, 0.21070158600880762, -0.0897101117682674, -0.11154416279953082, 0.11322746526172246, -0.5180509211527453, -0.2343298198521544, -0.6746626024786004, -0.05062529122685062, -1.249570738614072, 0.008681553642911087, -1.179019008799186, -0.04987861940677787, 0.49975277462486456, -0.9684050119455216, 0.5237937619388783, 0.6830671670264532, -0.8468854628367511, 1.0606783686991792, -0.4909148345911367, 0.00993117928606408, 0.22182160610017237, 0.7740857818911913, -0.023932433896214845, -0.2832906084959079], [1.1104510834360068, -1.419177679671557, -0.3345131262105809, 1.9873541154838166, 1.3473710372467935, -1.242287586190883, 0.6070401570042769, -1.0919319108556507, -1.7951081775622, 1.2873792065009928, -0.7981434850024851, -1.576985468390608, -1.2474701601754334, 1.2393108687838708, 1.5945274188187195, 0.7807391267817657, -0.6710683069705623, -1.0547729151341398, -0.34091249125596845, 1.3861073598852691, -0.28614924095087924, 0.5019739067136704, 0.06212201139370077, 1.1977121836209783, 0.4648326002008706, 1.512554536455217, 0.5384709459488176, -0.8945473886984288, -1.3394305323617068, -0.18693537296833854, 0.7605339138436873, -1.1833126612030895], [-0.13356765965034997, -1.7623622211966892, 1.3210688845958865, 0.9807995849677886, 1.8676020392206665, -2.263747184627926, 1.4587401545900007, -1.185491676306444, 0.8386491117677897, 0.25519212479497705, -0.4086409541380259, 0.39163018908534164, -1.8169671518902824, 1.3435409443476467, -0.3152872238871931, -1.443816872954097, -2.169878523681308, -0.5441599733642544, 1.0668371468884472, -0.7012241777014758, 1.3700001644779385, -1.466366226511024, 2.2282970304389838, 1.8271201858791777, -0.7828297564385247, -0.7086872292792487, 1.0934306210669225, -0.8472066169001957, 2.1558351103324096, 1.7215442781764427, -0.15278005209532852, -0.00527248612680211], [-0.9280057354201434, -0.630484342415288, 1.4836174004812743, 0.7165379155331131, -0.21896934940032176, -0.1348522747312108, -1.312297110512451, 1.4416660082447024, 0.008154892278987644, -2.374572757551033, 0.9660698211800653, -0.7452629460598961, 0.33252835011529, 2.337206244057227, 0.9788368477730469, -0.15349992793067396, -0.08474834170272326, 1.352916807332297, -1.4053605304434706, -0.1332613720893427, 0.09706504889447566, -0.043242334720304185, 0.2555095782635693, -2.3902862236616595, 0.8638783169590747, -0.7669037291099019, -1.9950473276924805, -1.5362944899540028, -0.7996924648424757, 1.0802148455704437, -2.046175264114993, -0.5245333995646967], [-0.9661547553235086, -2.189998688818703, -1.0884846919043625, -0.08289932310021278, 1.2123006012613278, 2.899784450197608, -0.22446526431149777, -1.9059052459499644, 0.896512573859357, 0.44304724017040586, 1.2700524558248034, 0.8175763121010236, 0.0992376205319847, 0.8316095771679866, -0.7905951774502497, -0.4096098702965866, -2.171660740302199, -0.7629750880042474, -0.21387682546608922, -1.7545908183931336, -0.38446429868509285, -1.3392036454197316, 0.6949255733876676, -1.6015570500422953, -0.7311913029054047, -0.16271163718030585, 0.08550022997308282, -0.5750310447438435, 0.5250031947294009, -0.1565990513137319, -0.053155789537828034, -1.1741756686495641], [-1.6145907743489194, -0.6697006616844283, -1.6174310847377198, 0.08802372766687783, -1.8738758753895237, -1.1853967508338015, -0.3769645207584695, -2.1691552279804034, -0.5177037082656614, 1.2191468060952761, -2.3889560206122233, 0.9747659925298908, 0.6355512079418557, -1.7144984413631588, 0.8861736475486037, -0.9608505694244837, -1.1708177980236527, -0.23788451688692502, 2.7695943620043035, 0.8942707645790804, -0.07829886508137243, 0.18546913425878536, -0.22942237704902135, 1.1734482457743418, -0.7946929951410406, -0.91908125087903, 0.3761034807118701, 1.333678420340433, 1.1208752147484977, 0.9983083659626852, -1.2145819681502465, 1.8318750918941917], [0.5517216344925318, 2.112049025871485, -0.2404550710889135, -0.6839665743038944, -0.4486450882273305, 2.6966567300960356, -1.282433611431261, -1.5377425754099394, 1.3682433672483127, -2.460411560693875, 1.0885292705975118, -1.8461632561538315, -1.5607140103162362, 0.20315186536744217, -0.760558737027548, 1.2796743811411253, 0.4512021146196704, -1.0458719195078539, -2.6905280376697256, -1.5655774132084552, 1.4088279543885172, -0.8740463137854918, -0.8935903456647809, -1.2556663536559338, -1.638804537220328, -0.47771633319418094, 1.0611742441662373, -1.5367059148692794, 1.333847264871093, -0.05381243769057509, 0.7013769283577667, 0.9559129111284558], [1.152083507765075, -1.007064926846248, -0.6649962328163587, -2.4418284476454497, 1.195663090329366, -2.0037430186154426, -0.6650035597427435, 0.876761162336239, 0.9585753223154532, 0.6142614916607981, 2.0535792638510904, 0.9422129249869311, -0.6130846119927402, -0.18624304003336115, 0.6630579080320469, 1.0278871770323792, -0.33390904540728816, -1.3913567519927605, 0.2261393977807467, -0.4295566075993874, -0.23866214196106217, 0.4889326111157157, 1.3764295924573888, -0.4604324045712185, -0.8642124391689738, 1.6420996772959182, 0.297256451394895, 0.6071976305962106, 2.1393367648659822, -0.358699610352171, 1.7287937217208316, 1.616606570902732], [0.4260013871679674, -2.2407027104228723, 0.5972379912351854, -1.2106468539687145, 0.9058386283672973, 0.9942664875640506, -0.22537790872183833, 1.3898032783213499, -1.0762521030848244, 0.23144463004605603, 0.3974396531926016, 0.4016756985852684, -1.4647780947043625, 0.13580774900584908, -1.0609670854932565, 1.5548323210453407, 2.1493422079002364, -0.9059690311503232, 1.4097358685232395, -0.9904078081408112, -1.9014626848859342, -2.692750010612405, -0.47580475866245214, -0.7194231066750935, -0.8271022862264134, -1.6188307186000603, 1.0728205340479826, -0.7242428288225454, 2.068392546428147, -0.9471939102935913, -1.1529833248918462, 0.4331890143839435], [-0.5826906202909597, -0.21767850042337158, 1.262343158293223, -1.6688980882682598, -1.0175158212309623, 0.602575546764932, 0.6656627775102222, -0.1363322552340671, -1.2013403060953416, -1.8640852669932555, -1.3239347110986994, 1.208851270608772, -0.8733505136044719, -1.0610300361252363, -1.364815045394404, 2.6360785833685947, 0.6579095059131363, -0.3674663983373155, -1.1377233257025816, -1.1051035084402874, -0.9123492259981021, -2.112082389669685, -1.3316100310310828, 0.5844190501660027, -0.5743506529061378, -1.134208308075595, -0.9135528519475032, 0.6501344572717187, -0.8647505031788012, -0.43296067282073625, 0.6384621803896506, 1.822761513348644]], "biases": [[-0.3434743033974595, 1.544151796566485, -2.062436960547181, 0.04576290702952883, -0.29299181705423993, -0.243784825984923, 0.29495410389629817, 0.9505785709025356, 0.7056030174593959, 0.0847306647245668, -0.4439003173621258, -0.6694715261182058, 0.7800722019763345, 0.2978330662599944, -1.2668930020910478, -1.3076956709548346, 1.2500089170202013, 0.07758851653458886, 0.022283414745704867, -0.50471823922527, -0.5976301220064388, 0.6273874864654301, 0.44626407845667926, 0.627993879339938, 0.38830727056735775, 0.029099000443069033, 0.3163825151779501, 0.18707286559262315, -0.36336582412755475, -0.6772710421661803, 0.7420393911896197, -1.213484850506357]], "output": false, "input_size": 54, "neuron_count": 32}, {"weights": [[-1.5478538430121282, -0.23643873880214566, -1.157349726764883, -0.2286153591401801, -0.5199644590926563, 1.93403605803945, 1.6756435768754616, 0.7194825995784555, -0.2711929653747809, 1.6782262988326924, -1.754249216773393, 0.7156143976043894, -0.4701158138039828, -1.4328350120120656, 0.8281955227346752, -0.03460675029206033, 1.0828254008629417, -0.1579313449908436, -1.0392393744207618, 0.36383278685741444, -2.286144064451963, 0.6678857616535937, -0.37915212091999007, 0.6344407415555243, -0.18798771060214767, 0.08878975599731355, 0.06904345298985967, 2.2361851124435543, 0.4843612833104344, -0.8269829169035771, -0.612835403774322, 0.5265729182164628], [-1.0402475046914355, -0.8123066114348015, -1.1636466267438177, 0.03518389682708904, -0.697140679234932, -1.6926263631502332, -1.0761093896880098, 0.49995220492525744, -0.11969033777151963, -1.1332196479957688, 0.4326735375906251, -1.0889274367721595, 1.2045741514606276, -0.8585076884056957, -0.23803819484395583, -0.16070615644886865, 0.5257338854650342, 1.7910812999046923, 1.012214604781517, 0.39337544310517236, -1.2547973183425736, 0.7604355958254336, -0.6618940418046284, 0.8781231439412933, 1.584991344761515, 0.9142529681210799, -1.2813254753815808, -1.4059651557047912, 0.3649417763725056, -0.6246778002400662, -1.0100776323929836, 0.8475626690316107], [0.07902681032065544, 0.16748542527399365, 1.4243231777217646, 1.4362213721767887, 1.8295993643667097, 0.8853755984778117, 1.5169430375475588, 1.1307983075005499, 1.831371748613639, -0.7517367265699932, 1.362674216418955, -0.672968732918469, -0.7576281882723046, -0.41105276869123286, -0.33683601391344853, -0.6718713990151721, -0.8395681512211602, -1.260513255691774, 0.7728714387366165, -0.5493217857089294, 1.2824599513304293, -1.1690346838176189, 0.793748619525271, 0.878170970994997, 0.857101759415092, 1.3466446471699574, -0.43414412842536576, -1.114997923365293, -1.5173765640399433, -0.9484774145667118, 1.5994987825742828, -0.9954636876523137], [-2.4648312715426437, 2.377512310486554, -1.7912616139605424, 0.8645007438821513, 0.822187610428242, -2.6855388215003435, -1.8975421485868802, -0.8369403098687547, 1.4384929439860417, 0.06327050451071631, 0.3295425652125178, -0.6696024355844674, 1.2318570428747462, -0.774448753910058, 1.4845196363718083, -1.921627900310024, -1.281788707434674, -0.15696898821376434, -3.176608783041612, 1.1254751759382113, -1.7442652658103899, 1.0015809288325699, 2.37602542955943, -0.025364346231834402, -1.0548787504417834, -0.16445902491385256, -1.334408053396933, -0.23575959199060953, 3.0469904263033873, 0.109020318216156, -1.4952055997375981, -2.4650991288671875], [0.3312477574445576, -0.06367988236777158, 0.09992414768548137, 2.4167099469392, 1.9451180684711065, 0.35145644346274457, -0.8744457716438176, -0.5351308519600422, -1.4807454680380445, -1.09416009674922, -0.2202741269306667, 0.6701603700027866, -1.3721857206538002, 1.2386443916872816, 0.5183355140639482, 0.8674994017574609, 1.519248596655974, -0.8757432734115607, -0.1701319016956882, 0.2793171696768396, -1.7386317019629733, -1.1040789107990796, 0.5838020032058766, -0.45594659793118936, 1.2487132867561626, 0.9993352617709174, -1.5235483240996424, -1.1360134633454773, 0.5079575982412656, 0.6617286173715622, 0.6225771879403403, 1.4509800399634147], [-0.2587947638006838, -0.9604869828447686, -1.7910956370907587, -0.7325126862780345, 0.6811609557599647, -0.6862761602548564, -0.4377052700151585, 0.2149887152278832, 0.7826299074728786, -0.5978103519324243, -0.690016377071661, 1.660801707699815, -2.729012194613576, 0.948115597951425, 1.6840280235847507, -1.3499555354482387, 0.13314811543385133, 1.738101845006805, -1.118949866154305, 0.6572493089651874, -0.4268871688642607, -0.48225306848161215, -1.5925740748744115, -0.2872488531559984, 0.9576700688316757, 0.18153505131638673, 1.4944918549663053, -1.4676678757610286, -0.09728126326672923, 1.9823264637480627, -1.1589484482738932, 0.5668464671815835], [-0.7343273753666013, 0.2734665495453685, -1.1876831911341332, -0.3844327868926545, 1.4657009131604957, 0.07972344060584273, 1.0826073461454946, 0.41740632782519227, -0.6765921708788594, -1.9204737395223614, 0.014939621277364947, 0.4683355809217738, 0.3474443562617242, -0.7434520460002056, 2.698860785534247, -1.3277645790775081, 1.216332402266715, 0.613818690247597, 0.4484374085320561, 0.46700001141279945, -1.5911932809956884, -0.8265416873548506, 0.41186573344951305, -0.12561725918667466, -0.9835744129333897, 0.2520464463462186, -2.0720850890897555, -0.8007094254091871, 2.729869609452538, -0.6473540742241826, 0.7303494649401063, 1.4928590320077948], [0.8827298061445907, -1.3304127033504045, 0.3137133932357694, -1.4969862490524295, -0.43233389604863615, -0.4712919881206653, -0.681191439373196, 1.242257167481395, 0.6710801531471495, 0.9471422695296894, -1.678250036056936, -0.833735999609277, 1.255232216927995, -0.3242426653465406, -1.3670937163497028, -0.2275328784829384, 0.7497391202159499, -2.1348484382621997, 1.5534019028070039, 0.4787143221028701, 2.231862208107238, -0.8093393912659421, 0.22865180079391578, -1.5795451194007195, -1.5132469975237552, -0.6077227493383157, 0.39712887188142637, 1.1456548714536234, 0.12439902200579472, -1.169869295440559, 1.2391347661847814, -0.21968119347319218], [0.08218886299014587, -0.5296637431657647, -0.6616074323608527, 0.12525258498597538, 1.8046467579084737, -0.9089116236888062, -1.109081098855655, 1.677247753740641, -0.7761138254036005, 0.06769265690019163, 0.11404531942998258, -0.20086210161027596, -0.7073289666696259, -0.751277028294195, 1.0423524892638931, 2.47031717920869, 1.6051886973486615, 0.8451818997632021, 0.7870671519672255, 1.1281716284827914, -0.15929223132241718, -1.6045080830829368, -0.16161731066115326, 2.5617632663503613, -1.3966356124678518, 0.3549747066295615, -0.7423930172275781, 0.9546349218160236, -0.3288473183601933, 0.5110975256872995, 1.0682760538057214, 0.5998292948340445], [2.387482002143651, -1.071296145748096, -0.13542071208818302, 0.11460548602658377, -0.86305504776538, 0.8823221304923983, -2.215618989989247, -1.312715000194043, -0.8914320022620119, 2.1162112562685333, 1.4195280204293197, -0.8252537686896491, -0.9921112234895813, 1.164311061587522, 0.5179612745179243, 0.4292788415075417, 0.6263523388762338, 1.0142239465972445, -0.5688821002019826, -1.908805148909939, 1.385992921945789, 0.10233508579987068, 0.28629240266434286, -0.45332085779318354, 2.40995565216211, -0.2831866538682423, -0.19639537350619624, -0.9450152249505728, 0.04396155902204608, -0.08132571941167857, -1.9374828147766068, -0.8065807276120545], [-1.6574279334196902, 0.9326471990534448, 0.7050905296767416, 0.05156872059606768, -0.07199029160341787, 0.14656042214927678, 1.5055725510704656, 1.2549190029713666, -0.629650989800395, -1.074632810225225, 0.32329050035298335, -0.9211592337830508, -0.216135798789224, -1.1877050728478311, -1.0773440363734248, 1.2386975652196133, 0.24721624781131477, 1.3710240034686698, 1.3434212119995603, -1.3937210106971007, -0.7026024863541158, 1.2813202369378904, 1.2792959054319113, 0.38731703775147364, 1.928775467262731, 1.504713662526682, -0.6613666945413315, 0.3131107596027499, -1.0545768828202573, -1.4221062946392165, 1.847672937745409, 1.9268271941347594], [1.3386748674860245, -1.2631100547367495, 1.2913252801016064, 0.3082151684416789, -1.4183882397027001, 0.8491403256869068, -0.8631992036568642, 0.6427341149437957, 0.13938700486182076, -1.0507489691863423, 1.4100582398269412, 2.437296026415973, 1.4699100247959915, -2.000263314624808, -1.0794914591602414, 0.3887653425177658, 0.09275163284720915, 0.7288056952528924, -0.1413303459106186, 0.046489261986308025, -0.4958333543965726, -0.6568472385981399, -0.5408943765033803, 0.6908791673623011, 0.4898412598436834, -0.28461681687942775, -1.6664417015876785, 0.9993355309189882, 0.7697434407671921, -0.015987764040812726, -1.518730498569985, 1.2831660926825301], [-1.862386133736341, -1.5527295074611156, -1.510203450320333, -0.44864399604009964, -0.9734123571375113, -0.9728557864400277, -0.12786328500711092, 0.4154422439711133, 1.8996713925824849, 0.9630080979596518, 0.8689767110061415, 0.6758290206034954, 0.13034660554817007, 0.6362411483376849, 0.034858377585320816, 0.464329392930278, -0.21866737626313298, -0.24967739306142445, 1.2812682624608709, -0.355268778994275, -1.6920858957666944, -0.5637781450317636, -2.3446647620069028, 1.9869694443952999, -0.17705253835973417, 1.2940958712198252, 0.3222923874377053, -0.23519124209786785, -0.2257535652563492, 0.37875099605064266, 0.07673653818211335, -1.4662711279744778], [-0.13853025541322916, -0.17562717754564666, -1.7488072203802818, -0.9051779399168636, -0.6719247375102348, -0.015506752393111275, -1.3821622900030508, -1.5486415842635668, -0.09221914118593538, -1.9464508867918684, 1.5687441113384697, -0.9224382537010352, -1.1363199784175553, 0.448233237131367, -1.1201136418973396, -0.10531966481752386, -0.7392546464624236, 0.3490566966704816, 1.2037529563426612, 1.9398592758099493, -2.140348016927164, 0.0026713797656689534, -1.9077599703467225, 2.3654876316810935, 2.2676766968134596, -0.5463648614450469, 1.0254154350862312, -0.5988693182713875, 1.9365931884509182, -2.359344726131794, 0.7189418265991432, -0.6810797877681374], [1.5524899854431795, -0.6480424927135623, 0.5877414800496965, 2.7313470100058144, -2.2167489792765895, 0.27368042359049327, -1.1031638104956565, -0.7266954882261102, -2.0448254752886066, 0.7013582973441173, -1.2988209048231867, 0.31869437241660814, 0.7093410440444753, 0.5528470944418805, -1.3930318405054063, 0.8138373998459605, -0.822767037499584, -1.147044783219983, 0.1591248817022808, 1.7418660061193751, 0.411177940882732, 1.4526575053407782, -3.020464236972249, 0.1750363342680593, -0.027801263419750123, -0.4359266071042003, -0.6924412784186031, -1.469303591730462, -0.7314274649266571, -1.0852618382310517, 0.7903935190006419, -1.0389922666763889], [-0.6823836358258829, -0.706910964995699, 0.48916131528226603, -0.3391497698480679, 0.2965265335346797, -2.3733404115967787, 1.6103387579656587, 0.20472153757485242, 1.5899044029982643, -1.4819291524369087, 0.9508887216268322, 0.07504156427914331, 0.015904280261309186, -0.845993978719188, -0.2391975380117251, 2.0755415979687912, 1.1227380398362816, -0.3514573134153888, 1.8594728519845156, 0.38423530291599056, 1.3908781251071456, -1.835024869808757, 0.46744338713088107, 0.32803417515304456, 0.023453898658253335, -2.7295208869904144, -0.7699988364755294, 0.00552446513699089, 0.1513725822799137, -1.288820681164617, 0.0861506570512951, 0.5017514396815757], [-0.43785522316889713, -1.2844354558718223, -0.990903884806863, 0.354354440491206, 0.5485926723281505, 0.5494127756546847, -0.253263037132952, -0.5913564582750073, 0.7282830198461516, 1.9936073646608787, 2.2228333535686025, 1.2911268027125447, -2.1984929843756547, 0.8302452227997734, -0.35981431228586813, 1.877494413220861, 0.9231835541290142, 0.8637316095558433, -1.6059495183625112, 0.5625434275345129, 0.8519157380660658, 0.31474203565107, 2.297247341175446, -0.4433463970028049, 0.013501728455986357, 0.20108285485129335, 0.608090241357293, -1.4557389704055428, -0.3790560947338988, -0.5977484347222245, -1.4708569992666052, -0.3507155695353069], [0.5790202488954835, -1.7733308099226988, 2.1218784746202948, 0.3346953275297445, -0.7362982571284209, -0.763012726591847, 0.06551540086023575, -1.1252861826696259, -0.8659188650852737, -1.7874230769290416, 0.11080820892273914, 1.2357687875461583, 0.10729817249913866, 0.4753842766440855, 0.9882466432055866, 1.7608758403213627, 1.126053221577377, -1.0378280008815208, 2.2780272404175745, 0.17977165820199495, 0.044164603225498714, -0.11187793743248241, -0.23205354161600913, 2.477366466279312, -0.4814071839893095, 1.1583437507305905, -0.8652302275785473, 1.0471828476623009, -0.5066134191604277, 0.7923164763176722, -0.43042671674016086, -0.8887635560324287], [-1.2201401093081436, 1.5504118087512786, 1.321555419886017, 0.7415476101684366, 0.7158886015318267, 0.5418864673296329, -1.227962369943723, 0.1521267905683832, -1.6842982554131087, -1.318440718398179, 3.1712623203521706, -0.16834581807894256, 1.5610232811347582, -1.4111222583206608, 0.09348314471027279, 1.8311438014449686, -0.15378360392358537, -1.0965653574477021, -0.8060528895598662, -2.5906200889399527, -1.5427215828715037, -1.493678927489002, 0.6278345915543618, -2.3421221692627014, 2.102160431006838, 2.0286039787385306, -0.19812512112751157, -0.3447407905708282, -2.001799716033409, -1.5887848513547924, -1.6919242942075772, 0.9719651569805511], [0.6738433549316748, 1.4992433399906309, 0.2882662668297026, -0.056693089766657545, 0.10686961781480618, 1.2703410833736513, -0.2690634789304142, -2.018472596404245, 0.9857262680869222, -0.4485484896154355, -0.8726578244123674, -0.07487691706396846, 0.9483532600554423, -1.0132826884938089, 0.6399193286336748, 1.3990770419783234, -0.07319771888183291, 1.1440841086563367, -1.3934783248909808, -1.1948848155693677, -0.6214609745251253, 0.6868851662504256, 0.25473729364784975, 0.09200370052317874, 0.47222013974616883, -0.638661780605924, -0.09567944657831351, -0.8067736703802515, 1.4118203447050899, -1.2004687900717155, -0.02773808699162739, -1.8630230557160128], [0.10754531093545999, 1.5131324821089094, -0.9971236400999878, -0.5790599270214309, 1.2408783169463407, 2.0916270879558603, 1.1767896067694623, 2.563704995462895, 1.9032059315311871, -1.8185623860210534, -0.5461116211774218, -0.5715032598023185, 0.010530722403707928, 0.04881929282741723, 1.0060147214247186, 1.8073483322306334, 0.04136359074659649, -0.9380025543527841, -1.1865233997796212, 0.30999284212558637, 0.0812461096248982, -1.6257065973100175, 0.06340040812089556, 0.7249213167036048, 0.49157636156732015, 0.9052777127578966, 1.0500211172673937, 1.7389042502817569, -1.650438300570182, -1.636556281062245, -1.8017480985437604, 0.7678673846873598], [-1.2811438415004197, 0.9387119641278885, 1.8411666531333144, 1.587279247525511, -0.28422242635534556, -2.6376026400571275, 1.28054154260695, 0.8175662419915601, -0.8558194874842546, -0.7865822729606209, 0.29032942176056187, 2.0746678133374035, -0.5605194562744987, 1.6121819854310058, -0.1189934665241846, -0.19268186754121328, -0.5490980994763432, -0.1534757291509068, 1.33091366218905, 0.04389663613000255, -0.17158534161601013, -2.1501777788354657, -0.9405400984533714, 1.2350485561665843, 2.926668228070407, 1.1001759524355537, 0.06738309890757492, 0.1520024972154015, 0.40312046077187325, 0.1565418932821795, -0.8062986837696979, 1.1126711539607341], [0.7147498792049825, 0.8307568662145061, 1.8967287836334834, -1.0870083709445355, 0.9343978450994417, -0.6185032142882056, 0.2297554202644977, -0.3583751734651982, 1.7603222419600604, -1.0242626996294109, 1.3174387450695555, 1.0861316516680706, -1.0283454338437064, 2.18278371954177, -0.2713314090265054, 0.9190958784155892, -1.8218080455169632, 0.018069851182468892, -1.52863175646793, -0.11553048173361549, 0.13942782827318834, 1.8782359861431273, -1.9003530154131145, 0.5113036879397497, -3.0519300548529245, 0.2046442938078732, -2.1961447880731866, -2.227458069347846, -1.7220682522535464, -0.45186411837310303, 0.010191628354766114, -0.35354172432814035], [-0.21323867897603357, 1.1056339390017196, -0.36953179244693973, -1.3724330770878064, -0.588476430995668, -0.45254613189788234, -0.6803397909910215, 1.7049976075149853, 0.9637054557531505, -2.3817241846043142, 0.48875577508266765, 0.037433124646022074, 0.7414146143592436, -1.4325645810450565, -0.33201281273466954, 0.141613022179794, 1.1650376650368277, 0.07125077373933537, -0.40425560328918186, 1.337201319230136, 1.7524317006247905, -2.27506201521796, -1.876279046127392, -1.3641089506294266, 1.2617332543944497, 1.6866450657356624, 0.7598963163289031, -1.1411143361927225, -0.7497320663941827, 0.5023711708775569, -0.33079953090220526, 0.5510523858007412], [-2.0579227111709892, 1.4850552232119258, 2.029871110249793, 0.2617931272735929, 0.9622677024393524, -1.5723364669616484, -0.2854940719576027, 0.1920162030764927, 0.34596147942178757, -2.2863996476401445, -1.0245397342499123, -0.9561129175064438, 1.0643808092063587, 0.35043187549779786, 1.3108405203254445, -0.3883691964449594, 1.5456133765232938, 0.46360787924783464, -2.088898623161916, -0.7097227047795285, 1.9315513243910865, 0.9690218388963627, 0.6085032401870916, 1.7193211339010628, -0.6678673505058867, -0.573648968255518, 0.8976191356986771, 1.0041069082797751, 0.7509634743936298, -1.0668630339674992, -0.5271582191692732, 0.16859023007039775], [-0.6095930924454955, 0.4009554860593537, 0.129074849953825, 0.8907838478427523, 0.11995995236564537, 0.8047204804125883, -1.1901391394383634, -0.884269772990067, 2.6982370962893336, 0.2708780101732968, -1.6644092389911083, 0.11182263848875271, -0.6390119963187619, -0.3068306892875302, 0.6808631693773537, 2.7090552058901953, 0.9450480385770054, 0.9485455991835438, -0.40800840873890376, 1.6341614191132807, 1.1417002198956578, -0.11758858141155598, -1.2029669453713085, -1.449098156978788, -2.086801203321464, 1.5754800950891918, -1.0805168408564163, 0.935080183701051, 0.8316425742027702, -1.213384948947395, 0.47773049867625994, -1.174994209607414], [-0.5044856563298945, -0.32736575778889027, -0.06580584399300396, 0.6071128350171406, -0.5042122824211046, 0.37283995702212, -1.3944477924717025, -0.3798366464260381, -2.4794991662915082, 1.9372020787410114, 0.8155558906778678, -0.3169365338912582, -1.0555662326164688, -0.8986173236270865, 0.584468828479334, -0.7752637597976504, -0.5768630175590663, 1.628120458640935, -1.2843101721421146, 2.818679249938244, 0.8654551085223907, 0.74497461667046, -0.865581725154065, -0.6710612998396994, 0.3399575424733008, -0.8691932466643261, 1.6923445990937254, -0.5724062767896996, -0.6391355001233516, 2.730857322984031, 1.4579097247760147, -1.2493247549067137], [0.6342332252454526, -0.4174422591959631, 1.6854443763985028, -0.6304583667088287, -0.32145345431024663, 0.877976375502152, -1.2093730182455036, -1.6586782392410557, -0.2703861100302317, 0.671367176442053, -1.1043639064812212, -0.38871836178976404, 1.4825451356428643, 0.032920884587509774, 1.7447600556885101, -0.2600154211018823, 0.9120358883716317, -0.888145467985217, 0.004977466505812015, -0.12837492355298935, -1.1576218372915243, -0.4185333764668018, 0.5129289269925422, -0.3169234851501122, -1.6224610703132505, 1.2116883268316823, 0.06229252666818001, -0.08933479765901402, -1.1743607528270648, 1.7274756655923431, -0.16676761844937354, 1.3405713732878177], [0.32709291368314314, 2.125169176578976, 1.8583498617505811, 1.2817353250416708, 0.1261363183065115, -0.28778974723491446, 0.5164903538454693, -0.9619131706363431, -0.9164260890303753, -0.8092355085351995, -1.0262927230340302, 1.158174201481744, -0.6400076259317188, -1.4889524163604062, 0.3354758751797094, -0.043768523230858634, 1.1170616880971025, -0.2849586263149796, -0.8940370211527033, -2.3601542963000215, 2.162402089195651, -1.308398707744796, -0.885626437786371, 2.299690764647049, -0.8615827982677522, -1.07757498728185, 0.519199308252976, -1.0703598417754268, -1.0614147985103344, -0.24001270323729668, -1.6092511412743904, -2.464915339845831], [1.9689540109534227, 0.9601832135798483, -0.3899103353950907, -0.9662640964886232, -0.6771583606324566, 0.8189385595023904, -0.42711223798435205, -0.7505020362824573, -1.7896337653410657, -1.2026418288893321, -1.7806187548980397, -0.06988978213219446, 0.6851107679074716, -1.202175049298443, 2.2800910542133987, 1.1969453602767803, -0.1009649786221666, 0.49062101263796765, 0.48465450717784625, 0.38699897173465025, 0.2432586172802058, 0.4014463532892215, -0.7372488307428364, -0.26902793416248183, -0.416463877582339, -0.6105587816007977, 0.6906537712586558, -2.3512255869965406, 0.9838529988196483, 0.1946976262697056, -0.31931776238736553, -0.22413399510494345], [-0.9866010083916309, -0.7229024754823418, 0.2611688476456498, 1.6570235908989537, -0.28369597739863456, -1.6133566299538094, -0.712612637699297, 1.7853718692356781, 1.7979015074830782, -2.388119203104117, -0.6577278267245724, -0.9363611632985565, -2.0961722547272084, -1.831936742218937, 0.18407551074056355, -1.648093983846096, -0.6130183780006402, 0.17193094860672992, 0.2617797337516931, -0.5977882658160008, -1.5940499121505853, 0.5490712670099299, -2.0365243925654117, -0.2595588958430066, 1.064343576305521, 0.43377940274406346, -1.6691455343041284, 0.7187798904545102, 0.5896184388335808, 1.5924461843973403, 0.5012687939045996, -0.4662011451673964], [1.5119609968804433, -1.720278259454962, -1.6174093653679313, 1.781396348994995, 1.4603119120026986, -0.0460965101208749, 1.5067117531578886, 0.22625998986137066, -0.6051117085993731, 1.4972414916496954, -0.7625288791247589, -0.31260877398204356, -0.34904939654447925, -2.234238035908546, 0.1947138246091124, 0.8247777750830081, -0.11155847477187783, 0.6285283096464918, 0.6797842243250923, -1.1798063069823375, -2.9448068396388853, -0.7673097453990427, -0.2386364181366301, -1.9517620120440689, 0.08480597261307934, 1.2683745715760444, 0.8141075026575144, 2.1812465922770214, 0.5537368790468478, 1.4003536858240748, 0.10899579046740447, 0.2943087738673719]], "biases": [[0.45848218151897885, -1.096594108172491, -0.5876608545954857, 0.21125676211084848, -0.05488828764160035, 0.418390937000172, -0.45463726801192383, -0.5204472634186756, -0.3787217329563183, -0.12355051797689284, 0.21016699002611472, 0.2233583948014442, 0.10842875476593014, -1.1240768524212137, 0.6978588486438775, -0.341576813192789, -0.24559769838427303, -1.2296492035714177, -0.054872220989553175, 0.34527015665630256, 0.3964307617046991, 0.10348141562950237, 0.12796288166296943, -0.16279641833558883, 0.021423980681394103, -0.9917043633163123, 0.5018227547973362, -0.4733179091601679, 0.30530951233995496, -1.0842851330283916, 0.528991808026569, -0.4955176199345191]], "output": false, "input_size": 32, "neuron_count": 32}, {"weights": [[2.206904881620952, -1.25001655298041, -0.9232230166500264, 0.05541390491589103, 1.0810763626656796, 0.3248591041049295, -2.064130159806864, -1.1675159343256205, 0.8009962120863159], [1.0301910124468339, -0.6273472635785844, -0.06068156039513313, 1.2486482381735378, 0.2919000373341468, 0.4736922105910314, 0.7756043150689059, 1.7835458540171598, -1.7825673031365983], [1.3077328946566573, -0.5327563280288234, -0.2447201496883546, -0.06917101411973156, -0.8968579043941884, 1.3781959888996398, 1.2301710824767422, 2.519652947072947, 0.17385326852576966], [0.5805809524356813, 1.2230142555143324, -1.3233987102602853, -0.6449159003884082, -0.3119942673417552, -1.7181185301209068, 0.05163610265611371, -0.2088167880095053, -0.7034409599728868], [0.35037493873519243, -0.7967350427883116, -0.19917254941949944, 2.4730992574765915, -0.9518167996734661, 0.9135100531817794, -0.6638444310256618, 0.11987146669663104, 1.1993694108814255], [1.3376971536574276, -0.027231684086719492, 0.5667442794470348, -2.21739516400445, 0.5376917923181468, 1.8325122706665633, -0.2283746426650677, 1.1647490578676922, 1.183412108042099], [-1.0218858694492117, 0.5918941528447218, -0.24565663267211446, -2.228405449577692, -1.247414800777075, 0.23480237379644378, -0.7070827636779812, -0.8895113169328431, 2.2171816011093375], [-0.40845866500348144, -1.8601889601843475, -0.5039037595997679, 0.4671213591882128, -1.5881215529591488, 0.7711150160117806, 2.7534834222573763, 0.3873520774462324, 0.43143489704392923], [-1.3192252556897657, 1.150543122421838, -1.6082813622534167, -0.4613370872552648, -0.12024511097950688, -1.0925663925761178, -0.9379005476488791, -1.6138838267336033, -0.7894262962635674], [0.038225338353090374, -0.89888516842273, 0.8502241239042088, -1.1064056462481449, -0.8651961393356029, -1.6390458759740612, 0.002883038448340233, 0.11764414903402848, 0.3301503444375219], [0.6361152938003787, -1.4604214506422062, -1.0967259364359896, 1.1043432437361669, -0.9527318200798702, 1.8457627446146798, -0.7711525384941841, 1.0302832269875704, -1.3048218691365798], [1.4509318442524832, 0.11766592615694134, 0.3355611796721452, 1.8754054411027712, 0.2743619998613909, -0.6791550455634963, -0.5869166562032506, 0.3449937090811426, 0.9321249426615025], [-2.0226524756103954, 0.0805001890892344, -1.2970225611562034, 1.403889683375817, 1.6424349641583154, -0.006840421963142083, 1.5912047471507178, 1.1980269815106313, 0.4636207029324195], [-1.1768956127568848, -0.46177079618467776, 0.23150631507190272, 0.24888614359573585, 0.12533869995914226, -0.7129192243583116, 0.22989218912918005, 2.0784142531547483, -0.5116560921688754], [-0.5397183484890924, 1.293375122094223, -2.7426763486176156, -0.2649257687817333, -0.14021511760447722, -0.3567907325902272, -0.5571136932096404, 1.1232444989156671, -0.4912427237149372], [-0.04575194535866752, -0.6998026421659923, -1.0387718307811427, -0.3341871650597533, 0.15996188906000713, 1.4014815881121079, 0.7193116693098767, -1.0121828203340772, -0.7307073572809637], [1.4213870932873, 0.03911755468728671, -0.7171534605036048, -0.9317671086121135, 0.46764703117319384, -0.20275518131561204, -0.7263352649479855, 1.0927962120780592, 1.433350537444049], [0.40308597780140554, 0.4609147134255437, 0.24595720873386942, -0.77273318069537, -0.24679207795653849, -0.2018128292435986, 0.48354330442292615, -1.8634496752940342, 0.029335216060826584], [-0.7275938048552942, 0.5317902089647157, 0.5955337815539189, -0.6995010122897438, 0.622248558862676, 1.8288146739674604, 1.722112631696041, -0.4345886053837825, 1.4570580719619068], [1.8725857656621003, -1.5994183398913528, -0.4416801667264843, 0.422405387095082, -1.5185665496610699, -1.5712308288612424, -1.5747659468674515, -2.561069172898603, -0.49054140808043445], [-1.7981570934173012, 0.3439533445070321, 0.39487814378298647, -1.3133419313020624, 0.10155447673904466, 0.3039343236700812, 2.2153502755286043, 1.2555324820719909, 1.4812536712152191], [-0.7514205589607585, 2.1214750126911843, 0.49401273903879894, -1.0957507135128042, 3.254262402372378, -1.0017135311409946, 0.6959807983608218, 0.30508645894508574, 2.0619875387315916], [-0.5787076703131093, 0.3925474113719474, -1.1362426342257772, 0.8523149628793389, 0.9391183741721191, -0.9125201791333944, 1.8040362252640822, 2.0559683744881223, 0.7817576049060654], [-0.04725728111866746, -1.4758118468532788, 0.12039521277219267, -0.380815935923653, 0.4632569867576633, -0.2275082213465069, -0.8493642026442371, -0.7905217631432384, 0.7702367860087476], [1.3645905132404206, 1.627085153175761, 1.9906256907640834, 0.9982499656551409, 0.7938561175331904, 1.4964928904068406, 0.4156003964014, 1.414607098972427, -1.342858894767748], [2.9501144404575395, -0.4791250084695903, -1.0142238367454106, 0.40292718989358395, -1.5392028786659373, -0.9884026999144765, 0.07249929348209393, 0.3894542979741723, -2.3902184492765097], [1.4821442702777632, 0.24511284761414104, 1.156446762765821, 1.3521179421486058, 0.0008616555418978118, 1.400735938225147, -1.171579641909854, -0.2190815609267005, 0.11264034798867475], [0.6515575006738326, -0.050972061965221416, -1.1495320346995122, -0.08136313143888921, 1.6277889547671496, -0.48764013577710413, -0.08819124092974859, 0.9563763113706732, -0.48942611559298477], [0.6651131580532275, 0.7473464513025294, 0.3040747413097707, 1.9197308596430551, 0.9022893701864415, -1.3320902316896972, 0.31248209751014944, -1.44581599185029, 1.5716784130934878], [1.7841388257475705, -0.9645000722161408, -0.37434465655071697, -1.0557510028912405, -1.5170184794426875, 0.5319922638376409, -0.15746635512454382, -0.4314747063877442, 1.6523031142191429], [0.3904747696486323, 1.521995028796196, 1.208758851314312, 2.2884282343617732, -0.6481614662716533, 0.37497419621314176, -0.9381821930018984, -0.2747626261784424, -1.6376336467496087], [0.252475669750073, -0.13365722472908775, -0.022614011340286712, -2.2905596041215213, 0.607339623197146, -1.037905857213863, 0.025101559922361228, 1.1197574868188183, 2.404978280585392]], "biases": [[-0.1179067671466946, 1.3647644107159942, 0.23860356487595435, -0.5222429942018523, -1.3668822771176656, 1.004355381565613, -0.24389374096181599, -0.09249988415339426, 0.6923439261924254]], "output": true, "input_size": 32, "neuron_count": 9}], "shape": [54, 32, 32, 9]}