{"layers": [{"weights": [[1.2630080890711193, 1.9736798368001347, -0.7442589491801975, 0.3507749774415858, -0.14946341260957582, 1.4246862277787355, -1.1672344011639653, 0.7152430997309117, -0.6888609724320478, -0.05125917647525932, -2.283353800315282, 2.062205447940424, 1.163083497336975, -0.5057660136417141, -0.5689983828219698, 2.015677170021408, -0.2174406512062185, 0.3377291280834235, -0.14952734913823273, 0.024923785496866555, 0.007765004532255655, -1.0883087259458326, -0.19253856432622646, -1.1441603303323618, -0.7228923830185172, -0.7258336767896044, -0.1967993384575446, 0.45966241055284207, -1.323320756096419, 0.5851828051927701, -0.8119353250512502, 1.4663000292974175], [-1.8219010525442905, 1.6148930549961527, 1.7401793414198128, 0.4855486029767452, 2.827882788663305, 0.5540907933930923, 1.9824562977371518, -0.5870817687220693, 0.9726523974810929, -1.7417061700000998, -0.23123209341916967, 0.18345990219828534, -0.495864214764466, -0.13306759474349297, -0.5380344764049082, -1.0526935178998114, 0.26529244908384786, -1.431301068352426, 1.0057959100247773, 1.9290488560573595, -2.505131257450338, -2.5695269855107767, -1.6494114512828095, 1.4493746700682035, 1.3719337077138494, -2.089760872930154, 1.6329961915499012, -0.5683771838729723, -1.0561042223987887, 0.4769854662305847, -2.1501142934613617, -0.36315487671367264], [1.4330277571249241, -1.1626344850015538, -1.2586681859578088, 0.3484522177352607, 0.35076588086788035, -1.5588621249764145, -0.31584013569532254, -1.0174584289141397, 0.8709700781023839, -0.5593735237133002, 0.9740854831518769, 0.9639697730447876, 1.6481461117413163, 1.3490323264319595, -2.0500459986120863, 1.2446188605446276, -0.3553631088075884, 0.5745712990438003, -0.13334657733163346, 0.2649322909591585, -1.2961186800136257, -0.6089693269699663, 0.8371741379747066, -1.6607949762912222, -1.022062499908357, -0.920791424194564, -0.7396533427297407, -0.13482661934298204, 0.5585825499524439, 0.3532419203081906, 1.3050823666494518, 0.6546759383475704], [-0.018900606314688245, 2.1366969576263513, -1.507128808442293, -0.2939082574900637, 1.1949033470256536, -1.8910305987383982, -2.6531703245723293, 2.3718566150730367, 0.8381036972960142, 0.47171904393092046, -1.7691900290127949, 0.6388077667033972, -1.6147796110203059, 0.25328360251737325, -0.7010754605206403, -0.698011141419593, 0.6773989361129057, 3.4287277689239866, 0.4912881707427166, 1.8054690097636654, -0.09132150761838101, -0.9907200679757721, 1.394832016124011, 0.8953907891559814, 1.0120803477045701, 0.4992882985746804, -0.2531829699889326, -0.7170936938706944, 1.8406955000522087, -0.31830576280086975, -0.9107590231800946, 0.48326276511653415], [1.9981414763892689, 1.2184437015015346, 0.5475232135378393, 1.0332190385134261, 1.157055442659309, 0.3154650780924917, -2.493972369755286, -1.3996861779992493, -2.8093172625091696, -0.32273034407306433, -1.0001314654754898, -0.5741586363999159, 0.04712977359249031, -0.1425144307071468, 0.06776305319763122, -0.43190971340885687, 0.2072175648184322, -0.8726137893075387, -1.1223224816297872, -0.9128559059437251, -0.7059656515344321, -0.9056514955181858, -1.0332010990974951, -0.15408872341843016, 0.2863622332205899, 0.8478435188223928, 1.1810252036965392, 0.13396882953330025, 0.4900161793582153, 2.259635572110887, -0.3635179972635735, 0.928747854999137], [0.17349313617752254, -0.13446175196355237, 0.10503521419964154, 0.7693790571392678, -2.430713745340037, -0.4757837266266053, -2.252650099044477, -1.7734562695920888, 0.8442414066183297, 0.3621643910994432, -1.17079404922054, 0.9195755835234898, -2.8555741898982077, -0.3267401111920373, -2.66586448447434, 0.6705439372454877, -0.1792534403567655, 0.18001323883086556, -0.046418748094518014, 1.642875238107651, 0.7053572995290693, 0.4136900217020669, 0.5459203509049075, 0.2236538474794343, -0.750204861499778, -0.6421861781996951, -0.9515828685110416, -1.405179876386102, 1.8146851594288818, 1.475783802407281, -1.996556985619126, -1.12947120748799], [-1.257749577058115, -1.8235605720582664, -0.3140236288016691, 0.5151032385338976, 1.1715321452493515, 1.1844186563040178, 1.098994380298951, -2.1113230065799664, 0.5149104652310849, 1.151052326982998, -0.4190477515199047, -1.2047172163054904, 0.22236427648267518, -0.34330054281379996, 2.1984166636972153, -0.5297125757366667, 1.2233174594068386, 1.2464800191762078, 0.08631319143587621, -0.5681718738888717, -0.7665180187014016, 0.21064442181239507, -0.6135520747040084, -1.209456850201772, 1.8326507789708844, 1.534049007804709, -1.7482980688901093, -1.6907031004092445, 1.1751722903723159, 1.635129684408871, 0.22222562856688782, 1.4625813271699704], [1.1977288142604294, -1.8320491408072845, 0.36759186606428285, 0.152108723603591, 0.8003391883614663, -1.965722911133057, -1.508152358445959, 0.4905144206031288, -0.5424370408252497, 0.0642486232399915, 0.9576403941350702, 0.06655365244107819, 1.1220620158510357, -0.8327066250085122, -0.12214498005902799, 0.33120404281142035, 0.10612570237781759, 2.0034094710102757, -0.023480871480113574, 0.7446447550076849, 2.1232157702824193, -2.4114581051044355, 0.9873216608921586, 0.6324771017519, -2.2355199426886765, 0.4845495422667349, 0.2023482946385181, -0.6573520775650408, -0.17543539964428817, -0.6483769132423837, -2.310473223867311, 1.4065063041276278], [-1.8814744605454985, 0.3561673909529438, 2.247641832720283, -0.410272488868439, 0.1392986970352595, 2.8724261119968597, -0.2370163438279547, 1.086977090202709, -0.28237424985667714, -2.8617728879009716, -0.7083198585747527, -0.5965412396083648, -1.5222625004991026, 0.7154578127428289, 2.1292570223329057, -0.11889069156318277, 0.7266965257615364, 1.5010326469802564, -0.48123893956670605, 0.5487053832466373, 2.5435999267920097, 0.05388278280057784, 1.1009504098750604, -1.198360937285022, -1.7518202765804898, 0.4573596625050583, 0.5224973416223708, 0.30593559329337494, -1.2472361092313071, 1.4347261954852786, -0.6168085252631998, 1.1320437877712834], [0.12589136085039435, -1.0971921682587051, -0.5860332545357441, -1.709002355583089, 0.8043182852338856, -0.11564231941261059, -0.7702007989462918, -1.3282784920018598, 1.458086986627717, 0.04878437464659991, 0.8678583302984927, 1.875271444076629, 1.1850500072651302, -0.9008771713763547, -0.47973855789218384, -0.22040808598975578, 1.649396208654446, 1.4104542429175915, 1.3905889071949393, -0.2014807777223698, 1.4551371820096888, -2.027729787392358, -1.3799089264514794, 0.9310528279830552, -0.75076780949339, -0.8375539530026493, -0.18279805639200503, -2.024826998499582, -0.5767076287271271, -1.311811401133228, -0.6084210611618095, -1.1626791946254418], [-1.774779404948881, -0.05123801064768498, 1.0797346046813334, -1.524865345229058, -1.082964939780454, 0.9667882808353218, -0.8261369435723731, -2.7060938947709765, 1.9922063502636806, -0.10421864730800381, 0.03501206470757811, 1.2986490238264718, -0.7771493089791697, 0.017443627918765157, 0.14528216149933762, 0.9405584157217943, 1.8917202553709838, 1.4444771410879662, -0.6864661464428262, 0.22216134404728816, 0.835895524016764, 1.0197098491914236, -0.5460001370403407, -0.04691386400648235, 0.1165496700515389, 0.03684823288802287, -1.5615072117752045, 0.023775844605383952, 1.0670794697425146, -1.8304126336729154, -1.3367318972001447, -0.6101253740776734], [0.8539886795907226, 0.11369101054901518, -0.7492037563027427, 0.8828476936005741, -0.5096769907799668, 0.04701319267525662, 1.6017591452408866, -1.2931235718688996, -0.5055789000273725, -0.821319430748886, 0.25920118376641155, 1.2914800575912189, -0.40778513189402105, -0.39557590701307815, -1.5653882240292538, 0.3382992635977873, -2.327005639358439, -1.4037568394852833, 1.6956385426323783, -0.587206602736828, 1.815335317014116, 0.7600980623922866, 1.8641118602589273, -0.05504482677250342, -0.9811195859502071, 1.2589196658126762, 1.6879852833790445, 0.8560624499000764, -1.079875153627614, 2.0036082908665733, -0.5619254268750454, 0.003662994308491611], [-0.2293480561996245, -0.6179014897742837, -1.1210284040739817, -0.06765780718008754, -0.19555790832245334, -0.02163317534882005, -2.462502145524203, 1.9197552952205807, -1.1405627943143968, -0.7123411964911583, 0.9910881640026226, 1.3565136280469343, -1.179824172221052, 0.6199839838077789, -2.203245759920959, 3.1421076895039155, 1.4153725932003405, 0.6465260863540215, -0.1750428905903122, -0.011213223982626846, 3.2019835558096386, 0.33153471441973403, -0.966328354036178, -1.6484291320680393, -2.624575419480396, 0.9935231253923575, -3.430824031746624, 0.8819234558080891, -0.5400125673182748, -0.8244025626174265, -1.1908647565377621, 2.0654757878976064], [-1.2485314208385643, 1.2868302566382852, 0.59260932557805, 0.5396311660283388, -1.417622174304747, -1.2519897505888538, -0.4179537221519861, -1.1502601743340923, 1.394631584169793, 0.7700050082509673, 0.8411438330547929, 2.4801199121814457, 0.9172997760085884, -0.7882915853582501, 0.5579121841651661, 1.4729477594746676, 0.6316089326896275, -1.8877875367981838, -2.2325174555998704, -2.5169521016266536, -0.8014558436004868, -0.014295259988097726, -0.016091742502430187, 0.014871488408018786, -2.22913393158505, 0.47685160389899484, 0.15754582546358653, 1.0710858574760966, 1.4952798277962551, -0.8490412367519468, -2.436877074946751, -0.08943648953098485], [1.339193945256039, 0.6735183333060526, 1.3159222225295317, 0.40009363138534715, -0.6138561523602858, -0.8789027815908506, -0.8867831989309458, -0.716758800736101, -2.908232796333831, -0.37732271950191526, 0.8312467381490982, 1.9007782343694986, -1.5679327052490746, -0.771046194043668, -0.39936769297063035, 0.08680138935949427, -1.5730840690763623, 0.7226121732056103, 2.1755679479885384, 1.9006701623801563, 1.8073016745592323, 0.1467097215014735, -0.23879614981252328, -2.14640805686676, 2.4513806601007437, 2.184331417772753, -1.236791924720972, -1.6982665871451204, 1.4088758982612295, -2.2771186587444, -0.6568599221856635, -0.650856894495284], [-2.0146149421627784, -1.3496557120480137, -1.1518463465010753, 2.5228532984732945, 0.4521977721707131, 0.4383495816382036, 1.9318858131411145, -0.8826251247726633, -0.6929090670295003, -1.2637812235576182, -2.3860837812611067, 0.015581055635224151, -0.36571638423730396, 1.2205899020787703, -0.9182275853532831, 0.45143189671478035, 0.2624414265703653, -2.3435108999011764, -0.39882275994412714, 0.7550484193273512, -0.15695623636776468, -2.167276051777793, -0.19724385371393427, -0.7730682665182118, -0.23505843387354136, -0.45614638556761505, -1.7394109233271242, -0.5721911337062364, 0.8675800602782036, -1.1577460437174363, -4.01961045884298, -0.7810978182801716], [-2.1272153920741736, 0.3944281450233934, -0.6616200392084269, 1.5723038377985203, -0.034762657327600546, 1.7169619103719351, -0.265074082292605, -1.1064523210569996, 0.786026433407627, 0.057839262600440734, -1.6842535871104127, -0.3707568347343434, -0.19385030399589137, 0.6754091566546354, 0.41049666725311795, -0.5188679156976592, 0.2743651792154992, -1.6592598083805952, -1.7555424735690597, 0.029705672098128064, -0.9511118765139042, 0.1591344828215606, -0.2543307481435705, 0.19191975402955616, 1.0187216934252088, -1.1848703337515243, -0.1255639096362197, 0.4500681563753401, 0.6253190249126418, 0.41629074026990187, 1.1055765057217695, 1.044098535419029], [-0.8942163660040966, -0.604060296706523, 0.060151357006409514, 1.8824213725630037, 1.5704703315476292, 0.8414246085957597, 1.7709634053073453, -1.2444846652609063, 0.8287523543973156, -2.483432316085727, -0.23253853208440475, 0.9875479586887108, 0.38094441267723034, -0.9217671220660417, -0.7211046915003321, 0.6610417575800545, -1.2391242150762358, 0.17320204135076775, 1.3347317967481571, -0.27829960547792754, 0.40841491152957554, 1.5972125102223071, -1.5999417693859876, -0.2644659172811842, 0.5830649984796641, 0.3809240501024509, -0.6219126249603759, 0.39270726363115227, -0.031876589311432085, -0.05028083914002142, -0.5381121389671645, 0.08085816608956405], [-1.5810098048596393, -0.13356375552552824, -0.5938852809989678, -2.683281186893873, 1.1915269414234828, -2.209200087984433, -1.3501576429902802, -0.04419720246555908, -0.8272935966556335, 0.21227057619896306, -0.22780031048657318, 0.14510602515434498, 2.559941703250842, -0.6723773216304432, -1.6862626707976087, 0.39479498439775107, -0.788246927133309, -0.8891858564202011, 0.9142489142737557, -0.20918959149844485, -0.37922696240636655, -1.4605439920295367, 0.15318802574279602, -1.4275794110283746, 0.1198661221795144, 0.08283695139380215, -0.6828818310818838, -2.564903821314789, 2.3645382420574452, -0.9050689172780922, -1.4757807698430487, 0.6668547797749118], [-1.3641060168484949, -0.9639843628980417, -1.2840589651953789, -0.9797081066729569, 1.686433075932945, -0.8618448617254423, -0.716017976778424, -0.44469026271120893, 0.7580132501482516, 0.2510514692462996, 1.2235587928018805, -0.28915704866399794, -0.57844208872713, -2.302322269808995, -1.8484372630438688, -1.6764632295977062, -1.713963228793324, 0.5950032160739729, -1.5551027253950953, -0.9598604124680985, -0.8275582430954557, 1.0177204060952043, -1.7938684754456258, -1.4635913761962809, -1.16841519278569, 0.04806989857404783, -1.2766038942503766, -0.27100201840883553, -0.1562429429483646, -0.0780943543307156, -0.47832566683452815, -0.02895028511099154], [0.10194694210615775, -1.528273875997607, 1.096278558507339, -0.6074752515738925, 0.140468270295624, 0.30076178003810483, -0.23757304398693618, 1.667258811404067, 2.586071837601719, -0.8559662875363568, 1.293561103637093, -0.9483109228692308, -1.5835380212339056, 1.5298903225304854, 0.22711689636902738, 1.1762341813640793, -1.7239882849938746, 0.20400793311386944, 1.816052087621551, -0.6116343534451215, -1.8329724366066222, -0.561169008105666, 0.49511922039959155, 1.6903665822624396, 0.2691235239361136, 0.6601018734724493, -1.3836256236114157, 1.0944426324908636, 0.18728987715686807, -1.3174043364038264, 0.9034629930999576, 1.5635057234516414], [1.0524307320111344, 0.4235053261476815, -1.224018284885908, 0.13066516671268485, 2.1325869608613908, -0.5474792271094706, 1.460904931529534, 1.2429089314372768, -0.7254705150608285, -1.6226170417161447, 0.30258364411572275, 2.749077728577875, -0.03356119093200986, 1.684788880533172, 0.0707629886358369, -1.391848241426557, 0.46486231768898983, -0.04792542053770045, 1.571260439804421, 0.35308115514594224, -1.4569628182402767, 1.845262777742712, -0.7412244674248727, 1.0983799811174948, -2.1535145780030414, 1.4306842137804892, -0.11919323376991536, 0.9021274106988857, 2.213118463402048, 0.5310061238942521, -0.35067056349642106, 1.7782036074958134], [-1.6456464895942984, -0.18086800662145303, 0.22893205713736853, -0.12557889424002328, 1.8164034228129304, -1.7286433857511059, -2.111626951013458, 1.664311392350601, 0.43014188560742606, -1.2849463408869686, -0.5589931441937487, -0.18878353829042382, -1.8421800867964022, -0.3621540889433084, 1.3115709743850865, -2.4032348081927855, -0.6985462018878412, -1.910429453739705, -3.076641552667796, 0.2156378409259697, -2.120700684848388, 0.5013277299139064, 0.5150379856053461, -1.4923597702431994, -1.4131883693747598, 0.11852315997682172, -0.5619371668004169, -0.08223865697048706, 1.2040725303297948, -0.333558046080108, 2.5857789604769206, -0.6620913408408913], [0.16526328419829595, -1.6403706763004817, 0.3533159657913253, -0.3615992739700716, -3.064355401994991, -0.744239333238883, -0.6958116774713021, 0.48397382457882254, -0.3795738157893354, 0.6529720273778483, -1.1959694646165522, -1.0859713221333092, -1.1040545466384248, -1.2279574002230222, 0.0977171395861633, -0.22783204162809143, 0.7558626579099079, -1.0662285541670236, 4.110087626838093, -0.07564540737882412, 0.3218471699171462, -1.3692690827341367, 1.9605726185239887, 2.249496734680172, 2.0575715472891978, 0.6487212458273947, 2.007880060304206, -0.9924901197723311, -0.30746527045750516, -1.7635175528099514, -1.2999904457581453, 1.3464372161108358], [1.120766139551202, -2.4565743940840665, -1.7397530183167986, 2.8571417754282904, 1.20770925728918, -1.5402882480935005, -1.5627929094385733, -1.3130794262380459, 0.9264326926259222, -1.0550630625234736, 0.14974516815789815, -0.8011737385679194, 1.203928576515215, 0.7874725025154066, -2.7515805985671977, 0.28784047040411015, 1.32998327239022, -0.578083496641239, -0.2087592005675294, 1.2500501223477207, 1.452646308016846, -2.155716181799651, -0.21094760817771233, 0.3287925204891834, 1.655385960519204, 0.25248731487678305, 0.24613203534631514, 0.6017113449590742, -0.09264614064375798, 0.5652912037802047, -0.19195172819595663, 1.1399051685852117], [-0.12407581149625485, 1.8769736170049591, -1.7178517056464035, 1.8486139359897518, 0.39508344952046726, -0.13680859382745164, -0.21429897082064817, 0.7939879251278152, -2.0482521330890124, 0.1304037647506398, 0.326091427428221, 0.005581793987494026, 0.6220200123347264, 0.029313659910781692, 0.5018262379753591, -1.988677532012459, 0.3810292351216759, -2.8274219208245492, -1.3820541654951863, 0.8335669421213048, -0.47231689796234677, 0.9032045874704849, -1.337598112656711, 0.8973420784336616, -1.0398047624745645, 0.13118591215783684, 0.38688234774062724, 0.42897108009855983, -2.131269657845837, 1.476309785461977, 0.6093560849945809, 1.6414475170378333], [-1.358828709872654, -0.24800709806959165, 1.3006041767922365, 2.0419430143616215, 0.3765483241776445, 1.8180717251546517, -1.4279103883156048, -0.783488317926087, 1.7859295797976906, -1.586879888237164, 0.18990673920374157, -0.8181935326692495, 0.004865920534278478, -1.1043375648911826, 0.8350900408473834, -1.3710171471933434, 0.7905755128925362, 0.5693336583301438, 0.9940576407756331, -0.9378101071703202, 0.5878449435040506, -2.1825714255471462, 0.35026364329651166, -0.1025014454941411, -2.0181628722534874, 0.9009243427385247, -0.770510238166126, -2.5750670651278225, 2.5045075586375956, -1.2335167037918011, -2.220722926443534, 1.680700566131961], [-1.7754562918846202, 0.5687532900537955, 0.9554187834670143, 0.08456683962844594, 1.4296918434256884, -0.802950693372537, -0.9028533935244492, 1.2081333100855969, 0.5358835444512424, 1.0774944795268542, -0.9399634082404089, -2.7323252044464565, 0.4700311231397043, -0.01769920021809674, 0.6803687281730708, 1.0478695733072807, 0.5466150877876337, 0.6336951588871094, -0.3236399742003943, 2.289498353207199, 1.0074260008720008, 1.0619657558395934, 1.563010626816863, 2.1501937869520957, 0.8480492357942697, -0.07569427377234444, -1.5591244955672634, -1.123757942807929, 1.338099178019732, 0.9353510623243582, -0.1254105520710048, -1.4340378542230998], [0.24194305744522954, 0.9337256478257525, -1.0360407075124751, -0.6399353377883683, -0.25988441280881514, -1.5687226478748828, -0.7840491470908308, 0.7388681640311918, 0.5345870946416067, 0.8954762453069924, -0.8380955131249441, 2.61688842998326, -1.801208892503972, 0.7081771522637805, 0.04848955067440304, 1.381203464153482, -1.4825868584594537, -1.5718550271753262, -0.09162973725917947, 0.8535491381778009, -0.753186311418758, -0.6807649275356391, -1.0146869296161822, 0.02441929960595797, 0.847211121130188, -1.8407808715335836, 0.3932556596501989, -0.9557191236356095, -0.5662165579816557, -4.164505102143663, 0.8416797681420438, 0.27856493856072434], [-1.4780316133385494, 0.21148271766104024, -0.23094015734187778, -0.24435423938109826, -0.6251384183703071, -2.2673139619365075, 1.4670908557800675, -0.42969888839258885, -0.06013810218988812, 1.7025754249434064, -0.3787885115689653, 0.6261983309296146, 1.7775534436981069, -0.5449207917188312, 1.736116606996111, 0.022764208952397242, -0.8648560943053378, -1.7002425469183884, -0.18323390344445678, -2.0969452308235446, -1.1707812786273646, 1.7708956786762102, 1.495678736311084, -1.3910200128665091, 0.6108249689248053, 0.11126865577967904, -0.8818863295459854, 0.44691165490272267, -1.730650319180802, 2.2231725884218934, 0.13492814572516884, 1.5515918289393593], [-2.8077277420389715, 0.9144066608004146, -1.7423139560414427, 0.4701404480291377, 0.9002115985420405, -1.5996883282252774, 0.49581047415220647, 0.8080237213148507, 0.00827495655596196, -1.4750280209789537, 2.161037789729125, -0.7839032376447408, -0.3926949072994903, 0.5115584615429912, 0.07913217091093691, 0.5854407574599338, 1.2985313686246513, -2.1664082431240006, -0.08914718103361285, -0.6101762633643951, 1.6052887493807169, 2.7327789890785557, 1.3970048901930827, 0.4186719598589076, -0.157526468307584, -1.4373717509228006, 0.3056262700185094, -1.4130744033478058, -0.485109035119454, 0.41128284120236785, 2.1965391776338192, -1.1287464784798082], [-0.7879656258204433, 0.8570813955793224, -1.6164749161676042, 0.10616191606072918, 1.1245035807252117, 0.9930839570595749, -0.7095501103579049, -3.0615974523609406, -0.654034102305882, -0.5757605452748282, 0.637323132248709, -1.3522589696051395, 1.229999256289445, 0.46263386332002576, -2.3706814698843446, 0.9102708340736347, 1.2528905465428954, 1.3982082408944074, -0.5668689008251672, 0.06889369412031346, 0.6338965626192328, 0.7639442855187604, -0.4009196011139463, 1.062814844455032, 1.9313692021116369, -0.8055572122094257, 0.08612161129236504, 2.355961081639632, -0.15798706007727215, 1.404089914631655, -0.6581181913947689, 0.7194456223785611], [-2.3144100535191656, 3.1039130639615244, -0.8526353956200576, -0.10851207149404102, 0.17343629583202852, -0.5890749630576204, -2.025825161812508, 0.737494568330306, 0.21580421468117933, -0.7216201294600577, 0.9694911076278093, -0.2544902305278055, -1.3548074612745356, -0.572449989202083, -0.14609852329691347, -0.34961171167616156, -1.0385211563272272, 3.129817078138426, 0.04700557352453574, -0.516815500152743, -0.7099076543154211, 0.9518993429495509, 1.795668658449078, -2.4980832339236008, -0.36016475697142214, -0.7013033592606248, 0.8583412966253793, -0.11360908709960045, -0.6134547607072167, 1.9178006448813198, -0.6866314934660436, 0.849492920941907], [-0.6264768835229304, -0.9313081884815937, -2.356194558156447, -0.5652245812716055, 2.235949511078361, -0.7570533390305132, -0.004917593985671092, -1.7583603570187467, -1.927564278629092, -1.1475250568177247, 0.019600809001470494, -1.9034735434572359, 0.9415668742852891, -1.0211870061481725, -1.0748455430283053, 1.581522963052024, -0.48349186250951637, 0.88019498143705, 0.4738470652520278, -1.9047983476013308, 1.0524835292343862, 0.41157675051556475, -1.7225933295382947, 0.15500020377444743, -1.8749294449145988, -1.128701241979007, 0.5487585872140774, 0.16470510910690878, -1.1968127231193373, -1.5196525032071788, 0.2780152721270902, 1.0667431452833278], [-1.5482174478403994, -1.4567675810556155, -1.0995012636913737, 0.2647373260203249, 1.2302917592738967, 1.6412572569235153, -1.3032736702370695, -0.726195499082959, -2.2859050394474134, 0.8859602997456464, -1.552004161580037, 0.08549829080307728, 0.9736153751285608, -1.1514201801045862, 0.3889779496554692, 0.2700963364060358, -1.1725957496798045, -0.01114757229022924, -0.4547529670453571, 1.909816463302842, -1.5885793935774128, -0.13403380110380658, -1.2066374801428954, 0.6216434616194764, 0.06538414633024325, 0.7856321505599037, 1.2750989417387748, 1.981774869655403, 0.21314802792861287, 2.342924305765772, 0.2560100109202855, 0.9225017796505499], [0.7156374030073536, 0.8191065972419302, 0.29999874490492795, -0.5924338666704632, 0.6143078959147528, 0.005753779776652399, 2.163823348330805, -2.8142146972613613, -0.09707537156974294, 1.9318514462990202, -0.7324516442434696, 1.0363419015875592, 0.65862372247334, -0.25185119001700845, 1.0629946906560388, 0.3450660603978046, 0.44307715935148845, -1.3352278399320743, 0.5320351801612455, 1.017722689607285, 2.182563923707021, -0.08505372296767791, 0.7240979790481771, 2.0076060205512736, 0.8369283505370391, -1.3946655158599863, 0.26616730368494684, -0.8563758313936151, -0.9363075899262202, 0.04471556408078782, -0.3352474409015719, -0.8411404970827563], [-0.4249003566769698, 0.5717564651363438, -0.3054045891789563, 1.843355856372969, 1.0526985289250872, -1.1678650669869342, -2.051045647413664, 1.889529681961462, 0.5705227261271846, -1.4170223862531173, -1.5038553268720745, 1.7954576995309566, -2.0593645250957184, -0.13948625700137918, -1.8011031941778088, 2.808681404098478, -0.5407459590760979, -0.4553436145762461, -1.1006057042343564, 0.33878221920693047, 0.9432141023199384, 1.417412585242125, 0.2835228289549331, 1.237136231450378, -0.4360876983163021, 0.2750175894135324, 1.8727266278505117, 1.2273762729954516, -2.3901357881918344, -1.1260815749306219, 1.1085073448611849, 0.04251329545472582], [1.069683324414756, 0.12704461011818016, -1.6406919860485216, 1.47575942272948, 1.7407542102465774, 0.7764019471244743, 1.6467381382388635, 2.2184249430237952, -1.3169535270365487, -2.050579746210577, 1.1750669344355842, 0.037261154992809076, 2.489371186595677, 0.5754314469472503, 0.4082193740659157, 1.7734126780515735, -0.4994780063323029, 0.8183357198505377, 1.7620980668747497, 1.6974044525963317, 1.1037132051442837, 3.49582610908657, 2.0883161734857505, -0.6916191461153003, 2.583494742482088, 1.197254711367702, -0.11260183383438548, -1.4565109521914277, 2.2805797028985166, -0.5398171226423438, 2.055347382252294, 1.2656745788059194], [-0.5846444003812519, -0.9895936139622099, -1.6643410063450517, 1.367345804948735, -2.368239608461058, 0.9034577751469774, 1.5105882715554793, -0.008521691116239238, -0.07429438422896215, -0.3948844025482237, 0.5006028418790014, -1.852847895210207, 1.6152252711845385, 0.6061346763350617, -0.009936647686151245, 2.278826281525266, 2.1110515143507245, -0.6818467372971813, -1.1887223268354892, -1.3243269670134232, 2.143304910663831, 0.2179040883583156, -0.733061932745166, -2.4701588327738584, -0.7550441841715317, -1.056127217759998, -1.2075812430828403, 1.7391587877995338, 1.4541541806669147, -0.007210804833993688, 0.4114112307261733, 1.4648368671413503], [0.018027795295027654, -1.7745643191116036, -0.01693926552840453, 0.08704883909859726, 0.7619707010419894, 0.30045355542909713, -1.4407536159456906, 1.1093766436141064, 0.14115050024767536, 1.3547779069940478, 1.5373795005556161, 0.7140616911933925, 2.3646397015827247, -2.521379583214148, -1.085542001929979, 1.4851491618962154, -1.4177789663563432, -1.2016033688770729, 0.5273562191727388, 0.1846049056105289, 0.23515968831955322, 2.9602356748149345, -1.1006489508670882, -0.862351836068859, -0.7413692378719956, -0.1570870620563866, -1.815782822481184, 0.5152096575785229, 1.2165501228565159, -0.6678095078089386, 0.36669056103063424, -2.664825607241875], [-1.771033309555121, -1.6338764241631538, -0.2066472492551339, -0.7833237864810454, -1.7441389253278976, -0.22469985062093495, 0.36877155786063887, -1.2535235616231295, 0.4598663713283303, 0.5103186207326473, -0.38474760987216877, -0.1399901264791032, -0.20888434854571417, -0.49718760130719847, 1.2399110142239655, 0.609664544924382, -1.201897302507419, 0.6636242296301522, 2.200449707917086, -0.4331994344632113, 1.109613468562219, 0.030158036062512134, -0.30984372488214307, 2.728253900108759, -0.4321032608899239, -3.305363356451445, 0.11783043484099961, 0.8403111762806927, 0.9013864949622573, 1.3193595427850708, -0.6638894741068847, 1.3423573653999799], [-0.22314903932799193, -1.248138075336205, 1.1610367232970125, 0.8204045390462926, 0.8204065379501275, 1.847886314801991, -2.2505155438513804, -0.6143932186259065, 1.321249575463461, -1.9376990079416, -0.10807177514236191, -0.6234833624028219, -1.121574645965516, -0.16448656578188173, 2.848523171667978, -0.47208139814109573, 1.0470602802606206, 0.9454107812592927, -1.7978883301184898, -1.566308340028164, -1.6347432240159316, 2.010352352069808, -0.09073931100136223, -0.37360396837365617, -1.4011393373806955, 1.864958674856398, 0.5288985454309308, 0.9310792581544706, 1.1901207869950423, 0.18422152326591135, 0.0449179838869615, 1.3455669169848683], [0.07668852769655018, -1.0124367587840455, 1.2390022184421385, -2.1683142862323046, 2.33694954198201, -0.8196085682909845, -0.03697834060917221, 2.0127088710991936, 0.29974260073416736, 1.105629162702986, 0.3697975916853916, 1.6573899445142573, -0.23349612597226277, -1.5636790887594496, 0.013578702913736319, -1.299802452529693, -2.1489189356674485, -0.38741717820711385, 0.6596743141180402, 0.4235366846585228, 1.3296815766169587, -1.1717194805952342, -0.6810069459842707, -0.43572891007034154, -1.0819904768811153, -0.7110919196864445, -1.9843574150303052, 0.8486777275995923, -0.6294675291006603, 1.6988654656421496, -0.7303635980603908, -1.1362677651535533], [-1.404547070098428, -1.8620816664442457, 1.477213811429676, -1.3331346108307436, 0.40817148983725854, 0.3565407463555178, 0.7853769144117867, 0.564246146112628, -2.281899363957506, -0.0292544512716168, 0.21309700850421565, -0.30511131408727643, 1.7257215846045755, -3.2473217557443785, 0.19749154649264308, 0.6317761893698827, -1.8931282298544003, 0.2499040311441244, 1.4422077540638343, -1.4594942632228123, 0.5132391440672258, 0.2645936648711047, -1.515102909197894, 1.967028112576178, -0.37997309097858367, -0.8443102464851392, -0.7958932294276821, -1.3088929256788338, -1.3280645466594345, 0.7770562106756378, 2.050608893002335, -1.067163022844552], [0.6939652597915869, -0.03558060937185638, -1.25275605300796, -0.8389572372778191, -1.5593081336096664, 0.74690449058895, 0.8831004465459704, -0.2684606486957711, 0.24882398539055728, -0.31986516207119864, 0.2356705179332616, -0.1693313385021012, -0.6414032259605236, -0.4838198768358285, -0.46930694939918605, -0.36448279145046303, -1.2275235099342041, -0.14200281488325087, -1.2313538539852376, -0.43497795087302527, -0.1891373978530294, -0.18914335445975747, 0.9459973503127024, 1.936915206816472, -1.4080004703749998, 1.2623063197355804, -0.4018715143949865, -0.05780593095324253, 0.3023251195960669, 0.37737064614685617, 0.3303596087646198, -0.3840616615474301], [0.24390922588498798, -1.4073353301783695, -1.3255624994843576, 2.159989197705257, 1.224158255070755, -0.3817595554999443, 0.4671623169006339, -0.9769274722638636, -0.7548972646911722, 1.135137444344641, -1.2154069785697392, -1.4852775267854947, -1.6077929076467408, 1.7104324725012834, 1.1392758139316093, 1.2909124774874932, -0.9060972847801788, -0.956800332879151, -0.19377143527027207, 1.4332091783989398, -0.33350750651178973, -0.07767674256144261, 0.548871213898693, 0.5525213160134381, 0.7495444787144232, 1.6734670222418488, 0.6685750438427147, -2.0205653327548667, -2.2023104028046854, -0.6051525187676771, 0.6187976505324677, -0.765882397018306], [0.022421971692909055, -1.4154693801646059, 1.1868946379295697, 1.1087285714774808, 1.8291103543862333, -2.362189321691335, 1.80413070569094, -2.3228931826891728, 1.1509740223251246, -0.13811002336232195, -0.6467107372887149, -0.26362877755122904, -1.7472974095266953, 1.3675254466242805, -0.34878624410594705, -1.4424304891899715, -2.3980222209558963, -0.05006388627406644, 1.1802705869677246, -1.4693343481497876, 1.58252453685378, -1.5304946627075342, 1.8834821973688403, 1.0323407876164483, -1.1968424095085273, -0.7095476852820983, 1.5131904287324582, -2.0988259311329767, 1.9375236112364573, 1.6303982140021627, 0.5847076696187286, -0.024486084538154894], [-1.2336442703810744, -0.4017827050449797, 1.8572867677150438, 0.7921488735666166, -0.3838898449044078, -0.47353709190177273, -0.9232455810423728, 1.0714970931812224, -0.5436125958876858, -2.5467795747019926, 0.9765688573381479, -1.2490768893887525, 0.721353939892547, 1.8569484201826478, 1.3755046682855558, 0.4330139577553984, -1.0537424950839993, 1.3630618072472136, -0.8324506937490334, 0.8686569082877601, 0.31450279723631364, -0.18961606374831408, 0.053432319020844124, -1.9847709328786336, 0.8615597191143551, -0.7053165642317424, -1.8705046473353453, -1.4986654936497095, -0.48206835420654603, 0.8989925037611045, -2.0969978464151717, -0.46457277780319195], [-0.45763186861479566, -1.9785083061668585, -1.40176945434091, -0.07355110741222898, 0.710753399899499, 3.2902127784683812, -0.3807057112910787, -1.3163799888938068, 0.8866714893622492, 0.29013322674278086, 1.0582743778329207, 0.9391651351209819, 0.32195017929464875, 1.1824163969854888, -0.7669251047129088, -0.19167697302459674, -2.263776898227761, -1.1485060411235075, 1.0860405802227378, -1.3785209425020648, 0.27863780387420417, -1.3315491384989526, 0.6799506643153977, -1.5484925780169154, -0.7645898682573367, -0.023947462366412313, 0.20342253708650676, -0.5730083567695898, 0.416008151554602, 0.5059996060019316, -0.25276609874924333, -1.5813624898163017], [-1.3957470810470403, -0.5210920626024991, -1.2191703298714716, 0.38364461795312277, -1.675860525831026, -0.9484724930702011, -0.4966749390113214, -1.9849553527933441, -0.4649004586232752, 1.3299794568066192, -2.3524165289539125, 0.9693857291361602, 0.9979635713144801, -1.8966814339611031, 1.252675208343249, -0.05410974831735565, 0.4713432101263551, -0.35248948816609793, 2.8666617731495014, 0.9859635787374459, 0.33402631207857936, 0.08931047165237335, -0.0598289764203852, 1.1952778792518046, -1.0538677569396766, -1.4826727676802356, 0.529785266105369, 1.3390348642906007, 1.7630949351583545, 0.9743659684632444, -1.6174769187388687, 1.801625246389972], [0.4765876243445517, 1.381951977153086, -0.18671587659178518, -0.45302907182901414, -0.7337495606663318, 2.4184694039673302, -1.386293586497326, -0.6960671924965838, 1.1629243401657483, -2.2979796894664872, 1.120030851031135, -1.2926875455846387, -0.9571007032214713, 0.11225720957015685, -0.9827261046854613, 1.4580890735969132, 0.4145822580727919, -0.7147757397621578, -2.08255612770299, -2.0723973932369866, 1.3223777153450298, -1.2345940442072965, -0.9772975050325909, -0.962177068899925, -1.9548552687808631, -0.4831998145686646, 1.1795315134149242, -1.9648476045806698, 1.644135202795305, -0.09246403905051152, 1.1911491093899143, 0.7596491695620207], [1.887926754244729, -1.4949715776289543, -0.39497033397077697, -2.240465013956273, 1.332059370090437, -1.9766214578371577, -0.7868648735346399, 0.7031890316367458, 0.46112687413426745, 0.7481514932545112, 2.3736281822893694, 1.4349874845767978, -0.6258353508657316, 0.11799873185234733, 1.0858151011607662, 0.9648792535933135, -0.15981552537400923, -1.109818481404996, 0.3341197113009565, -0.3826388246370501, -0.41454729969673365, 0.7462386721062688, 1.7070461808307202, -0.7828926674378167, -0.931432713437081, 1.676628304258318, -0.3688637509177926, 0.549737497127953, 1.6703452620408983, -0.5340944794597207, 1.4163910067212062, 0.13809024114855564], [0.47900750437393774, -2.030099747997137, 0.9510000832056931, -0.27066851533894987, 1.0552171969112494, 1.5760981056372438, -0.4009784191934117, 1.599223466790456, -1.0522532399182802, 0.4366276495505213, 0.5611344459345142, 0.4904117238627538, -1.407414790377897, 0.2013434165089979, -0.9636547626960177, 1.2511800121453283, 1.7371231758986716, -1.98430939568247, 2.034258442592317, -0.14994900306079723, -1.7958933221191524, -2.992876633254692, -0.7160172139640317, -0.5008339710926155, -1.088840615470625, -2.9263890153865626, 1.1278696380886286, -1.5956548545423563, 2.056285861999591, -0.7390386045118071, -1.63108356343223, 0.3168131803558206], [-0.5269809976181327, -0.36329355796370555, 1.5932384598101619, -1.543647701875316, -0.713482159947064, 0.5250305447824812, 0.7700025618416098, -0.22276109435919667, -1.2093281223559995, -1.3876977995911424, -0.9283826147299482, 1.0015445396652516, -0.9764512962195266, -0.8128785605524081, -1.5694456670207122, 2.436710930696183, 1.7017515978172035, 0.16845193558607435, -1.1234265247886954, -1.2442490688684866, -0.7104848391705522, -2.6555150938254735, -1.3573223160976746, 0.2790132004146697, -0.6465761883166059, -1.3859895316443518, -1.6247682074267487, 0.8019476940716725, -0.8567015380162364, -0.4664337310366058, 0.908191098742261, 1.612737420403282]], "biases": [[0.0035628768214946826, 1.8557944274864162, -2.8952283473125475, 0.12309627465116861, -1.113551041278693, 0.7289296545752013, -0.27842210982249627, 0.8141285587122471, 1.0140981360980903, 0.3079666750094043, -0.3129966186926918, -0.3159092740260489, 0.834686857978197, -0.08281332823125391, -1.7551114756163275, -1.331604911980047, 0.679628460222208, -0.06366247788425292, -0.11221561760408483, -0.3966132778259529, -0.999644941115745, -0.29265421789236223, 0.38571686684450024, 0.9519246729592292, 0.34234124350060013, -0.11286401618155746, 0.32350188541082747, -0.002261751055696588, -0.2183633037117164, -0.5967027663583753, 0.265078547641423, -2.023671604294812]], "output": false, "input_size": 54, "neuron_count": 32}, {"weights": [[-2.312819285535763, -0.6216573211537935, -1.1134030253100025, -0.39237289402226416, -0.40545024443709493, 1.5695967838568197, 1.6585495844831084, 1.0384730670686528, 0.12493975011530596, 2.3099443858934814, -2.003885560720156, 0.6622096978401133, -0.45348350481900473, -1.787575851187443, 0.6654651958002621, -0.05288638626358463, 1.1360878280262496, -0.2001772074449406, -0.9892704061787956, 0.1741600694619645, -2.152100983617277, 0.48224789045830396, -0.5866008117434518, 0.9410758115631488, -1.2240313047902711, 0.3130011994734284, 0.027080551222571074, 1.0759282648729025, 0.35904461688355627, -1.5186123104305569, 0.5493708629971006, 0.5611771119154696], [-0.6908366937408865, -1.3586539668942452, -1.7402808990992695, 0.09704733085568568, -1.5673147456447936, -1.640451122383956, -1.0029780359832738, 0.8654707161002386, -0.10512083310046927, -1.1569724592834714, 1.244865304755678, -0.777245399327804, 1.4750669476776659, -0.7782701662858948, 0.28866289069608275, -0.7776061204632969, 1.0843394197648073, 2.377244131044704, 0.6546833372389738, 0.14146493036028568, -0.6556069025485025, 0.7453473262263762, -0.39481228326138307, 1.173204088399423, 2.073067806643129, 1.8744458404114186, -0.8429791904813724, -1.2551197722861145, 0.7598231392916945, -0.7244554996497259, -1.299521461162795, -0.22424287286599856], [0.8926999671779519, 0.2445547348851944, 1.4208428724973439, 1.8848468982841244, 1.6578891330297105, 0.8386743696524824, 1.5127568146479133, 1.335407132066516, 1.5565577900232128, -0.6883370706445782, 0.7324529914513367, -0.9839120200626554, -1.4825677153593997, -0.8779417510502232, 0.9203819885149831, -0.5841557408491693, -0.7107420460828081, -1.927560601116963, 0.5290011418757397, -0.5687799993020356, 1.883216825106849, -1.451306355034459, 0.8058439880507706, 1.1459614415456523, 0.9934544250073443, 1.3360689520470101, -0.5674000495010262, -1.2635979370064034, -0.9351144754777456, -1.4093379906115717, 1.8605832628810859, -1.187822223762986], [-2.337818317053923, 2.087078309506544, -1.972452344963, 0.4992694678192132, 1.710878723403548, -2.7626957145095274, -1.73839781728809, -1.0655317283719579, 1.4336905135861233, 0.9308802253720347, 0.153680943565256, -0.6428978506962304, 0.9055919230357519, -0.0333336962023189, 1.9678867962108022, -2.0374288888917196, -1.0956400792148604, -0.21206562178055507, -2.4973027976989903, 1.5844793246137026, -0.8278661023775051, 1.5015906172157463, 1.5348201428396577, 0.00652645346793253, -1.171344625245963, -1.030145269112479, -1.068979014452602, -0.15199399641330932, 2.695238294092856, 0.6967287247632494, -0.9791453102217093, -2.2448384372427435], [0.8811345918605089, -0.3629095211366979, 0.1830264648458335, 2.091075482326973, 1.6944758351970903, 0.08040788093072128, -1.393118595707801, -0.4390969920017863, -1.5278528008610186, -0.38058090088391633, -0.3043416276067411, 0.36822555777983096, -1.0580846123976904, 1.5494598999693379, 1.245449452444831, 1.025626597341177, 2.082249711778906, -0.7825775538935228, -0.4466370840907199, 0.09224264799925722, -1.6801614289702655, -0.9432648681350446, 1.0161953211694867, -0.6932822252251584, 0.7335569979991494, 1.0328518313142054, -1.8568789023099765, -0.46262124667122717, 0.40041246669008296, 0.7337274200958988, 0.4417383077093572, 1.5313141253535227], [0.11668419247118839, -1.3820991925961754, -1.7358899138144, -0.7911088631083019, 1.0789077224247785, -0.6562241927429469, 0.972834130685591, -0.8389698409331784, 0.580274785128929, -0.30605922420857057, -0.4534174331492107, 2.5111207572142393, -2.2236361535946187, 0.5801843929277426, 1.208067439713702, -2.1255697992011333, -0.2540797278767305, 0.9772223567390403, -0.6350286305663193, 0.8885935357458483, 0.32622446335612926, 0.14751256218524045, -1.60886158672428, -0.4948435114923345, 0.7912325164633656, 0.13956982139205662, 1.6039880604013583, -1.4786788047058759, -0.11901386994022511, 1.779034673652884, -1.060802056120057, 1.0096805145222376], [0.24386175929512233, 0.15093243046458893, -1.0882302073191448, -0.6702684686200675, 1.627631697565873, 0.19914330919823048, 1.4612577219644936, 0.19258922355690838, -0.0051608578970560245, -2.183329760840717, -0.1282892416511543, 1.8091791464398819, -0.5030815212760102, -0.169872847047416, 2.4838159149839596, -1.6923729101028844, 0.9828778272579226, 0.5588167539021651, 0.9613221444453545, 0.49726276908918865, -1.7352558277481642, -1.0492639614400823, 0.5063223477887644, -0.3055516577543189, -0.528201610412744, 0.2519801379388445, -2.959482123082795, -1.129268938419586, 3.8453011546511817, 0.195913849156763, 0.9202972034810253, 1.5739372213738303], [0.769574492559026, -1.4123898492126454, 0.04822243241434044, -1.8147090980565346, 0.1299555088021925, -0.07140667109531634, -1.8050241084380692, 1.143372200781744, 0.5745428634883849, -0.7414782474379917, -1.5402048689701906, -0.6925549614602545, 1.520309434768488, -0.0333297351981079, -0.4995117172826332, -1.0766676700202313, 0.8582675454429411, -1.8084300588085003, 1.2866293871078267, 0.5712465269059783, 2.2779682572068873, 0.2805965229633214, -0.02897142845497961, -1.369434095097448, -1.6674191625928279, -0.9828928658040477, -0.17245335517343316, 1.316626231405962, -0.32705655183933346, -1.596134217739359, 1.7716016773617378, -0.6751951138478716], [-0.7539344868899834, -0.6044331369191456, -0.14580540516962204, 0.350739951010381, 1.5777070083576108, -0.6435232500792467, -0.8704797083864748, 2.2416005934216896, -0.18454761982017182, 0.1184290002917799, 0.12712966185235292, 0.7717914830181832, -0.6150512970154423, 0.13994940289171348, -0.6397261099884571, 1.4704099437780243, 1.1496408274705794, 0.12531392098260968, 0.4599724812321396, 0.7693442479909344, -0.958285426301738, -1.7006540209059398, -0.17250817245823127, 3.0180200408844584, -0.8804266227154013, -0.3298037672648169, -1.4164019165270854, 1.4314906360021675, 0.4076117222158978, 1.051865029095592, 1.3177283543832647, 0.5073632127157104], [2.574735923785362, -1.001761170143606, -0.10180797665049726, -0.4219812790372609, -0.8434457965067138, 0.770839702786897, -2.5846361854866853, -0.5270837189806622, -0.5237164680339585, 1.5344166143914948, 0.6666895742535064, -1.6629395650296614, -1.011828026797176, 0.28115093112698986, 0.31538143033916477, 1.6640825514206035, 0.5534622459746911, 1.6323182748269152, 0.3549424409780524, -1.77761075216642, 1.4758921652691912, 0.07637312778922684, 0.0022748694733077048, -0.3774528042328688, 2.6978631997247025, 0.8307669213395652, -0.2534282508566858, -0.5192631735833253, 0.08608447703789002, 0.7392587520971393, -1.4214245504232204, -0.4666951944073273], [-1.8451941445763433, 0.9561926515898501, 0.6166626624069809, 0.2714176313815281, -0.5350446497168521, 0.4240635474412853, 1.3779855609949059, 1.0723038737980493, -0.8147783883296313, -1.1141763509646188, 0.5595768840117005, -1.1967560646235773, 0.25073548430434833, -1.317442006202301, -1.0179910575707978, 1.22312956301894, 0.19302909385126, 0.9529839503086971, 1.8517346163301385, -1.5321041594412432, 0.7721221919141973, 1.2813202369378904, 0.023042359594082504, 0.5684981825011854, 1.783850625984184, 1.1266538070649847, -0.35038607134666955, 0.6586420645369153, -1.3778647254328362, -1.1959736126610634, 1.8749649653096072, 2.569644047593871], [1.1956348058659363, -1.2324503596522574, 1.3446156252326054, 0.8632973472154559, -0.9631897149136777, 1.072671216846182, 0.13472159930714978, 0.3159490707363994, 0.01408153290118741, -0.9901306131414467, 1.4018177563791203, 3.7260899540111287, 1.2398749270737066, -1.8136948782132383, -1.3729985750183797, -0.05446462166920733, 0.1687804878816472, 1.0595319588317784, -0.3854878205451201, 0.24846858480187814, -1.3067296375048276, -0.0493372241556267, -0.4285780575734677, 1.1088668502139525, -0.12916270510705097, 0.14616979283588624, -1.6936446684287478, 0.8220654986539073, 0.865644580013227, -0.028541725627329033, -1.5677077246350586, 0.8311496227418221], [-1.876837195103853, -1.7055819152561844, -1.6125410438304113, -0.5083185692245833, -0.5108603381729786, -0.7016573494295563, -0.3088263845321404, 0.24184916765663905, 0.6440178172142377, 0.7136799361254857, 0.7216138037394368, 0.01881594354220286, 0.04316171879326815, 0.6581775000863856, -0.1174082365278103, -0.029935565114184753, 0.2913201124596948, -0.5089544755246287, 1.4804311165686364, -0.37240856005257084, -1.7316709060935234, -0.7775422723865029, -2.6075557352239294, 2.62179359095585, -0.08897201858107567, 2.0690617030133205, -0.6361586631793845, 0.1544193015597738, 0.4923434497130091, 0.3478459390983435, -0.04325092343065198, -1.4108364539300964], [0.33098885846509296, -0.5050121367405648, -1.669335176196118, -0.7864170057335096, -1.532501575390088, -0.029967094536888228, -0.9079922759308857, -1.0352103763387284, -0.48784779868641526, -2.5834789421567046, 1.5069465387723309, -0.8235526804259689, -1.7091064276031398, 0.5026501002238458, -0.9613629283568471, -0.10570369962490582, -0.9744663823251476, 0.6581012388202991, 1.835929259307398, 1.9698379674428068, -2.182496953856813, -0.21387432703559925, -1.7785386749569905, 2.7504564053999374, 2.31895908154078, -0.16080152375734097, 0.9797385564050962, -0.9303008962824979, 1.7866213997705223, -2.80809471805615, 0.8669019529924842, -0.6256738606131158], [1.7937080218595676, -0.45106852759249144, 0.6216439384235337, 2.8135169732331637, -2.5221292835450857, 0.31970456430469324, -1.269495989981225, -0.7718520612038562, -1.390108393959145, 0.832328536143472, -1.8614713198539028, 0.05420955082604356, 0.6712349626531873, 0.6430262480974048, -1.7718472147660034, 0.6758584294737466, -0.7523711469827511, -0.899242521067221, -0.01882055394984239, 2.0182120740384564, -0.26691542078470176, 0.2719124320580243, -3.8424878621405814, 0.934982271737938, -0.47419881882590587, -0.47965421982411705, -0.7783913774263616, -1.4114623137333262, -0.6445581761550714, -1.2849947822211658, 1.7515686196420566, -1.384242797663774], [-0.8428460893904697, -0.6995048470854496, 0.5473057080696765, -0.045143065950128236, 0.37561300499787975, -2.119438502977094, 1.999564361406069, -0.02251785657914851, 2.437774830655126, -2.1158672381049595, 0.9707538654498234, -0.6442077129732097, 0.031216311297153288, -0.9932147067731061, 0.6565403340216214, 2.559773399956582, 1.1789981302709518, -0.27505226507419456, 2.220512780565682, -0.03629353153222273, 1.8851549416584592, -1.232031814060845, 1.1170170648420896, 0.08655880029072036, -0.714577228044367, -2.7432796276654003, -1.0152263913699942, 0.10455401185314782, 0.30960232916129304, -0.566592610929535, -0.21783634847968064, 0.7587229961402331], [-0.5372402068268971, -1.2891110575816276, -1.0780455434191438, 0.7144753797708145, 1.2668080508837565, 0.5481776508833287, 0.6246718295826383, -0.606387675029057, 1.1625317923958476, 2.3722329919047285, 2.4000188016086788, 1.2001784792581573, -1.7736845182467982, 1.0085505699537607, -0.8146649932026582, 1.7297465198346686, 0.7509428763467083, 0.7738476942872228, -2.1308780183342595, 0.4156886595430645, 1.132900079184533, 0.38566479540100784, 2.231342019916686, 1.6322744629571182, 0.06128813358111462, 0.1416476412907035, 0.3728154449245264, -1.6797083188844293, -0.5937317213521849, -0.6052886978152232, -1.493897971484948, -0.3224295842211943], [0.9342176095858605, -2.569265794638566, 2.841054104641435, 0.34111906027042765, -1.3325085645104546, -0.9708942035382955, -0.2661898076622319, -0.7569704247930397, -0.612540825371229, -1.5359496736311677, 0.4036357444217698, 1.364891493497008, -0.049502305581891996, 0.050979003675352075, 1.4444201449819205, 0.8069913798825716, 2.536880650154216, -0.949947711012683, 2.1400402001905494, 0.24743622887308114, -0.4524999112477468, -0.9490058401847837, 1.048033862953505, 2.627271346384622, -0.8132299651484928, 1.2015110183425919, -0.98524845105953, 0.6589444088004017, -0.8985713352797373, 0.9679388566697544, -0.4365299977991913, -0.8596000565858217], [-1.2680813432172133, 1.1333322883377825, 0.5531971636821976, 0.7905561367374578, 0.1620644803198458, 0.612283038092289, -1.2305876728601057, 0.9622424082659924, -1.4093092183154525, -1.303675016640503, 2.9436449974304337, 0.3836733220066247, 2.1207452788779975, -1.5190842285736021, 0.9438354924696188, 1.5726610310374733, -0.4154492841939875, -1.2519072632430508, 0.09754756346988686, -2.6541536894342395, -2.2543406569450504, -0.8599387567567027, 1.7223797973538035, -1.7837406390877144, 1.7707586127842934, 2.02537413062266, -0.5383102988641216, -0.2795709585742189, -2.052930511423202, -1.5583656607148435, -2.0174251605045046, 0.09390134138281828], [0.7458102292815292, 1.3541109374793787, -0.031008130581772986, 0.13056474336890297, 0.23704824014289436, 2.6043692372959555, -0.36816423771113566, -2.462528507128093, 1.3965876469310805, -1.456562462690353, -0.6199561948543952, 0.24836124769550066, 0.7269438636946755, -1.0045630512226826, 0.8815172550784098, 1.7555160493800197, -0.34854412016892744, 1.1896265649779743, -1.6871811653068987, -1.2761823800078917, -0.046322659731868235, 1.0282738445265052, -0.18078689517958935, 0.5758561900967033, 0.638696101442163, -1.2745078717613207, -0.9716624379499386, -0.9555758414567017, 1.9852947432359644, -0.8887096378284265, -0.012169476636096854, -1.1806990504975432], [0.0756660379935816, 1.135991368897697, -0.6057427242971835, -0.7496783223461875, 1.407540050964037, 2.47830029670076, 1.9777596140818883, 3.14431994665777, 2.7757287038390706, -2.531793556649075, -0.47032946176363477, -0.6382096386875769, -0.3479784855287871, -0.5390015888541397, 1.088609522177443, 1.858375830529942, 0.282603465534646, -0.36704085004476794, -0.9860743329616755, -0.12551002489659369, 0.13928648940959787, -2.0875502733521873, 0.2920446313901275, 0.021934216929381554, 0.33928564344732337, 1.0066530309961705, 1.0847516243056707, 2.431184959719773, -1.876699274246812, -1.5638808422253394, -0.9271572614053449, 0.7265539391312219], [-1.7379771406053672, 0.9011884098165257, 2.1283909883816685, 1.7432924767712075, 0.11894257781934356, -3.033795307970067, 1.2567820078168317, 0.40230820322684946, -0.7552512785269616, -0.8482732622335558, -0.0074501158101338005, 2.7233713094272702, -0.34449390651584555, 1.53541575256662, -0.14050788422883553, -1.15106284412759, -0.005217307915577455, -0.06980579858415806, 1.0528644952152177, -0.17223632677107253, -0.9002603665918257, -1.791388009953541, -0.4524380116832778, 1.3990305716058065, 2.690996386352835, -0.2679795547437903, 0.04900833225065041, 0.19296734194753923, 0.1426905152315192, 0.4809542677279237, -0.6511051906384755, 1.2674974342169278], [0.3131838710440084, 1.1502077345012633, 1.6104325225155192, -0.8395580194151837, 0.9340892775920641, -0.37118467434144264, 0.3416908355365897, -0.29257519175595914, 1.3824057071253981, -1.9809891162653734, 2.329652597014069, 0.9853899032741962, 0.2172395928247492, 1.640378059361391, -0.8367973377380441, 1.281716002223014, -1.8875167017363896, -0.37186922700445224, -1.735915596430769, -0.0017974127911212937, -0.2736835044068917, 1.8457548708253442, -1.8630017187542889, 0.4789995670972865, -3.5941074732428797, 0.28159458538812965, -1.9922551195395892, -2.227458069347846, -1.8591987118553552, -0.4733950585561917, 0.04379005182233577, -0.624733525718175], [-0.5729400325533042, 0.9280897500363444, -0.0007364446832468785, -1.3898340999346082, -0.8897982723597069, -0.4453318779537242, 0.5139123588019026, 2.1700335360329905, 1.743739623227528, -2.9156665141881652, 1.1855278457052125, 1.603769222372419, 1.7133519494717437, -1.930968804017325, -1.5942238956313652, -0.1728729699799671, 2.119510447265331, -0.2175931759328555, -0.41422190185700997, 1.5906229878602247, 2.118608885010993, -2.227776149743092, -1.889159884490594, -1.1199885153128828, 1.1323727804994748, 0.7205893454687413, 0.8338333691547217, -1.4142410543429498, -0.7665720736250033, 0.9611953259808839, -0.27482727614612024, 0.5935362323144241], [-2.8593900666031713, 1.5608396496040706, 2.202560970753229, 0.117346471841282, 0.45942707364576296, -1.5425049314027897, -0.9515754547268678, 0.18128457299227446, 0.7849535923555382, -1.9158730526229095, -0.8337484583328929, -1.3571156173724064, 1.2677131584978172, 0.2474059370543774, 0.7776494871784259, -0.002655719831367226, 1.3734730985540897, 0.6538471628735358, -2.8935501828922967, -0.6405266852282674, 1.9926179382402855, 1.346328856380885, -0.02798087629303923, 1.8720234174243442, -1.4729394429065792, -0.23668343496548916, 0.6254430196043749, 1.0940604570333832, 0.4715526366577911, -1.1144187581661997, -0.3853576027140514, 0.2998665820123927], [-0.5260090968715335, 0.7854905957236497, 0.28985044089473966, 0.8964609225967264, 0.1765129872444144, 0.26737013374669305, -0.48510814772314165, -0.5552524750883439, 1.8786158915202362, 0.022698200008101056, -1.5112992485323424, 0.10071377472497518, 0.02569198399560946, -0.2104860487431866, 0.6547394828257431, 2.752332097590439, 1.018963822698739, 0.4560243299482092, -0.3084050761750583, 1.0942280038797167, 1.492112462785904, 0.688706297246756, -0.8723827637238609, -2.526398182445037, -2.19979807984354, 1.607403202521823, -0.26392264279369543, 0.9011854273239919, 0.8214664065579874, -1.1016211584190652, 0.3612969679744442, -1.2127096364817782], [-0.4724240757382832, -0.8659249280755803, -0.3904741924387581, 1.3981589505301537, -0.6208757862495983, 0.5578294544283919, -1.8711704409574255, -0.09870120302672719, -2.2004525408585964, 1.791105803340715, 0.7502024537503741, -0.23114750966108882, -1.0506817804644428, -0.34684368617024564, 0.7101614653148369, -1.0869621425914668, 0.1345291265200337, 1.6801152518321292, -1.8782531646768714, 2.9651655973570046, 0.9159204473054301, 1.3922792855865422, -0.6990610319097216, -0.6854799485421386, 0.6556328138668907, -0.4609712267296156, 1.6913502992369212, -0.7906789970595394, -0.8984213819142675, 2.4479685532664557, 1.3967032738757394, -2.124784428107721], [0.6678273299358048, -0.43674148407343844, 1.7609489698258778, -0.9574612869726495, -0.168108610989534, -0.03914934733596395, -2.086439661317748, -1.4584915424366378, -0.20739092020771088, 0.17018954865342378, -0.7292282072011234, -0.7491261881411808, 1.6966904567421808, -0.553832226606263, 1.6119656434669452, 0.12469289403874495, 0.5353422898140442, -1.0308803817782475, -0.42935498057677896, -0.7115256226161877, -1.1566606264541563, -0.9341929709830222, 1.4061739309196564, -0.6656541864519157, -1.5978402785689618, 1.518459966126732, 0.9755068191379006, 0.6246067975555938, 0.29100944183253197, 1.7465436569773023, 0.14742859446363205, 1.2175591536783128], [0.9894907568632967, 1.7144440666378156, 2.075345005331326, 1.7544049706667464, -0.5257512033376657, 0.0052972367863620634, 1.129986303649929, -0.16094162651764735, -1.329852617717092, -0.5895562766461699, -0.029023840168128007, 0.29300897581819874, 0.18373132423487787, -1.4008508021584691, 0.14121731367953722, 0.011392227267501382, 1.0357021044574086, -0.8331514940017224, -0.7920097061696117, -2.8454353671504813, 2.3399167658048157, -0.9653340874704424, 0.24596662346197812, 2.414523658638618, -1.9360539058015853, -2.252632985823907, 1.4251095399855451, -1.5682370707302609, -1.1260663571022778, -0.2710800492326393, -1.5189861961214377, -2.644577544077758], [1.8485779500519093, 0.9413913632801052, -1.3464903503798058, -1.1768306744729364, -1.4210406351384863, 0.6821945271550025, -0.929891687343677, -1.915291359607671, -2.124810989066616, -1.6759074040862845, -1.376179707457075, 0.026534572578643677, 0.12854128365840864, 0.7438736025192256, 2.4650881363350514, 1.2470381310280008, -0.3451829104500609, -0.8331190874763541, 1.016514821343971, 0.9675730604504957, -0.5202560580236192, 0.31305303654723327, -0.7544576670044171, -0.8959745336707863, -0.14875922552272647, -0.7199255449611253, 0.720311760871015, -2.7598915140218754, 1.6171017247194, 0.3268553437498005, -0.703655141472483, -0.1961476747555173], [-1.6217013413686603, -0.48649227580119536, 0.08671543887868083, 1.3617650231660585, -0.6143138738896476, -2.7468078673446326, -1.0365820449124703, 2.093645083267538, 2.0842772477689895, -2.930047522533614, -0.15939862239453723, -0.7584686139811688, -1.8685706918111826, -1.6832274396446203, 0.4363508290957892, -1.6921889132096448, -1.0783343229785527, -0.28871412646297523, -0.5129474888405748, -0.4871846910755874, -1.479680496461036, 0.41164260308320655, -2.1033203107807097, -0.8186529309948762, 1.04936790066344, -0.17228354176584137, -1.2593789646814089, 0.8947202506306687, 0.8797331615463949, 0.38763526866397413, 0.10031279512842416, -0.060725792803025036], [1.2486039192048513, -0.5123357151032754, -1.5579872002869832, 2.79022963000157, 1.740242559174312, -0.23613194574014532, 1.6254782736718476, 0.2125103638743688, -1.6271955581304498, 1.6783844316207097, -0.8463057660807503, -0.11341460365010468, -0.2969881849029731, -2.5212249228522783, -0.6936265830086157, 0.5625592943580766, -0.008572260119394725, 0.5624527323579256, 0.42371644053338964, -1.301764795433281, -3.107993213406404, -2.322262541786486, -0.11165369523751187, -1.4410179226869944, -0.529959577781471, 1.3496989833088724, 0.8435733890365966, 1.8257539128859621, 0.9019584752068368, 1.3913041155103603, 0.077616088435353, 0.5828220363430116]], "biases": [[0.15840161905028077, -1.3234155850499303, 0.020209647624129017, -0.8938701093159818, -0.4244203966282383, 0.6515030670677652, -0.5310143289892431, -0.5078422364460029, -0.43484722628301475, -0.10017548548304564, 0.3128453276697845, 0.4001966072878052, -0.05812379718876377, -1.205135406671296, 0.21109665725874044, 0.5273510048061025, -0.47817207917284144, -0.18070796108380321, -0.28909674994644946, 0.03316907900519066, 0.26120166180610394, -0.0022697322458013047, 0.0771654499982609, 0.1612575176145, -0.12724613739648555, -1.1269280685368948, 0.019440525555607935, 0.5790445630675669, 0.5686269304594167, -0.8820498904727149, 0.8595216276856534, -0.4525748423363048]], "output": false, "input_size": 32, "neuron_count": 32}, {"weights": [[1.6405294111361832, -1.141703433498373, -0.6469537342142164, -1.4257703624313836, 2.81895979693218, 0.0028361472755873522, -2.1653211784094673, -0.8818571558498509, 0.003771487433424494], [0.8014383148157437, -0.4420172464177695, -0.14198071889638741, 0.8049156624535894, 0.5983608089709298, 0.7317837090624028, 0.8323271392361429, 1.4836552817855546, -1.6006185337196113], [2.1869512282352437, -0.1083806801734705, -0.1587930529528609, -0.059437866148649605, -1.03411707595298, 1.5037673747305864, 1.178620060146709, 2.757302820402368, 0.06706599410963279], [1.2327370207959163, 2.2849662033092457, -1.3288808318781964, -0.7727332866193675, -0.8052847376749575, -1.8823828306084402, 0.01725281010484581, -0.10669326080523345, 0.28302252632209146], [0.4322080705116198, -1.0057436960058244, 0.34225395856406793, 2.2693038839815936, -0.8689050911048335, -0.09807049061688466, -1.3490727253756851, 0.009744192969654142, 1.370016180527001], [1.3361792851238787, 0.5215624135959268, 1.5310271649637435, -2.256810588866938, 0.6402620669019605, 1.8836449264149304, -0.8520569966886977, 1.619729677433534, 0.7813915864654233], [-2.4789788313161516, 0.7932358118825384, -0.8299951235370668, -2.0798801249915826, -0.9431323669121292, 0.012564083344782585, -0.7464574725832319, -0.7940859970039217, 2.3070408065108063], [-0.6025102049334734, -1.4379900668339818, -0.25195903128742636, 0.47749287647850175, -2.3474719724803257, 1.526414473991022, 2.315592359836526, 0.15781850129471578, -0.3519486076626138], [-2.3022846719957912, 1.2666280485708592, -1.9577800974656874, -0.8775504685027797, 0.03539579107119058, -0.99306340473331, -2.667274437926295, -1.9844117760652962, -1.759552008745144], [-0.2474774075683242, -0.8223474789484815, 0.9965506218522501, -1.827286839752662, -0.18237940092394384, -2.000191276354725, -0.27090521347112206, -0.19972454059595374, -1.2378810957772088], [0.5337135472682328, -0.8654291351623182, -0.7361626768402911, 1.0182770339804965, -0.9376859592136595, 2.0627480837979517, -0.9502658576633187, 0.8792513697325407, -0.5240387934161475], [1.6540704527146568, -0.22432316255088106, 0.0998908452802553, 2.463529745629289, 0.2859974957595529, -1.087725581462244, -0.3960766189432834, 0.6887270604889548, 1.0008301054038191], [-2.6417356681222284, -0.5346665423460809, -1.2405745996780555, 1.9091605222053638, 2.283924730007395, 0.05254993771499232, 1.5565902728754302, 1.1048138230906646, 1.2476707511866005], [-1.6120690863861253, -0.39372219874995484, 0.2445090841708316, 0.028823447844753665, 0.8849883778514416, -0.10220624851966097, 0.16172512281037726, 2.36430346550648, -0.6332243092030079], [-0.5787049612533539, 0.5085033047004437, -3.0537317257499943, -0.5002242715664951, -0.08642005284913681, -0.4290424976446183, -0.5990162661117953, 1.392968095747381, -0.4744624000131215], [-0.3002893163167345, -0.3669182682648796, -0.8326188786354629, -0.47788359751081955, 0.07259867448509214, 1.744228984820209, 0.5311090934032853, -1.093139155575812, -0.6838138442656179], [1.4989632959958588, 0.04468732002226969, -0.9649063590000373, -1.1052407234913553, 1.026049352301688, -0.6164370561464905, -0.20561137469034638, 1.6887254682570951, 1.7714226250336846], [0.9224324555974642, 0.4746035016722742, 0.21956840075504322, -0.7260517852042496, -0.14496659286077088, -0.18273203442644725, -0.6612855020174859, -1.771947580818638, -0.6382411642777018], [-0.5646944401878995, 0.6338434406858983, 0.38017819548338355, -1.3003641623147926, 2.0674640733066996, 1.670503788654991, 1.629079430331072, -0.23557330848701158, 1.557870087542206], [1.9296770369172287, -1.1997328078275842, -0.588484628614831, 0.11915602483875971, -1.8803701620079298, -1.5315349176037927, -2.2493404662848526, -2.5552474628665776, -1.4440399674259272], [-1.1673860080630458, 0.293448274238273, 0.01760398644270139, -2.7639336329871043, 0.1839839614469592, -0.06506114146470532, 2.4340501998072686, 0.8203336262703895, 1.5170328823484382], [-1.1451380920615875, 2.2076836236339625, 0.5637891745692838, -1.0160616599583037, 3.381779032207812, -0.847420899891736, 0.5533647207387805, 0.26607416224561203, 1.6283483063250266], [-0.7727268660694362, 0.6067596205354318, -1.0832228726476716, -0.0795222783875445, 0.9924274491476404, -1.3381254051190306, 1.7709238269777492, 1.5965349736030694, 0.916766171586643], [0.05545831249179549, -1.5234511861028053, 0.5443250975603114, -0.515477942502864, 0.5518445417580847, -0.1678698293473767, -1.0510275583750448, 0.1697551887257712, 0.7675808790988662], [-0.10961766851668645, 1.1538121560850727, 1.9315577713671965, 1.0714198176392844, 0.9922813753269417, 1.594727215617528, 0.4117094795709595, 1.2071784788614663, -1.2592015566454358], [2.465332060883107, -0.8767522067541491, -0.43545076066818234, 0.4897464311257769, -1.7261872212188805, -0.2572031799721325, -0.16716218178529316, 0.45338318259249677, -2.412064307455048], [1.0779575326093092, -0.13374985170848092, 1.1434434839622387, 1.7706897322039516, -0.3783603649671642, 0.695334423491659, -1.6825401525451003, -0.38105423278358286, 0.08501347256728664], [0.4394392017193096, -0.03204766742167252, -1.5684272999044673, -0.24379223971111705, 1.5503184256544964, -0.4741152705378947, 0.40736040118976996, -0.03645624802390145, -0.5176244178929683], [0.606462160598621, 1.2716967821709884, 0.2630662760159739, 2.398566521669058, 0.8331753022529361, -1.6701162766879212, 0.13809916197252728, -1.44581599185029, 1.6438318606428668], [1.7746608460379742, -0.9308041184209795, -0.8362525149733053, -1.3219220941420216, -1.3722578047855631, 0.5730852999614898, 0.07301129691807055, -0.5649296571427813, 2.2343561316900376], [0.7310578033861617, 1.3547742658809643, 0.8593190398033517, 2.429345944690826, 0.25679107292006115, 0.3222261275098861, -1.3838495472471428, 0.19992043993646172, -1.6429070498955332], [0.23684636827961533, -0.085161482154355, -0.10801811059955627, -2.3266948205572557, 0.7707499058997689, -1.414750514174151, -0.20056582085833058, 1.4670607512430616, 2.4113626633940415]], "biases": [[-0.8811876505512457, 2.5896077973548692, -0.024175688156367295, 0.18656237833193565, -1.13259332383699, 1.55106343766872, 0.25367930492110924, 0.2548345875159926, 0.6022167694654188]], "output": true, "input_size": 32, "neuron_count": 9}], "shape": [54, 32, 32, 9]}