{"layers": [{"weights": [[-0.04697253036380589, 0.15973370444613888, 1.6099745584450895, -1.5388020230113417, 1.689840941640885, 1.625040378782586, -0.31744003229033624, -2.459705027383199, -0.7670448558114644, -1.1450203166432853, -0.29279834062709154, -0.8239148873200444, -2.161069156709137, -0.4285431413966315, -0.5931686801868299, 0.2135091727166749, -0.6828077405729582, 1.3322437227019943, 1.5675489031119403, 0.9373964589469899, -1.9900039280451152, -1.7448884655977608, -1.8914097911953898, 2.588530869172235, 0.15292825560923184, -1.126515857491047, -0.8602994685884335, -1.0641073236545588, 1.7575342413843615, 2.118888283226393, -2.1905088600598095, -1.4043727008966609], [0.45235133638308034, -2.356089596475548, 1.4887794833516157, 1.2926508105924854, 2.5435662213530588, 0.12708582112982325, -1.8498868115748732, 2.214183176342128, -1.9895190454712108, 1.5679270742819509, -0.3850535989218262, 0.029784088206783466, -1.0960202349464994, 0.1277148679897, 2.6626652440477594, 0.48517672135497736, 2.678830267577719, 0.3765333591999048, 2.0647915943198667, 1.6816520820763015, 0.8406520777264888, -0.8975479838599753, 0.40730864128862576, -0.8472685022202592, 1.917810035756405, -3.135511813907043, 1.6716049782427174, 0.926576521017768, 1.9251257094450462, -2.017190020632799, 1.145718384721128, 0.03152464206561045], [2.45299849031458, -0.9326815951559048, -0.21313049724089994, -0.4133721865147494, 0.5333941159864735, 1.7037883944611367, -1.499863003622282, -2.4828783762058855, 2.751867182670795, 2.221677294742996, -2.2461072922118164, 1.39149637725192, 0.6548724798536497, -0.8833953324930695, 1.4904963282812365, 0.22048224741071876, -2.0930823269021612, -0.5345409994745299, 2.325829380502715, 0.3790124618327483, -1.9481830251386085, -1.6777096952758606, -0.7984716284217919, -2.5325917460208416, -2.188174989761322, 0.14821443426323777, 1.1375324631502242, -1.2693693528102261, 0.09847005593564373, 2.615796023276165, -2.4183969570007795, 1.9996309614541588], [-0.6541803525866742, -1.5529459869810738, -0.33142873895649405, -1.0814429302440782, 1.9095384596285006, 1.0078387258960642, 2.3518538266157876, -0.2639862891987014, -2.66245854206115, -1.3024333230853533, 1.064084210975082, 0.30647623432270754, -0.5496502049965929, -1.045931558829886, 0.06098530000315627, -0.19835942304421506, 1.364374559930292, 1.9973527744303716, 1.8388327395367758, 1.487591241435391, -0.04904379660636127, -1.931843085714855, 0.5677375293174924, 2.153164775907516, -1.087066775604253, 1.958092937554793, -1.0608748108141435, 0.7126012228104893, 2.201033601493222, 0.15731322813103565, 1.2861361043635842, -0.4129056694519888], [1.9959278140625547, 1.6292442099303508, -0.10183787022741875, 0.4130828542850059, 0.2936280339671882, -1.6056546058498844, -0.32774165182032033, 0.0979243035064764, -1.5406877625368254, -0.5786882273975412, 2.2254764270535525, -2.5197287882712898, -1.1526623322663756, 0.6987609709364462, -1.2381067181537173, -1.784203073911541, 1.7996432341784285, -0.136323031807854, 2.4935161030187083, -2.238615500841821, 1.1254339276001089, 2.645643692441926, -1.5894188383389296, -1.2218770344254304, -1.4084698815154133, 0.9600177918011149, -1.6679255004201297, 2.9770794385573582, 1.375948815941769, 0.7512572818109835, 1.909542688126246, 1.7471645867871581], [-0.7944629939757157, 1.4816260625144608, 0.004951074200787886, 2.609663621278864, 0.6276584492235259, -0.5429239198038562, 0.5866354098907387, 1.7690773991849897, 0.5382568245827607, 0.41294951214348463, 1.71217203793198, 0.7682710140164767, -1.1382398444115314, 0.8254444885102117, -1.727975451703955, 0.8772975934553932, 0.4875494637403307, -1.139208751336077, -2.979243423569626, 2.299581573117529, -2.0696321573992646, -1.340685890705207, -1.9078237392051962, 0.477645635782457, 0.7056884590001334, 2.4528600136865637, 0.5384944078223705, 2.8534254032557724, 0.43947370788120055, -0.941522885356536, 1.2077655395570837, -0.8804735776045168], [-1.2118437521729652, -0.11606622140447154, 0.3850046545111988, -2.1499190480766397, 1.6836817880962218, 1.5848592571984663, 3.1912323679126904, 0.7650503198695074, -1.0863943328813694, 1.5406991538431076, 0.860802381165674, 0.6428768147564343, -1.8066575133742067, 1.5334607497448212, -2.2067575150985252, 0.13542837059314738, -0.8953919356281129, -1.7069185837005243, 2.6294460454507895, 1.8452273870729041, -1.3157303020532791, -0.4544065223459465, -0.9333130750691603, 0.4713287606899039, -0.6974095653016977, -2.0809875403582274, -0.24997768865242498, 2.386474002247854, 1.6587130277654474, 0.7793799612180441, -0.6846989669008953, -3.2845845230770445], [-0.7019309755070641, -2.1040189975460977, -0.6564973997234206, 1.5374579464440679, 0.2066221868833551, 0.7324559756301231, -2.2471388930875054, 1.3531453990180564, 0.9190559280467856, -0.3728906333931078, -2.032080667687974, -0.9336424907249508, 0.1023110820980897, -0.04906863698620634, 2.209600914025976, 2.40709454513322, 1.9601561103908645, -2.02167427319021, -0.2927925106421986, -2.203271343113653, 2.9497122174878623, 1.9716833556807312, -0.38585089716011267, -0.4541030915421258, -1.8262396643260166, -2.7217055675981987, -0.2548629918088069, 0.9704072854762241, 1.2405177035110002, -2.0171881459660472, -1.816885475515888, 0.8858768645574232], [2.1779576015552844, 3.222596481898773, -1.3593272164652856, 0.7083530933354928, -2.138580244636369, 2.4601347354956706, -1.1855324370208526, -0.2981655132548573, -2.576052904758904, 0.3385745492905534, 1.6824875475051981, -2.0682893632773194, -1.2103099808971023, 2.183460743764903, 1.7667104271930252, -1.7400106062311833, 1.325876182242764, 1.5917151182678446, -2.71403324336765, -2.639752517920539, 1.2764918100664109, 2.8018907841851854, -2.4004254242917, -2.1342791492041315, -0.15052564028746873, -1.0837138774247062, -2.204870575423222, -2.1688494202326725, 1.4773629821740883, -2.457545959679701, 0.18501804042544978, 1.1645846277190137], [-0.8428378976095803, -0.23504162813515972, 3.5255708181870156, 1.350664047928893, -1.8829967789337514, 1.8124801806363442, 1.2678473833543296, -2.415838436355785, 0.4150468883202115, 1.1283297355203499, -0.3617943094083357, -0.8679303575331153, 1.6701793838499157, -1.6350869888682218, 1.9548633019006403, -0.4938898715313311, -0.08130499890727783, -0.9530996221811054, -0.06870878712867778, -1.0231252224874265, -2.38529210424852, -2.1691613896351476, -0.40517400115025604, -0.8933408235656648, -1.3074048063202643, -0.11162928599332422, 2.8427327365198582, -0.43395071716555655, 0.9460156007747474, -2.2940225683117172, 1.2785202472767825, 0.021069868436517036], [-1.332069229876546, -0.44493282257018774, 0.23940048702460115, 1.4217564866045906, 2.011463471758077, -1.7012535109020221, -1.1800810462555575, -0.9859391234903839, -2.070491983227711, -0.42787590630042793, -1.7995485596025604, -0.6646504455990971, -0.41228362317967726, -1.0288978729316671, -1.7790849952364862, -1.5474227973003214, 0.009263198905818726, 2.576783262379231, 1.816879897076074, -0.33522593385712196, -2.3137412801854644, -0.6193061752513878, 2.7936046442382043, 0.9381415665606082, -0.9559417462199545, 1.5365461092594894, -0.9382362229015075, -2.160295983578998, -0.9854139680865778, 0.8185575080055063, 2.0285345362197833, 1.401231660195604], [1.157969683525626, -1.9863623472315894, 0.18561675799930855, -0.7661559683997639, 0.5193864222030122, 2.6966932080200103, -1.2640107047379563, 1.6207635461104783, -1.72111275498328, -0.6243388064364612, 2.7720801527022187, -2.194739777941304, -0.2542243641392411, 0.8045909078377627, -1.2767757481490216, 2.3171407846127257, 1.3911729065657776, -0.8364482114018303, -0.4922557951229146, 0.09871839584186615, -1.289038184852577, -1.6077777630624956, -2.0218208492091065, -0.21257523288671187, 0.9335139556408689, 0.33048045429956396, 0.4803834660480034, -0.7681043862447112, 2.291014211493379, -2.877072626660428, 1.644838254743985, -0.9379110445087235], [-2.4655652287487224, -3.237776910719291, -3.3836952055579315, -3.2974285105922703, 0.3912512957944384, -1.9170961936088455, -1.7493736736860148, 0.06253155174612324, 2.3241201510002854, -1.9309605971282433, 2.22400587734114, 1.7659014513474927, -2.5751308486785227, 2.088622142572966, 1.5860108282036993, 1.7407540926611338, -1.2777599184245272, -2.451194296426569, -0.3362624761726162, -0.8628310662980139, 1.4219149436469323, 0.33524806275540553, -2.120872557177368, -1.5983449685840556, -2.1527640214639696, 0.7055011686761548, 0.7827652856603629, -0.5028194024821268, 1.3543130333307123, -1.6912568708094642, -1.1752047572145061, -1.9554512689796937], [2.469388509967883, 1.023867411771358, -0.22416834836164667, -1.5988461959215505, 2.8619616996054837, 1.7028891723570396, 0.24085786084871297, 1.7802473241829706, -0.9505953345127087, -1.0101306572748086, 2.643246387945143, -1.5408582213492354, -0.5793344892994171, 0.15905675695758326, 0.5731600830547768, 1.6932179247180779, -0.8555797086522626, 2.8731644072826032, -0.7956501355644664, -0.45764995284281584, 2.2932284245064762, -3.4572674007429955, 0.9963355879587821, -0.20610285871941225, -0.928110624921121, -1.2754581167202712, 2.3340530861045146, -1.6974469933295961, 0.5673881474581995, -1.149840978545566, -1.9432283850580316, 0.37553138504954797], [-1.629544809598453, 1.2412631217216985, -1.9885242916387105, -2.460184617771652, -0.2726689666203894, 0.26217687788968014, -0.8870751738884358, 1.4511018965193185, -1.8088166797138845, 0.14866947360470217, 1.8858281959349794, 2.773892697923866, -1.9001638820277478, -0.9038875118245132, -0.6529492365860863, -1.7288401333015067, -2.271384101738133, -1.8322979160709556, -2.056861538643259, -2.3584307280762804, 1.5103523502640464, -0.6871357854516297, 1.0856185075741784, -2.2711621037437264, -0.9743965203670377, -1.5513180347934095, -1.7823687547571283, 1.9896520949522571, 1.2093187500494245, -2.2095826625081583, 1.6597940880608137, 1.1023590371370928], [1.300017146062149, -1.7751042499134624, 0.7200849912704848, -1.9508254252396822, 0.38881381742539156, 2.1022670438097717, 0.08872430210691584, -1.4433924584029052, -0.40720571107579107, 2.25285702837387, 0.9742844775670061, -0.46087050879562397, 2.444464094920577, 0.15720924330851016, -0.40094202317685124, -0.11711273431263014, -1.5288718576044458, 1.1839406042329643, 1.0200882595623844, -0.791113435882936, -0.07988591727636307, 0.062126173898868986, -0.09323411373879009, -1.1857818923098111, 1.237581889441606, 1.154526051119728, -0.12308569546268633, -1.4698907538558674, -1.2804191908030451, -1.9244565339909618, -1.5240490334576244, 0.36482953635544546], [-2.1993366747915712, -0.5401895127688233, 0.0907037768399257, 2.072965897585609, -1.225425311383309, -1.9029980060684086, -0.18102933404054078, 0.12344965749991821, 0.9297017673998678, -2.332726078708736, 0.7087205535686513, -2.821361013376623, 0.658926284172737, -1.9273308217981033, 0.8644209444913359, -0.00579233320432837, -1.5860258718460645, -0.04496461281744846, -1.7706234728610752, 1.6304257154790145, -0.9151215946356395, 1.1679447091163029, -1.1294930886830137, -1.288389825960289, 1.8528287521561877, -0.6852778197905771, -0.31104461130514083, -0.39387131206462633, 1.1184823423396806, 0.7208100331799872, -1.0045842155047309, -1.3241861257763707], [-1.2946136097934668, -2.399831126860992, -0.4212139696238071, -0.242992067430447, 1.3048827325490626, 0.3503893893351083, 1.3984573711946378, -0.8118486923911048, -1.6958067580437175, 1.1934292646762281, 1.6599218217118055, -0.4671719221725634, 1.4972215397164477, 1.1622825117912035, 2.58081744406715, 0.02511312065596627, -2.028379238948471, -1.9883617925278263, -1.401614613515102, -1.2497945648587683, -1.0578986535550783, 0.8174778759395489, 1.9893299702250844, 1.0904413111103657, -0.7578918477102248, 0.07217823808517643, -0.8008333135278234, -1.0784336879569376, -0.6307737968425661, 0.5288889610041506, 0.010953125408614595, 1.9069190099685254], [0.373073201603207, 0.28763176247523226, 0.20366005090162476, -0.2964870035185878, 0.23119290480231258, 2.1271123367020155, -1.5155255914559604, -0.5675026651200467, -0.08462684116181007, 1.645899452169095, 1.5333831109601208, 1.1816223249475104, 1.683303642766934, -0.9197553290416224, -0.527355056769227, 0.1589182808481988, 2.084051987295351, -2.1092316288912722, -2.023664605338876, 0.7638991916473218, -0.8555935033520372, -0.04301530074666038, -1.4460807360618038, -1.7755952511649487, 2.3800645025643368, 0.5362440052355328, -1.1433265186436086, -1.329841783063591, -1.0102345816161922, -1.1911820630597654, -2.766948379178545, -2.2322575150505424], [-0.5642302154351136, 0.1618103153121222, -0.09832017625386813, -1.0776337929228685, 1.6598322638473768, -1.7407292025017496, 0.12399556703142378, -1.1626134547887257, -2.394565551313708, -1.4543027657132368, 0.6775621739985093, -2.3124385745088265, 1.2834833458514274, 1.7422633534699334, 0.08535652675466165, -0.2193735918819063, -0.5745451055901087, -0.3419958994090532, -3.7860232692356304, 0.6466130580701456, 2.1091576784890593, -2.48792271176481, -1.3263986346185712, 0.9350939565923126, 2.1762663830484357, 1.1547464082683494, -2.0670505185621937, -2.405274515892465, 1.3881709033989091, 0.33326190566112746, 0.4593952678231694, 0.04138279299400527], [-0.18782098820136184, 2.700268526521154, -1.8759771549578268, 1.4154411329924266, 1.6081252229350895, -1.8173480189171247, 0.7302112365214534, -1.1980936402401818, -2.1148262968067733, 1.2285602135475693, -0.6443677886527399, 1.8886670668462688, -0.6323666373611405, 2.028358839355732, -0.12353211803237119, -1.7719910584409813, -0.4803138440828969, 0.7082369445622518, -2.456699382446461, 1.517896723774673, -1.046913636636404, -1.763053249005611, -0.7384563863274368, -0.5551672097281637, 2.4649793483000457, 0.966032244133646, 3.0205674332630514, -0.6202516644209344, -0.40499280184314634, 0.9610819378848829, -2.022708816472583, -0.3477398156811976], [1.37716788791055, -1.1256143930945726, -2.984153859502726, 1.8779324125512968, -1.6358169997532346, 1.82468910590173, 2.309111017776201, 0.14079528131603936, 1.0557429286195061, -1.094952905947986, -2.344672748962091, -0.5378648272650921, -1.7802372496381074, -0.8729604097249475, -0.4196510187570981, 2.0781269982578934, -0.6790741103421173, -1.079093897905483, -0.6490348944575453, -2.1175254421346232, 0.1410932761307626, -0.49948145253435494, 1.334026917270534, 1.0385914637539728, 1.1911061225609536, 2.050963424103638, -2.774986736946939, -2.6153435831365224, 1.85469574196321, -0.5456194204686604, -0.9301319756202784, -1.2106699307719946], [0.5746123813530862, 2.768495822255271, -2.1005899039271707, 0.9413026751196701, -2.40987809469064, -1.900824712102612, 0.330007344947851, 0.1231616740001511, 1.4767893301051864, 0.3168472815054938, -2.5777002572439334, 1.9929349406295933, 2.7786103019050405, -1.6080111298608728, -1.899590149153038, 0.09391269549427428, 0.8454234035327991, -0.3519583404998099, -2.5659744899259938, -1.9424203163035625, 0.07841136207076516, 1.7936644278430334, -2.060277834591901, 2.4013340622725146, 2.6311167972475498, -1.4181659337097479, 0.6178983356663137, 0.21171192530371497, 0.8326234985446415, 0.8292769149165417, -1.1460910136051108, 0.30015044275245595], [0.4777976082019654, -0.1844593160820739, 1.0096211306862974, 0.38100980663989337, 1.5907122560631892, 0.6912464020460047, -0.1089238292486403, 2.3821278805278823, -1.4138313608519022, 0.4475612141273583, -1.7548340912665519, 0.4181957193102511, -1.6102953018978967, -0.9595549877958526, 0.7689525332241782, -2.3281475537161316, -2.270513978097573, -1.0229806360235334, -2.292228018531319, -2.0411340746883466, -1.1158506790823457, -0.34666412890304255, 0.8345211209501227, -1.9002907589470126, -0.07286154285312063, -2.5700580407655575, -2.0201826515207584, -0.6403738679697474, 1.5187441611557648, -1.564245995714229, 0.9176108266929865, 1.886343877376934], [-2.4303552119693403, 2.067139952862302, -2.04591218183442, 0.3832052992104934, 0.6195910193975539, -1.500956158064163, -1.5144108301269004, -0.6181692571057795, -0.8344529154337998, 0.15713944091096288, 1.785966798966931, 1.3213072260149743, -0.7645301709901753, 1.2082859534384438, -1.3529307470645826, -1.8853807489001868, 1.4061591227700267, 1.6005481958280874, 1.9791747296755942, -1.6610188941274784, 1.9701762021335048, -1.9098078746976266, -1.9001964386847559, -2.118511557214734, -1.5207806431922326, 1.9377065043310542, -1.831587761943369, -2.277996151546147, -0.0818185792305931, 1.9740481758332815, 1.7267450909599482, 0.5948490544554774], [-2.0458629988805583, -2.6937292129038743, 1.9792267027558674, -0.0769838018238187, -0.621814619088915, -0.1270521228270174, -1.8019075734144825, -2.102082997055573, -2.7866917400111273, 0.2953768120709137, 1.8549960767770761, 2.737353651347858, -2.4737606167489825, 1.8937813345338084, -1.2649845947097644, -2.228354554117563, -2.02048206634882, 2.086663468824609, 1.397985752144331, 0.12595550383514198, 2.53848514555738, 1.9430224259774715, -0.4018414056361346, 0.5388490433021776, -1.3664818379968189, -1.2439677225638266, 2.0406747460342127, 1.3244534826100236, 1.5546907874304343, -2.668070838588273, -1.5057233578664446, -2.1671086174383154], [1.988983801097766, 1.5930996818690377, -3.0394593154574263, 0.4245611688009693, -1.7374192974838158, 2.1387812011894414, -0.695470602580199, -1.1055607597915618, 1.184076136253641, 1.2076210381559416, -1.7943938229946137, 1.4958346783017777, -1.7502590800321094, 0.11722292725665506, 2.9242847747017366, 0.48312261958852365, 1.422556946232321, -0.4181435729824816, 1.7945999252909817, 2.1057706982037434, -0.8311825706670101, -0.1598388691819791, 2.0498145039529367, 2.564702601684046, -2.5333898864575044, -1.2277404720751601, -1.7666591351897625, 0.3456270902440478, 1.9561545640600726, -1.510417140932777, -0.962827944430915, 1.3753402363768663], [-2.0474610011926364, 2.866695301643698, 0.35369301904804096, 2.240055482970174, -0.6048185006346308, 0.9945706539375339, 2.4250834272747364, 1.7333298790735632, 2.006638578815097, -1.8038557790660086, -1.4610698157769377, -1.9117751312007858, 0.6754272885532281, 1.0592351128061708, 1.2663501553295848, -2.4417948187972094, -1.5624453782568644, -0.06484413741517159, -1.6573432154737788, 0.7793804505048169, 1.6312228952803154, -1.6287506037978385, -1.1409360125387125, 0.047475876336598, -0.66957167871936, 0.11162877272731453, -2.1439809254742865, 0.9708730073047819, 1.040437202541816, 0.6324076650645292, -1.3183809999275455, 1.362610812505625], [-2.085052841305094, 2.2647841190181444, 0.22779075137609628, -1.322649554189442, -0.2607943650469172, -0.5834340122391468, -0.6305836655029777, -1.6033588755558852, -1.108622216072663, 0.8232595190533191, 3.657195301635034, 1.66605546823742, -1.2081832917254909, -1.8834362488565475, 2.148882745737066, 1.899144003202856, -0.38303957564729474, -0.9426080841705451, 0.3963099405962972, -1.3293974133229645, 0.18602079024019924, -2.377922422420304, -1.0335911485770974, 0.6649098430413942, -0.129370919793663, -1.5778037941527008, 2.2355498367586772, 0.9967365741152618, -0.3230051567627603, -2.751002088392692, -2.551018051530183, 1.1474592466865645], [-0.2770299313708101, -0.2563262597121665, 0.47488495924908203, 0.8270138495200392, 0.19142377111633302, 0.6118670267387605, 0.09615241653981899, 2.043751834789566, 1.5073600244736318, -1.6051946036532212, -0.03902702632415289, 1.5231578102165875, -1.2318214483829832, -1.435203718796708, -0.9744061973399529, -0.5347726171997388, -2.071488890703451, 1.3579839292191016, -1.6136202410186287, 1.4006777595080147, -0.014575904339079071, -2.3181902129430014, -0.7223634037823503, -0.14962602127134628, -1.9516801645247916, -1.2866713847708429, 0.6320438791618126, 1.4595256703274058, -3.225483828561763, -1.2663679607610199, -0.15484523075689238, -1.033951129983889], [0.5438843029885722, -1.6700540295711401, 0.8473683225929086, 0.21745039766295027, 1.1241602827363644, -1.7630210318482809, 0.4879941571481039, -2.0624219718458043, -1.7643192923197573, 1.5139915273640252, -1.651439277535704, -1.0795916584418335, 1.5377150081761857, -1.7686496863169867, 0.9199222875489177, 0.4899961431078693, 1.8522866151791877, -0.0537827272653042, 2.637588360980045, 0.5396879873324555, 1.4608798522044146, -1.9960419354158145, 1.1307108954439058, -0.8125437265394622, 1.7495611194892446, -0.11922485342655631, -2.7221934010949402, -1.1944301416961571, -0.6087277633312782, 1.2247223585565403, 0.11020467413708446, 1.172696364442913], [2.8985014141368963, -0.16315068211864958, -0.13217922259497583, -0.13577782438132535, 2.631368365122768, -0.5210364262389683, 2.1339554079040006, 1.786304761243968, 1.5230329451994562, -1.307148769557515, 2.2659632237214, -0.3502578479072984, -1.6995511901023166, -0.8539998405954716, 1.774700302567854, -0.09626497733862194, 1.0091466728655787, 1.032770170814956, -1.7252744125477082, 0.40753833386898497, -1.2362331115999203, 1.346039100685478, 1.1916297563743927, -1.333846943171043, -1.955577532629539, -2.3902594220987408, -2.542734157820815, 1.5405192488291597, 1.095410108922441, -1.4897832723353703, 1.8945732309887042, -1.932869026548088], [0.5393616796120959, 0.5663915597431617, -1.5878072496180673, -0.9004487498878266, -0.29431675422512127, 2.2851755721957216, -2.6764055453402342, -1.4782652748783465, 1.3420581876863857, -2.1235817615225536, 0.5434865570712731, -0.8256332065457844, 2.023966449312483, 0.7715004098668111, -1.011767973836489, 0.6156823528296864, -0.98244783824529, -2.2793303877510755, 0.7432489970331624, -1.749321133275851, 2.4097685470066406, -0.21203982631708662, -0.8655966588391102, -1.6620128893539796, 0.1257464482287891, 1.8380394491636558, 0.5647280824753814, 1.5572645778232834, 0.24114588454517327, 2.3800252501216437, -1.7715520030296394, 0.08676600559078496], [0.08274929720638236, 0.8763522847152264, -0.779770799274195, 0.4713466712071913, 0.5767101678572973, -1.0291714406231334, 0.9526481740513959, 1.7361357839632392, -2.4057131442695625, 1.4038579351895635, -0.13728216923584602, -0.04031904334192826, -0.9065643452795924, -0.4254616127266646, 1.2913845640253778, -2.0124871242673823, -0.5701351627855148, 0.3806486448508505, -0.03341607044620454, -1.5086314721627336, -3.0863257228767162, 0.2585625318448933, -1.4916926456610275, 1.5454799461311017, 1.1698051393456197, 2.1422769770620924, 1.0829889588879809, -1.1715571894950116, 1.8081286019185967, 2.3568470321400583, 2.035478269472496, 0.08746183109318628], [-0.03378287903089827, 1.3035347054817574, 0.9554331559945406, 1.6712542763796638, 1.560593213071013, -1.1405380775510894, -2.0849600900788268, 1.1226359437950992, -1.3875341019445142, -0.462674538518563, -0.54557407117031, -1.0972247462027527, 0.5490402012833776, -1.2668240636144072, -0.24265831139858807, -0.26020235830101524, -0.683345637031451, 0.46807911317315887, 2.536168584242084, -2.1435340531208156, 0.6905815968918332, -2.324017360902812, 0.16846590874870826, -0.9716069761881108, -1.829547496302998, 2.0730654585420023, -2.488543283394299, -2.091366391781894, -0.8852992904186994, -1.8384277336456554, -2.0597903946188345, -0.5589534126664408], [-0.08945429012154071, -1.3764670452529104, 1.1635036486316301, 1.5204367190836094, -0.8811078385653037, -1.985640621105106, 2.5684746522759188, -3.227012074577772, -1.7230823936887063, 1.5447857380302787, -1.549087350580519, -2.971683168360069, 2.07602546103757, 0.3816084921733597, -0.590954521059389, 0.7562415869278173, 0.8645695509623532, 0.3764556861084818, -2.4247956269628848, 0.6945260702506076, 2.2426455510498107, -0.119516642453674, 1.152128439206334, -0.6836626530382787, 1.6071275629171469, -2.125890824074765, -0.7655124735632552, 0.8846289362514863, -2.0397095155651934, -0.46788749010663233, 0.5028192372780785, -0.8978819991843161], [-1.9058999461845758, 0.18274853638218957, 2.372691157288059, -1.7104216797810252, -2.2059306613027596, 0.8716419518413685, 1.5631736716840763, 1.4924952961740776, 0.7987517309338837, -1.7469118397999217, 1.8761124678551697, 0.8592550798248014, -2.1877684345572836, -2.292737220249077, -2.6157686791896673, -0.4207794556944421, -2.0136345998289067, -0.648431530756971, -1.1945890749378019, -0.32528137618508124, 1.794074563466469, 1.6065826241109042, -0.8079789824408982, 0.8173415213899171, 1.0710218929130844, -0.6908647857638233, -2.0076522372205643, -0.7388064632957823, -0.7044383617938039, -0.4140867813047816, 0.1332435374194828, 0.6783706917973557], [-0.6752103639257568, 0.4171609403731117, -1.9475748458827327, 1.0564353833993847, 0.10954245167121957, -2.269071196917566, -1.4851828790825943, 2.2023169750629, 0.6099274516326457, -1.6905466813903693, -1.0926462927922762, -1.3797169594078313, 0.31203299382572747, -2.790407935018425, 1.8838799503791397, -0.8987181190950961, -1.4287140236520472, 1.043263383061885, 0.5675771498566387, -1.9871154998749772, -1.296757283601353, -0.5501523254020841, -1.4387293673388593, -0.5317292600220674, -1.0393577024397722, 1.1910202381431327, -0.5472171866568692, -0.9923540069817153, 0.4164627492522478, -0.5824839052635695, 2.7605495200277588, 0.7649012279246591], [0.9985567434425848, -0.28132817440179947, 0.5369922699123337, 1.4214717076421155, -0.5291898919249363, -1.5655860140493605, -0.2642737360439311, 2.1062017808034916, -1.2122380088511329, 1.6714834817885738, 0.7344569437480796, 1.3944930451845226, -0.8856912543603903, 2.6515084178889654, -1.4343785481529006, 2.9491125862150396, -0.6035018978263346, -1.1669643877686393, 0.7436729653851802, -2.8093692311540144, 2.125963029600759, 1.4590657884434086, -1.4935179748409015, 2.165319299201318, 0.5269822355813157, 2.845621825272958, -0.4102083188754787, -0.5897003798131581, -0.1315666589586192, -1.4898977993987028, 2.7086488557030117, -1.2305989400533006], [-0.548612007692456, -1.155862267179602, 1.1202906639221102, 2.3853779343524657, -0.01889352033538827, -2.4762124585718794, 1.3664262098537505, -1.493303815542237, 0.46182296494121133, 2.1564420620055924, 1.5746687895450941, 0.9238003341657763, 1.048833405380893, 1.344271607457914, 0.9459582020509388, -1.9577063079420172, -1.3294549455927844, -1.1572738819573067, 2.3920031201499077, 2.1591687408862645, 1.6850267316633798, -3.4306073427690693, 0.30700903166135074, -1.9056678223692072, 1.2662524950886365, -2.096403250649825, 1.8758316007082372, -2.4870903673260663, -1.4014317811021653, 0.08475693302555276, -0.8026421463659021, 1.3796270319434498], [-1.072658737585362, -0.1992270355723369, -2.8399691249315864, 2.2322776123745633, -1.4209111589323187, -0.02318151786358258, 0.9449498351341814, -1.5796039372310586, 1.1623105698682559, 0.4659676940042723, 0.2735554302747437, -0.7455716718670274, 0.21572968522823444, -1.1209012432797159, 0.09230435190913389, 1.660350329142397, 2.0161916536130615, -0.4203015461146733, 0.6919942168014109, -0.419407131427154, 0.1778111724949054, -2.6884928724898, 1.878399415994173, 1.1422710389087416, -0.427469389791148, -1.8597924721884325, 1.615865991436059, 1.7588116396780418, 0.9097585940953522, 1.1404464433739407, 3.382905700184477, -0.2184765526042226], [0.8570374733358943, 2.543092599685743, -1.8998512748576923, 2.109572735302762, -2.065817989204821, 0.8202984929417741, 2.0674956239488202, -1.0013571082058954, -1.0942551801137368, 0.3396658863847478, 0.9693385319652165, -0.18567600086498115, 1.1085112639210675, -1.9624873918995627, 1.6562892206195512, 0.8579669781201237, 1.93227817326409, 1.3878409494962436, 0.4676779589574479, 0.29864395403589195, 1.905320906589341, -0.5326635562678265, -0.46951787157295577, 0.4580473023658992, -0.993571037491447, -0.2386106397076071, -0.7721990494993023, -0.8547740546817442, -2.6398185160726073, -0.5991921964850975, -2.2429617123828764, -0.9968770101437551], [-1.0179720205103595, 1.627900119035038, 0.9880800047913919, 0.7324030390758934, -1.214481199579697, -1.8782652003194573, -0.6463455228682862, 0.7131339957478844, 1.7109711528026579, -0.908851608141803, 1.4648609462302375, 1.2054603227614815, -0.189453709642728, -2.5797537529644416, -2.106117757284824, 2.040316592564866, 2.9826449761274123, -1.4023019356551225, -1.071191946085125, -2.441520340961479, 1.373210852336646, 0.37795938022836273, 0.20243350117420011, -2.594947059027906, 0.24984470251396496, -0.11476444374287509, 0.40434473423742046, -1.4265421491019583, -0.11026181011444769, -2.361664943993028, 1.351131922232467, 1.5057991735596947], [-1.7008553636241952, 2.2481058160230893, 2.7971882194903794, 2.467494776301959, -0.22825925644329814, -1.143048934668606, -1.7773754585716581, 0.2920623760833865, 1.7080122604072294, -0.6189296641238689, 2.5390819533618325, -1.9033537820502417, -1.6302875322884773, -1.9010248803152097, 0.5813197808564802, 2.154945904916068, -1.5808881544276254, 0.9795348971371355, 1.5352892486181893, 2.530381151612922, 0.6149072296332719, -1.4648061391329463, 0.7655613702318099, -2.2096973894814056, -0.9394984071433824, -2.089125546797877, -0.5816299277394127, 0.753062925130818, -0.9223299592680922, -0.3527921068501436, 2.1363315359513164, 1.3212059774351343], [0.12818768637868894, -1.2958347297402835, 0.8531639202096307, -0.825584079971036, -0.6081825429188716, 0.8450620716367281, -1.5116653193472502, 0.7596536994674695, -0.19970387544063561, 1.2411222777104778, 2.4060883682163023, 1.6664943230108793, -2.0237150654424543, 0.48846452000719254, -3.1564520592636534, 1.3009980439066327, -2.4825024874462933, -2.005184944341502, 0.7994953608929902, 0.7688214023644218, 1.9637619051382766, -1.3593672566413155, 2.0074721218123144, -1.637943349528219, 0.4717170900791139, 0.8876557783635816, -0.5834972605633637, -0.06828251729391244, -2.1064485487594173, -1.6986298484978897, 0.30810182145973164, 1.9471965463590681], [-0.454738838323285, 0.6927685728813647, -0.9757126316415837, -1.025932243124796, -1.4645737587555836, 1.7944325939686552, 0.6740382725853655, 0.7280990326382966, 2.369480399376165, -1.9834651766441151, 1.598133517018994, -0.46686459856112716, 1.8465365748784306, 1.1971281864722778, -0.9497501288690428, 0.17584176284731934, 1.9997649608296553, -1.7800172426956062, -2.5142459624319913, 1.8522520370991464, 1.2940233713900275, -2.4394208596911007, 1.597877122780078, 1.3903839695507947, 1.572501212657238, 1.525037547245172, -1.3272511579578663, 1.8184372366215231, 1.2519230145907918, -1.063637351703766, -1.8554637029719596, -1.2383814613878608], [2.1054625706123833, -2.122675936259804, 1.0051684429676109, 0.6267991583416209, 0.7677224519250608, 0.4810646216779044, 0.8299391419803731, -1.779610690285753, -0.3961177686039308, -0.7696221326522269, -1.1332131621173203, 0.9366347275088732, -1.8960535243434606, -0.8509281260573571, 1.8891201676971126, 1.4307222081397455, -0.5029765556727542, 0.40832477699369885, -2.117160976834996, -0.7961598833921207, -1.0978994567123135, 0.21898135291079723, -0.9241207613868361, -1.5382246962011814, -1.1425740804050344, -1.8500693876433814, -1.058293309257707, 1.579629486058191, -2.318395371745092, -0.6412717925534036, 2.47076085167528, -1.2845231648491897], [-1.9545541537425035, 0.30213269036007595, 2.4800953415598164, -1.454347658867333, -1.4571075283905284, -1.8964518226443732, 1.8267729069355547, 1.696622254003059, -0.41366823033524525, 1.2049177356895915, 1.2623026924923217, 1.8197183973656903, 0.2037940555289688, 2.9611094735111845, 1.2242009740575348, -0.6340638424239967, -0.5839875715469701, 2.236778283504216, 1.0013101438653544, 0.35350470809293677, -2.0708998604140842, -2.063900667479595, 2.9220480653680774, -1.8308915804812882, -0.48792771379912336, -1.136475290721993, -2.5082655645769676, -0.1875164297384273, 1.7831829978987477, -2.674554411902052, 0.2441785865308579, -2.5193997505824877], [-2.5000822537143303, 0.07556606773564734, -2.467198109370948, -1.3382117158021005, 0.1972750928957775, 0.6094167683297936, -0.12468988071371112, 1.1581988348141996, -2.3419501947175925, 1.9248773082157764, -1.6771380151317938, -1.6059160236983008, 0.6984461821014879, -1.003910046303006, 1.687050999103391, -0.6572002316999703, 1.3214484786868663, 1.585989356580849, -1.4368494204642217, -0.8728391805016501, 1.2901837911597673, -2.222287653723489, -0.5422358512132877, 0.4941829739371817, -0.5179569291723234, 1.1786825388807656, 2.115108247955218, -1.5710720355384824, -1.9370011468434634, 0.18744852339626694, 1.992029728668527, 0.8402692507904252], [-0.6236664565688353, 0.023223633091844942, 2.058383450955844, 0.4764090414732458, 0.8559094829119313, 1.3503763402754663, 0.0016931622272247093, 1.8385321506248342, 0.9410174790394324, -1.4935096432932364, 1.0403645706065396, 0.08489490857276283, -2.1452108147658318, -1.3713919066532894, 1.7378187407366, 1.0478409947134342, 1.2922268291527237, -2.3647904907225414, -0.5201286414856752, 2.692502720101065, -1.759883335347003, -1.7225770950076222, -1.6973342166628664, -1.4131029986643298, 1.8363110945451462, 0.8614617910809111, 2.9421583716732793, -1.7934977711853048, 1.5859432649792125, -0.5929315778227031, -1.2909752023106655, 1.3887323531192282], [1.8318964969268596, 1.5245830849540174, 2.4137400647107268, 1.164760803478586, 1.1359493787547996, 0.5967540532623147, -0.3729478649147364, -2.371545688176156, 0.8275350031385036, -2.252159083439408, 0.2208312175020517, -1.483080806876671, 1.6403738419235023, -1.8946730906615035, 0.23302166315223016, 0.6373143084332882, 1.9671398541986322, 1.8970792640783851, -1.7253043992549073, -0.3802462270185709, -1.4016421504754222, 1.6067095029536536, 1.3569759221960223, -2.451070370857404, -2.088463184541483, 2.623842656387557, 0.8619682160017368, 1.4068058480365282, 2.1903852840710862, 0.042192688845974824, -1.5357960333519118, -1.4285158863544334], [-2.5238596185824504, 0.010127338531594754, -2.417687737297044, -0.25735102749290517, 1.4185663537676745, 1.9016304248002516, 2.380085277076275, -1.456162506434893, 1.4215739230889728, 1.3593772415489496, -1.8864338687130173, -2.9544224277352016, -0.6818191384778717, 1.135285453493629, -0.15264648300263461, -1.1630184838614896, 2.2156887360505433, -1.5417110609232756, -3.2195877912232005, -1.193813855724949, 0.7334868698494467, 0.3252331579947655, -1.6390219953431342, 1.981395538031732, 0.3921834758355225, 0.12534834206133494, -2.840969772992299, 2.621424771559129, -2.154013667873449, 0.08627584582579695, -1.1546140621781407, 0.9836950527753032], [-0.6635917010305424, 0.1517616233740655, 0.09293254226393766, 2.1869050741202476, 2.6732482623988507, -0.7983899719714442, -0.24375605323453498, 0.1213826825971851, -0.2895918424131906, -0.3324442994585418, 1.9896639901490563, -0.6041801574050139, -1.1024721112377533, -0.09730762097917456, 1.8350549387677115, 2.22233963248898, -1.1227663757571436, 2.439470547037556, -0.7018141713493736, -2.5864183291938665, -2.2241436837459108, 1.8027212460389932, -2.0729676708126727, 0.22231250600467234, 1.7295598821975928, 1.9502793676430674, -1.837392630759885, -0.00958753672606627, -0.23386085308154558, 0.006326222832830575, 1.6301835686359207, -1.0129469744202895], [1.8564205010403807, -1.4075327887423614, 1.2169491317000216, 2.157381904010212, 1.0211645775461458, 1.7755750810846438, 1.8828521684659858, 0.35364749447912724, -1.4838189857057078, 1.6083084483027088, 2.4079388573115477, 1.8622599130512185, 1.1402249898850791, -1.173521698535736, -1.234258865409662, -1.6636698553374878, 1.430416733701096, 2.344498336707227, 0.35277344030656044, 0.5337724703408637, 2.1028269601245015, -1.5283422405939249, 0.9716132524122678, -1.442276955590081, 2.8671118380225757, 1.6222210609358614, -0.3755953597847649, -1.6014790806756412, 0.9011846168740467, -1.3824690564478994, -0.5666362314461659, 2.513427497345307]], "biases": [[0.27778042032018, -0.2141596288828037, 0.0, 0.0, 0.09531863738110302, -0.031227041618904106, 0.36292446691815616, -0.8788458020472497, -0.1364053525853276, 0.2912446980372534, 0.15248974153894668, -0.3085153965836992, -0.2525516546210944, -0.03110243752384112, 0.0040484254296506705, -0.4616450788449933, 0.43058073134462804, 0.0950012371612966, -0.09502302446466482, 0.029053498798736976, -0.3629856010415279, 0.29367702001576457, 0.013798979330105654, 0.4100112723340442, 0.5217004492495321, 0.0, 0.038230618126139926, -0.18680535308263002, 0.0, 0.08496012278190013, -0.07666984791346865, 0.8179252504215885]], "output": false, "input_size": 54, "neuron_count": 32}, {"weights": [[-1.0393568888991003, 0.8903320856691318, -2.1074276406968138, -1.6641121240148078, -2.598090272420941, -2.0040701045221274, -0.4708221604909816, -0.09418556884515483, 1.793712502296302, 2.5046232212417974, 0.8737321530031122, 2.944479196390188, 1.6286253316160582, -2.706711939368097, 0.40053829260839435, -1.5467037350024067, -1.0435151520350838, 1.2800550428975752, 2.428351782837018, -2.02445108606019, -0.9470059120385834, -1.1948685841000315, 1.2668109294387169, 0.477583343499663, -0.40929475615159505, -1.1705092731451252, 0.6469968519873343, -2.3943735247755877, 1.0944577599866967, 1.155228295400724, 2.6314035669165072, -0.7368521449544814], [-1.9370505662674358, -0.13527818997292707, -0.40537123060132063, 0.5283689092800736, 0.8082428785555326, 0.8253093172379573, 1.510586039125395, -1.15900683181881, -1.731195731489024, -2.3806208353255114, -1.5340735956244123, 3.1915513028271065, 1.659938120742304, 2.5155560990939483, -0.06221997645163302, -1.2439478251973668, -0.5628891310324017, -0.5748571862388093, 0.47352597912493466, -0.9530095119876405, 2.0242761455873217, 1.239709769941436, -0.04352731615068839, 1.8207991716705898, 0.6500475383499166, 1.9147610627044673, 2.0885766525166014, 0.25198070344051116, -1.7740843271882867, -1.7828955461344935, 0.1524841089410779, 0.5849146449941065], [-1.018867988532877, -0.5958154023075524, -1.2407759095766646, 1.925375236256356, 0.6697268293504182, -1.3226430795610984, -0.5491856877997626, -2.798256248407302, -0.3006501801350162, -1.6103843074193813, 0.18564459929792776, -1.790979767872896, -0.6333039395376885, 0.7363900262458667, -1.145719503667364, 2.2922586706890127, -0.5589411961996782, 1.9721249995705423, -2.4605029947907213, -0.29690745389861173, 1.0246053661339427, -1.222737814402334, 0.11432381177417716, -0.5051930891636088, 2.3974793182825764, 0.725373678863856, -2.660471282539263, 2.6065948645307513, 0.04227521204546758, -0.15954181337989193, -2.195383732970475, -0.9539309493198008], [2.4336896987819463, 1.8406308557170967, -2.047088648549004, -0.1632869642491921, 1.0548288870807119, -1.8818970266060524, 2.0961125411946293, 1.3361965524228312, -0.4290686040543481, 2.0620074493056113, -0.4494265172093632, -1.8292540103746178, -3.06870295398903, -0.027613944353653497, 1.1542193923760538, -0.07739125723991036, -0.0075322280641433315, -1.353389345539859, -0.5845398272945165, -1.1138362889765974, 1.0918575585601786, 1.5369840002133963, -0.3524345103689377, -2.3017817678747625, 2.6610110821892183, 1.4458722481536896, 0.08660714953824766, 0.40391253254420945, 1.0306853239115918, -2.006382327120495, -1.4811464470099456, 1.83922474213523], [-2.3699297237003467, -1.9741338506170183, -0.5144423861668629, -0.07049329583034458, 1.2862082667951302, 0.02316480454603087, -0.11570296521975554, -1.587369478725154, -1.124604783191724, -2.3760964126465782, -1.2689782961832976, -0.5366384262920458, -0.929875176309215, 1.5873520327777624, -0.25929565738373683, -0.36188787302762415, 0.275717460780453, 1.2449630273187808, 1.4529177968433964, 1.1403725219413423, 0.3432341098961248, 0.5476303043001391, -0.49240590661701034, 0.5329507460486231, 1.123607063271776, -0.498026653800264, -2.147010980072132, -0.15151243176354645, -1.1047009283642242, 1.15633314974218, -0.5815690354179942, 1.444640725952703], [-2.8559161555071517, -1.4845800062675083, -0.06617144145084364, -1.8455074027631917, -1.4587255587417747, -0.26917599959323724, 2.1362057921496103, 2.1818081956978883, -0.27722160924601236, 0.9769176978428972, 1.4845147782223695, -1.7938308703951527, 1.7604053208952064, -0.9893872649018339, 0.13827014740806465, 1.1436911784886974, -0.5490152279961974, 0.22605662235873858, -1.5621076681079937, 0.4300636157180111, 1.6834410529626003, 1.96223091700401, 1.8886510159889656, 0.762773545511695, 2.0023729218120287, -0.422863364938581, -1.903455523886052, -2.1665387710479465, -1.1467360016345165, -0.6813107026716204, 0.122118329266927, -1.8754476026138762], [0.15429238428531933, -1.431664036896207, -2.3896793121523756, 0.07728518812149954, 1.1854212591627795, -0.609705209925453, -2.159245956956153, 2.2930536079254438, -2.1245282007601043, 2.259969916417793, -0.33852876206765525, -1.5485063251991853, 0.9276862908046964, -0.6618019981011788, -2.3668996253641184, 0.24881130857993317, -0.184186214382714, 2.7616066855056296, 0.29893714388104464, 1.6914417232339463, -2.4608921909703954, -1.8730753875170105, 1.725899381637963, 1.0102505928399301, -1.0873028913071305, -1.5268185305998416, 1.2096257204209615, -0.48627137427108746, 1.4995147456255258, 0.665433144326515, 0.877440459043995, 0.7690031385728473], [0.8865797279052302, 1.6488779568261602, -2.018728577280891, 0.9783348336308944, 2.261976385684987, -0.14559783476666932, 0.4652784266660306, -2.2906596458019597, 2.609537252387917, -0.6989192002467445, 1.4328117173177641, -1.252634241085125, -1.0991909003543991, -1.4954207126205366, 0.4123843865464967, -2.5642636295661436, -2.576957076709931, -2.383947416530763, 3.921479859697504, -1.5316432258819321, -1.4359166288572203, -2.0615218127823405, 0.7886031344252775, 2.574499707493831, -0.6075270956485985, -1.924400047222647, -1.5895959872077863, -0.0014778725256126002, -3.083833058159381, -1.770254041427341, 0.43351026651989555, 2.769790982136176], [-3.147796226562381, 1.6739326702228436, -0.12336368397784392, -1.8668371293351234, 0.9901236493418848, -0.07794652070293062, -1.798611764936283, -1.7577465457422303, -1.1146572161551371, 1.8527742678445271, -2.3984647439735234, 0.3799651293591748, 2.2836686910917536, 1.011085984336043, -0.4047873321399936, -0.5541418609567469, -1.6441044049007936, -2.2665854310770457, 0.028321021633867294, 0.2637275872915642, 1.5754589467100089, -1.6976352669950519, 0.4219858759020878, 0.6820641761960521, 1.663349371054493, -0.9768483570207458, -0.20812842972045997, -0.24037810770536594, 0.4339485375637231, 2.0848162458386303, 0.0028167030008851013, 1.4356435350085817], [0.018412286868452643, 1.837468996129645, 2.2637224585763, -2.313348710126189, 0.53218742786557, 0.059723688535939234, 2.4941374176665407, -1.8550029029797044, 1.8221627142775687, 1.6027630096634304, 0.39977223729497546, -2.1072311414446157, 1.1451455984229293, 1.8395195584444495, 0.43535483390215446, 0.4220745814465321, 0.9062953462671458, -0.7645707718770126, -1.4654958425816962, -1.071581632955585, 0.1779506470602833, -1.2363929093196633, -1.505816300678196, 1.5208951265842052, 3.0614972368401268, 2.1772181072730383, 2.811765166655496, 1.4370080151281674, 0.36366094605863764, 2.9226040145948997, -2.193690916777757, 2.2610415050715904], [0.15063764494757403, 1.05436297193565, 2.0279811237377348, 1.2639069247417078, 2.5470502957729355, 2.065989376368753, 2.046683537052263, 0.6622257585324386, 0.503434772558693, 0.9894936897002422, 0.8796933283705303, 1.5105862643625487, 1.5495536745916891, 0.07862676184706563, 2.5171895855669213, -0.011376572853604161, -0.7239479564119305, -0.8567689623201026, 1.2758024688978602, -1.2657290434790136, -1.1642967521128784, -0.9394601909157583, 1.2658191364404006, -1.1419361760334272, -1.3980871179195653, 0.745650474868159, 1.278666761804637, 1.4954422181461844, 0.8013346580467969, -0.7894091059551555, -2.349354567619344, -0.6508112488170156], [-1.8655495583772996, 1.4060470856110747, -2.2007752550054622, 0.3237500188952438, -1.182315598503278, -0.5635993979845662, -0.9818623440414794, 0.521983323145166, 1.257553992427108, 1.5364568809562091, 1.815008753073216, 1.9032274060014363, 1.9539091375604916, 1.3149680928582574, -0.9979250055995236, 2.5914360420843576, 1.2999971398079815, -0.17809543549748497, 1.076901124149964, 2.052367879978013, -1.554541658946696, -0.8848629149209157, 0.33780073404253264, 0.91252997647428, -2.5048105177883517, -1.6453514990654052, -1.6907920125175715, 2.372814330062189, -2.155235060963375, 0.3958328664294567, 0.5484854731423439, -1.1378772732933173], [1.4961222632777784, -1.5152933475273662, -0.3325072628368567, -1.8824792530438037, -1.3882222634664063, 1.8141993519989423, 0.39021641989941647, 0.8912858485040979, 0.3192736385987315, -0.5620760774638117, -0.34691537189826294, -1.271173240456192, 1.634335285111501, -1.0193471739967077, 1.1633084090663, -1.3604448505077165, 1.3879340444526074, 0.41088999995530573, 0.06555040193753259, -1.3024875711422719, -1.5153031555343763, -1.4916730932329247, 2.6733975128976204, -0.8363615599756415, -0.32336067992205497, -1.773570061661685, -1.5929880476511424, -0.01633743258248277, 1.5503749905483102, 0.8999200980727837, 2.060414926770771, 2.288778310366244], [-1.8776545203728439, 1.8634428734693227, 2.3245120335926877, -1.6572151028302207, -1.7453937194749243, -2.088170328083558, -0.4259715701756773, 2.217452969800953, 2.4067048721760465, 2.5331188573989647, 0.16592247602658483, 2.826346802252048, 0.7025151037685538, 0.18657070013042087, -0.8578806192869155, 2.2383940103481215, -0.3611272358868657, -1.3106372902063934, 1.381071427131826, -0.41823865897219403, 1.2767478014675593, -0.05090086001921024, -1.5509161002309333, 0.10155840087356627, 1.1585321295764737, 0.3426022255283484, -2.42378587273083, -0.07918579060035558, 2.604083323282996, 1.7102159801110672, 1.2194364714370503, 2.0589606077934053], [-0.16811688524996116, 2.2592286976102454, -1.6404461558508703, -1.4065937720967137, 1.1228569717477423, -1.1761427807804952, -1.6511926125793108, -0.09818510785291568, 1.2511448421301443, -0.20986818204152136, -2.216361092820861, 3.065193153201303, 2.136496105852083, -0.4239072135345736, -0.13572312139138976, 2.4402314379978303, -0.7299879102847654, 1.9579521561458448, -0.20200074551030378, 0.3139323899138454, 1.8721088523648668, -1.0348239029511639, -2.1152782263705223, -0.7255657162165926, -1.327682046604129, -1.0179816789036196, 0.6748971502025011, -1.3190441441070662, 1.6810861408469229, -0.236924583435279, -3.3857865399144806, -2.9433833705384096], [1.877165611829853, 1.5435612415342184, -1.362753600448734, 0.31961178032574555, -0.39820606835291195, 1.316865078502278, -1.6993429629065084, -1.7996248596458946, 0.5709379748938566, -0.07599005462898178, -2.668189164669326, -0.9285586851600046, 1.3645651865501933, 1.6950333933479198, -0.348502367055017, 2.423941849521605, 1.004294421732773, -0.5523344255095434, -1.7820399955650323, 1.360060017995071, 1.878022610259881, 2.1791463099388815, -3.028959541632424, 1.6757299767406642, -1.5893454560024236, -1.7968410738690896, -0.17615797483192863, -1.7100118661238117, 1.9591802717600304, 1.9021396287944679, 2.0003000600890584, 0.024497024547236235], [-0.35479194650476986, 0.12223105928736389, -2.3747353214171683, 0.7808666737014965, 1.930108526271614, -0.2488370088838091, -1.3744487653528834, 2.6901548417161734, -0.9018136021070973, -2.4031759186730905, 0.9426779083471089, -2.4380711973704203, -0.8438114975935214, -1.783558060529224, 0.4318064248572919, 0.007308423833065625, -0.41270479588841, 1.8491795388040289, -2.18043865764073, -1.5179914853529022, -2.3799368841854536, 2.1354251607284414, -1.0532258480875387, -0.8273199367051057, -2.2231973074720965, 2.5383736256164595, -2.0321382111435233, -0.18290461060067087, -1.4550057273288814, -3.091123108102905, -1.9460145670095512, -0.9968207949372562], [0.3507769792887899, 1.5261815778943308, -1.7760349250445122, 0.8415860124882173, 1.8402279061077191, -1.9049294894826034, -1.073298683265861, -1.8259265591812168, 1.7120812533194794, 1.0701765400097558, 2.1000957547455643, -0.47617284966743534, 0.39431950978149, 1.656529427791178, -2.8422619365920223, -1.8471843959822047, -1.1076839468621138, -0.042633146787091514, -3.5607356641836576, -0.8939536752491499, -1.9252513222334655, 2.442116436384606, -2.452912869544397, -1.9683600615451917, 1.1209391442081262, -0.8323907262542274, -0.3066416935042937, -1.1108973302899758, -0.23767211906121055, -1.32372480048711, -0.580144921371198, 2.50392455941417], [-2.2296028142582522, -3.3378741718755545, 1.7775169521103282, 0.07096222749763459, 0.7740424016454086, 2.055758709096267, -1.866648255091018, 1.3365185195709728, -0.010579104223668034, 1.0942908375514264, 1.4379743677588217, -2.0995185064917146, 1.5107838902829407, -2.171676654592292, -2.8098587431767026, 0.1755983092736655, 3.261410968706892, -0.767933575838149, -2.4398543238668293, -0.25028066899890156, -2.642636653833148, -1.0237882604350643, 1.9456296875628456, 1.6745639922211768, -0.8556485970216373, 2.3779904219870085, -1.071629677388912, -2.8694886101175774, 0.27456164456750054, 1.5059939388911054, 1.1680820402232721, 1.7446300715425425], [1.5765026033642635, 0.9877428176760993, 0.03912382195384001, -0.3506103702068316, -0.9071969093896934, -1.1229130479093445, 0.5776975211590851, 0.42552849668847403, 2.247651874256179, -0.22184741867714652, 2.659705728856123, -0.6808926305088311, 1.3935530529991913, -2.0727532480145188, -1.8614839730143307, -1.1254755702540769, -1.4447580441164602, -0.37335618238979396, 1.8721161680556913, 1.7038552194358645, 1.5129947161081128, -0.12711213842331814, -0.9933928848825047, -0.8450866061405243, -1.625919943700929, -3.089853368410708, -1.0975476646136049, 0.9526919642033881, -0.8140546510537683, 0.8552701850237554, 2.198235241130671, -0.587314130101565], [-1.4436200201333003, -1.8744365051222034, -1.9772111691107943, -2.2589283776677576, -0.6843518684431522, -2.242475518641466, -0.7737622233885053, -0.6127881945251893, -2.3663601358980073, 2.0951063909740055, 1.7438213829652205, 1.967997708873939, 1.4956201163603984, -2.2683007915888522, -3.361311758572265, -0.01051074280504205, 2.3036766013741308, -1.0427505041968712, 0.4887190664448293, -0.31433759900873237, -0.09473202135881265, -0.38604677145802013, -0.6318963861732779, 2.0367650110099387, -1.0295970740377203, -0.6673403573317008, -0.2275272467994054, -1.4899961723935458, -0.6433511762740081, 0.549847429435556, -0.06841801368825362, -0.4954189151427697], [-1.225707401511014, 2.165652764470879, 1.6395169563766894, 0.7021574596039094, 1.015465538175762, -0.7424478542652688, 1.8189256834805019, 1.5414605826491308, 0.3168568234727317, 0.8216968595898151, -0.24170325663370806, -0.39403577429031555, -0.6801781666197467, -1.1221365116584066, 1.197102855730217, 1.8444948066025129, -0.47260369001006897, 1.097226234510641, -0.9636141855062434, 1.8329618651964419, 0.9117063487845727, -0.27659278791385744, 1.464972991613763, 0.0186229022335046, 1.6790644216480044, 0.5765470147290744, 0.24124118022247842, 1.1890348636956263, 0.7911480670855472, 1.6958210884503897, 0.25457507121623335, 0.152964270087263], [-1.0317557092186407, 2.581699310309655, -0.22224832768308012, 0.6455769921741703, 1.1395068758683071, -1.5274030313901856, 1.896642135766185, 1.9753338921869967, -2.0564520166545917, 2.418816473721836, 1.3962340483496976, -0.12173102635103972, -1.0134465295158064, -0.6433951288679468, 0.5455555719579364, -0.4993901198773577, -2.8038668338392707, -0.6027426244838471, 1.0325753188439322, 0.7540483107067044, 0.16473694969070696, 2.1048095970635385, -0.29354042366523647, 1.0611345121625155, -1.5633019258755452, -0.5135330080273942, -1.5245270361689867, -0.8738945053535462, -1.0903624279066206, -2.127285947197275, -1.751906832497233, 0.34797594910225027], [-2.3689077664081006, 0.13784025159633428, -0.7490299922355085, 0.9949044253042247, 2.179557595714047, 0.6727967327978034, 0.28590655347349403, -1.7605998401649372, 0.4946399113874441, -1.6343211642222033, -1.5017245373533155, 1.0682011917469971, -0.4294261053110243, -0.8539487807820716, -1.6754900431856956, -1.0968907131697474, -0.7112895611157853, -0.5637814158414325, 1.2072337638854977, 2.1719560909350033, 0.6723280792284924, 2.597522354705892, 0.7727706194660796, 1.9587494340617593, 1.884155174001072, 0.9633832210755334, -1.5900307779012064, -2.323912854006932, 2.6853623650485376, 1.8591562599921367, 2.5726098109339457, -2.0929613841579604], [-2.637428221277263, 1.4769986314342658, -0.723460464044212, -1.65510952260941, -1.3715903254203239, 1.4393337913193975, -1.3981178449463412, -0.1055936278367069, 1.1024310742177756, -1.3725342346260927, 2.0436734751882186, -2.452934949330042, -0.45067451073516895, 1.9456348555039233, -0.3759189599106457, 0.04905106920186608, -0.15747748168612763, -2.1829204420875645, -1.3104307491947873, -0.9597196877936783, -0.3998509555917017, -2.4024931599679338, -0.39089899599027667, 0.15971163908739983, -0.6106869019794863, 0.922921665241333, 1.4355511126239668, -0.7687140431410311, 1.1591038841658141, -1.7121806382956277, -2.191998124223096, 0.6277620723509786], [2.0137754599338784, -2.5042505667362214, 1.2179357298033402, -1.3414068611394807, -0.3188450724590445, 0.694010439414201, 0.004630069789391622, -1.2742629278204842, -0.5848596950969221, 2.561901744784145, 0.11859528977525602, 2.574628961969384, 1.956801283741108, -2.4703040694614584, -2.4252828224753653, 1.6510484883520526, -1.019854800146558, 1.9699892016683869, -1.7465250836279758, 1.5383615591269146, -0.7823265274171914, -1.843550278467928, -0.8426759300830937, 0.1711740134693851, 0.709841332494209, 0.8086979734742255, 2.9520133784919804, 1.032193779913908, -0.9791508367696707, -1.0890350405876699, -2.967492140837741, -2.788959044144181], [2.1530714100487116, 2.5497179537293375, 0.6832482593099798, 0.5403573191024491, 2.3384348701865116, -2.4412396571094184, 1.388099015037273, 2.429686994558142, -2.3927649266875117, 0.4823105460706213, 1.9163348009690684, 0.8618827526803862, 0.71651526057385, -1.011085065811446, -1.7246992816321272, -0.8115315871631237, 1.3685735183527206, -2.073944320836756, -1.5424314124920886, -0.4332946710350438, 0.2725218631627966, 1.8956364495514908, 2.6652637430740254, -0.006293093528958904, 1.5960769258131617, -1.7921726988737037, -1.9915617885935852, 2.1976579781181624, -0.07952341768532956, 1.1252249315765706, 1.2369873339813584, -2.2319980114234235], [-1.584099469864038, -2.3678141044879006, -1.1428120068859413, -1.3623966908625165, 0.7137406582354078, 1.489978067877695, 1.4944333849213145, 0.24844905797589667, 0.06891438234150127, -0.22780742574587454, 2.0337418497610917, 0.23267102762906522, 1.9543280287614981, 1.7201965264415127, -1.3019829553552336, -2.2259388290910467, -2.5400048508863566, 1.5579368223984644, -0.04819131567764556, -0.7418735177290533, 2.30543247884638, 0.8866392753735263, 0.47813424924084635, 1.874626385376585, 2.041225510560991, -0.923042425691189, 1.3071874986433574, 1.085668185368713, -1.2820503349304138, -0.4198096722303337, 1.1247151145824814, -0.6294805746486061], [0.4690326600206507, -0.16770606783441178, -0.6252911966511888, -1.1228796798046545, -0.591953524007978, -1.4504070272584388, -0.28848123133138537, 2.3884251132556833, 1.8697392300057398, -1.060887905303899, 3.120099016339093, 1.8566805095495198, 0.16504226702009728, 1.1158753373853683, -0.9624025176777117, -0.7364707912192042, 0.05289110191827395, -1.490188306701489, -2.2841507714421976, -1.0294061655088433, -0.7420613358599116, 2.073903243618949, -2.093074359266303, 1.5547211954419615, 1.951258754137117, -0.8563673853040835, -0.32250765544542137, 0.9135175200412358, 1.7800345644276567, -0.208164997258538, 0.0009256161297340748, -0.5095824125826706], [-1.64724734055077, -1.5121816809155457, 0.705417507337787, 2.481808112656046, -2.2332352297625215, 2.417831385342947, 0.5282638748914414, 1.4189579835661257, -1.2049029991128304, 1.1872765032504082, 0.2134817918795413, 1.9460193406340824, -0.2257346150214714, 0.5323537782597784, -0.482454561890287, -1.9477648296057386, -1.2398118675897378, 2.384159182609583, -0.6518200289413788, -0.7832836170059491, -0.8718049645341686, -0.5463143389650382, -1.462334109560373, 0.10948152187919569, -0.08317823165088212, -0.850968255595375, 1.3324670666151537, -0.3245201732687488, 1.8886006548573158, 0.5636825108540219, 1.5545837072148299, 1.4795381137328656], [1.153119971563076, 1.9703499733253285, -1.1029539329215046, 2.0618678193651796, 2.1085619264077784, -0.15296198276532336, -1.65380232223868, -2.5765339437355586, 1.185577608181363, -0.6946285776122638, -1.0807997614320608, -1.176629593360719, 1.7984672727363797, 0.3695840397436686, -2.467586902946265, -1.8255029739363482, -0.2256007021497335, 0.7782839395702622, 0.1941980755017616, -0.5601298317936787, 2.209655072874881, 2.183112605263023, -1.1009034659491976, -1.665883519553364, 1.4099869515847538, -1.0212306118950791, 1.411558579388587, 1.3636660768075548, -0.378839962422044, 0.1823387689373288, -0.5637083087736986, 1.4291007500343034], [-0.803340358783616, 1.0044769598685392, -0.2021857974896658, 1.1560001635337402, 0.7850067964759898, 1.26468907828994, 2.007066614560791, -1.2320902883551812, 2.672653866429335, -2.584023318499651, -0.6951929788176568, 3.0111499811793085, -0.917969192490512, 1.6721208463198451, 2.0388965784304225, -1.0648721637393623, 1.7780157961561815, 2.1089647724610066, 3.041861663865599, 1.4561633705111543, 1.9317239224180867, 1.8486780627400257, -1.5173164473531617, -1.3733112591206444, 2.5946056389544, 2.479103323406047, 0.745343001196812, -2.391769977864092, -1.1892486828219075, 0.45161669022065876, -0.8095443590236865, 0.9855011512900608]], "biases": [[0.0, 0.10704188583985463, -1.5289923105340804, -0.236282857272353, 0.004674893650084777, -0.207332702337777, 0.0, -0.25902985477014506, 0.43116991138269434, -0.017293630623634648, -0.11209824528896861, -0.28081180780658277, 0.09094643143568648, 0.5339304536637004, -0.42867147298292607, -0.5634416105423656, -0.45397854679730176, -0.1904266758907479, 0.4522970784639473, -0.3682551197755134, 0.10901132364410449, -0.04593535940950999, 0.0, -0.3638134601312013, -0.008290855973050237, -0.33805459199963284, -0.1313000048570453, 0.709026283949384, -0.3498500856430221, -0.375362829298865, 0.1337043054983459, -0.32304356245738985]], "output": false, "input_size": 32, "neuron_count": 32}, {"weights": [[-0.9374896239602181, 1.1960412751899383, -0.7661038322368733, -0.4459951265849209, 2.7709877505101446, 1.5338808240591524, -0.9944226057397109, -2.3510967193264403, -1.0096452013334236], [-0.6396986878209001, -0.6363570151944399, 0.5885290136864892, 0.3464402438407733, 2.006650375918258, -0.4599055605241993, 0.4448149077811874, -0.8366181185033995, 0.3849132682987464], [-0.23827495550851574, -1.277413442284114, 0.43711443275685213, -1.063792688228597, -1.9114453483274665, -0.4193533958959924, 2.4068439798964967, -2.2144501616982426, 0.6843007415807771], [2.3669870439695395, 0.5852999886108075, -0.3565578274861002, 1.124595513977956, -1.2582209066876509, 0.15701969837549767, 0.711756990133857, 1.6708568458252029, 1.9737584099090228], [0.4137706475544658, 1.4689616594892958, 0.5694080230186713, -2.2566250360774567, 2.9201600353460577, 1.4068629889536615, 1.7025843049679246, -2.895338817899835, 2.415567916927615], [-0.7788779724665493, -0.46401301874796164, 2.48991506750874, 0.015215729147224466, -0.3266161680201748, 2.175169103585241, -1.9254203064490183, 0.6668409138491865, 1.9587128168645003], [0.9356620057995527, -0.7619718760498136, 0.1766329537623399, -0.929146664694091, -2.103540994860953, 0.09128046692075764, 1.389815106623268, -1.0792564255154957, -2.067664981500225], [-0.006761519164659169, 0.7037497741635371, -2.144297012461938, -1.7399830234396958, -1.482034712277918, -1.6593246122853043, -2.1386704375887318, -1.6860933198590269, 2.3130989560611908], [-1.325156246334511, -1.3615676842339761, -0.7076608973479468, -1.630875321417299, -2.5308750300847302, 1.7730554801804765, -2.158997268337318, 1.784301357428045, -2.3681892384016736], [1.9633383836457212, -2.072571298648065, 1.7953569211253702, -0.858349729578077, -1.7821493467340073, 0.9406595616670453, -1.4766238322155252, 1.409708418397111, 0.7178610334931735], [-0.7618046063564937, -0.05136206174495883, 2.5808245974198294, -0.8461915966651512, 1.8472995407769284, -1.9910806968389672, 2.2560147151562666, -0.07015593414251908, 0.045102635874897934], [-0.06365804462150393, 0.92745348795546, -1.0942677695707652, -0.9804744806053527, 2.406250570384176, 1.224502538126179, 0.6217185427160369, 1.9705626941391237, -0.6754714659247187], [1.9160923114008035, 0.9347851415691464, 0.5560166243851441, -2.1060882279125197, -0.8662872272143779, 0.43930080893717416, 1.015779206103295, -2.491144679616963, -2.375985736997459], [-2.0203890702930587, 1.9543705254680583, -1.4360697627533265, 1.2248601007098312, 1.412701392536908, 1.6546657683520047, -1.2386965787271875, -2.1316694100732634, 0.1370695286969703], [-1.6777736977251438, -0.42237776148728157, 3.980408479566128, 2.009764284421768, 2.0424507854693337, -1.551597636123887, -1.8080043525654084, -2.413520420493998, 1.7097762301364736], [-1.6562728553904535, -0.35605585658405636, 1.796828590123522, -2.168617512797518, -0.19549400545015416, -1.2623770616908363, -0.4876689374920379, 2.489727484811289, 1.1189966867597674], [-1.1161268006504486, -0.6832216378507922, 0.26342046586655476, 1.5196656430863418, 1.1048589243546858, -0.33198762392521575, 1.980300720224648, -1.1494433573008727, -0.6335202953012226], [-0.33056012286237035, 1.5640851666092774, -0.7163108911734616, 1.7638910145913986, 0.5167732523340897, -2.05350626966897, 1.8231686616251195, -1.6024166190347473, 1.7868697467336672], [-1.5249034437347868, 2.5218229883452414, 1.8749451676018547, -1.2727517527119563, -2.166740610551248, -2.8184847241848736, -0.07589814934990113, -1.4548928180486087, -1.465193245602794], [-1.0813685334339658, 1.2447307675133474, 1.8593064323175683, -2.5861722279512436, 3.0488681021910558, -2.5956510394394994, 0.4078531146661152, -1.2694231590566307, -2.393230177628162], [1.5125940056162892, 1.9552887026066548, 1.628295469781847, -2.3172833639925474, -0.20461526134452535, 0.8814761299532521, 0.4877754644178762, 1.1262068376428482, -0.9183668932273149], [0.5794938082319756, -0.785807811193295, 1.787146699846145, 1.104708969306159, -0.7688447604784961, 2.4149211144774743, -1.900101803098499, 1.6139534532547377, -2.5779803981408658], [1.9067324315061178, -0.14397605963636606, 3.4444775365897256, -1.0253743866290126, 0.3168797977035379, -1.65192567504099, -1.1832526686728952, -1.7576682926519056, -0.9308686800988274], [1.5335166957082915, 1.1205065849616367, -2.178331007869655, 2.1226979574097515, 0.8850036710291329, -2.0771140017620078, 0.6940295957357577, -2.2748217235492687, 0.6197232219245964], [-1.6657196659252094, -0.2839324047790711, -0.1969527124513959, -1.069924492505573, 1.7519736802625125, 1.914511499974964, 1.2322350579483194, 0.6782646864888515, 1.6927440217055862], [0.2813874008594496, 1.990216460344576, -0.7414110333736119, 1.1108284075164818, -1.1673872403385392, 0.6271441631038814, -1.7826468916793745, -1.5135502654595854, 1.7273823568956566], [0.1837831936749288, 1.9485456402203818, -0.920332157163412, -2.048129015976545, -0.08480120229218735, 0.6823880569335521, 1.0623727689529932, 1.2609494275703599, 0.8175529263903858], [-1.5573434178109133, -2.4094589842441927, -0.04784375531226903, -0.6591852203814208, -0.665294937536785, -1.3077273685699486, 1.7053109364370624, 2.7975344060300174, 1.4788242360218007], [1.909178988305697, -2.654849430039337, 1.3765517550634647, 0.7983049113073126, 1.9742779757980433, -0.8392182642798199, 0.7050049451596835, 0.5145339102622658, 0.6940727853758665], [0.7398795356893025, 1.7986574317778503, -1.8570915662200957, -0.9437780879757304, 1.5020997147523678, 0.3762477296372998, -0.5346185793062994, 1.3599083576693678, 2.307367236986377], [2.88564769304806, -2.168201270153356, -0.3385116068969718, -2.571817397382149, -1.222127430305884, 1.9260426352717337, 0.6089026963249204, -0.31764088428588044, 1.5406579310260937], [-1.3585768466888015, -1.480484712951986, 0.6743307643710066, -2.765130191428554, -0.7428461284748605, 0.15652574236083228, -1.2462522559636673, 2.3566962647701675, -1.1896384364345298]], "biases": [[0.0, 0.1529872978296969, 0.04606693765410319, -0.025166275832353424, 0.0, 0.4265993183493014, -0.5472985133104697, 0.4899500063399812, 0.599899461003067]], "output": true, "input_size": 32, "neuron_count": 9}], "shape": [54, 32, 32, 9]}