{"layers": [{"weights": [[-0.01766333535364926, -0.1925887158532389, -0.016913060062062907, -0.1501516616538866, -0.020286619506572824, 0.07423126622328545, -0.055787405350958066, -0.16288199476277349, 0.01647116635276961, -0.05169830523421537, 0.02364142261424565, -0.02780086786155486, -0.10729606319229662, 0.04720095107103598, 0.08042348256809073, -0.03737135854796779, -0.06452572314597337, 0.04809758078496783, -0.006023111929719609, -0.04744919649970502, -0.06014935333723073, 0.03547665685861526, -0.26848425486761995, -0.010958305221112984, -0.18634550618438112, 0.18301310309263433, -0.1208366511810884, 0.05034737547529422, -0.006934698442126123, 0.12869150527203949, -0.07431294973066212, 0.1393109591809498], [0.11085127212258757, -0.012054949571634882, 0.06817023217393965, 0.14373249809296426, 0.12645547936739257, 0.02454793375151111, 0.05429314386793969, -0.01720734260222743, 0.11481340914322438, 0.08719789683390942, 0.06343134181874847, -0.10078382960794947, 0.04828723372476984, -0.126447151112863, 0.07063025647108806, -0.0882450721695196, -0.07991833097316842, 0.10250735822350761, 0.07728875271881537, -0.00196579230807513, 0.17574260923399113, -0.04096238231960693, 0.12159842533225503, 0.2722565182700393, 0.16350042233280865, -0.038485456831513144, 0.04448517659520279, -0.15384942473777202, -0.19292554943340878, 0.14992441809720233, -0.1352751807563883, -0.05399855424617082], [0.11468020258871577, 0.04226342557736608, 0.045360894949513356, -0.1172018908494418, -0.2170329859368109, 0.11861245340913501, -0.08289067197199368, -0.1810428681814108, 0.024470631302240236, -0.051797963105046474, -0.09482226750209727, 0.14119100587051925, -0.011591878346405515, 0.20387976450911288, -0.07156344240457693, 0.2009684783660092, -0.004350725870314534, -0.19348041915359682, -0.022264265053653982, 0.09859473088562416, -0.10545726907937561, -0.07731782162573438, -0.07791490525864257, -0.023824273858994233, 0.032551749377645836, -0.0952329293230658, -0.10109110495917012, 0.03861330363207537, -0.008482222818264839, -0.025401983495718712, -0.08446478758989338, 0.059404726367385134], [0.2502423395762806, -0.07187667981730941, -0.05290812353690534, -0.011891539127646792, 0.04086545194293533, 0.08827103590164502, 0.006804986720153297, -0.22632089944391243, 0.06818063332320072, -0.08752835058429555, -0.09299185626765871, -0.08346669584067043, 0.003437846742198984, -0.05430320079184412, 0.07968071404230656, -0.04814125446252735, -0.1359287838560388, 0.23713722984944896, 0.07381944143633565, -0.30905400557084056, -0.01606602912617205, 0.06868821841542773, 0.042153151565807734, 0.011143089191210195, -0.08884834587518539, -0.02730592928235297, 0.030781218231784757, -0.08863332154909394, -0.050945566348262306, 0.17901083511596258, -0.02415243540243245, -0.13325604636710658], [0.12470526495354413, -0.06978374140147826, -0.18238205034897514, -0.09775495419699379, -0.01728683826994055, 0.13411934856531302, 0.018725361888962636, 0.09337423817261395, 0.0651295617876726, 0.02423382212255394, 0.10582993287350828, -0.08408401804022944, 0.296003530999097, -0.10030693316943831, 0.0880058240820698, 0.001680521280701605, 0.10490219862042947, -0.01486850220335683, 0.03160798299381463, -0.09349566701864907, 0.06535645348666716, 0.015075166568898036, -0.07714766472516557, 0.12362811914859978, -0.227771889269468, 0.0026126370243902642, 0.07969576107823223, -0.05931881987425758, 0.06604218356397626, -0.00047857045100978767, -0.11514476666971117, -0.3416023176984622], [-0.021930867208856293, 0.02480875656608246, 0.045144880497726955, -0.14512101707850406, 0.07308390743787217, 0.06763910786535242, -0.08364863777717271, 0.02301094249657812, 0.014436787147413555, 0.08017574133750834, 0.09002886759068646, 0.18116984524004037, -0.14109498262369885, 0.17315658691044955, 0.0027266944331177764, 5.015625076747442e-05, 0.02278303636047402, -0.007261550218584066, -0.1232352996816879, -0.05337194103505847, 0.04441604214612625, 0.03202305342340918, -0.06927108451130151, 0.029191764402080874, -0.11200519317284124, -0.03908677503605999, -0.04546559159608975, -0.017378847409835897, -0.0056953522311888865, 0.20839590789622786, -0.08461849170317451, -0.1956223691278141], [0.0960437955877475, -0.2496214173363681, -0.056167883880822694, 0.05210992198211976, -0.14252436015871137, 0.04686971853995833, 0.035534280201265186, 0.050490023925299235, 0.04175198173140429, -0.006879615820315838, -0.2502706760698852, -0.030910725820605035, -0.010320902876865977, -0.1271122143388808, -0.018142348237448737, -0.03130261670821507, 0.14473846804169357, -0.01564937049393605, 0.18092126566195899, -0.04812508828781453, 0.09980622567856647, 0.04271757642574897, 0.35515909516546845, -0.15404677092672803, 0.013668866712851065, 0.09965308698324676, 0.04807532323838314, -0.09920969202288243, 0.06927104457592641, -0.028383791278999856, -0.007852603913132215, -0.0843433542399855], [-0.048665779983126316, -0.0707297722445161, -0.06310417656411015, 0.007190109643966221, 0.11253510969906222, 0.2509003080330108, 0.10741664656114765, 0.11986583256623369, 0.0042386873915718085, 0.1177100749656602, 0.033875978369947345, 0.021206109652958317, 0.0008938716597971764, 0.15178170969145893, -0.12122477518867161, 0.11951065512034682, -0.03487806544432156, -0.0515024817749111, 0.11448646066171178, -0.16161799180198916, 0.19070283826704157, 0.19842698880842946, 0.075111533006826, 0.07009780251801905, 0.048203012110532004, 0.0691814866468871, -0.11276749183346067, 0.003213984636478274, 0.16503821286090514, -0.03246850110597386, 0.12092536003938939, -0.12428819317236627], [0.02641751518676369, 0.04203371315254309, 0.026502069024839755, -0.09095781489914048, -0.16288032422792711, 0.043708592099110224, -0.11721222564416545, 0.0736355186048173, -0.004548482926013052, 0.05837984237649349, 0.017446421293070533, -0.19097788150739084, -0.09802212943237311, -0.06554454841422523, -0.00801151600574281, -0.14697423855389133, 0.03829321198601045, 0.006592568967326622, 0.001483866193262077, -0.08301201255405688, 0.09501441569127639, -0.010692514597718358, 0.1457787858246052, -0.05352059033139023, -0.06822233915347635, -0.04607294670274048, -0.14797600733686075, 0.02836214005102732, 0.08143403121925336, 0.10009866183928727, -0.07440780565139081, -0.13754008082053867], [-0.0230528040722019, -0.0863696981848282, -0.11196364199983616, 0.06624997871735552, 0.22578799057577845, -0.03466578827943003, 0.08721810073941771, 0.06772940997532649, -0.13404594918503868, 0.14166248606456797, -0.07199805031403972, -0.09463173212420325, -0.04742160483783067, -0.069926678315709, 0.05229090491649603, 0.1677566945551071, 0.11646446839741897, 0.034113142291402214, 0.028910450027136537, -0.07159929626745669, 0.01183310171964913, 0.07231161413443694, -0.1555606265762587, -0.01939352379006788, -0.18155882010721003, 0.22290731484689785, -0.06958499246697096, -0.043415481612448376, -0.061894495791986165, 0.03229585169973719, 0.030025820049080155, -0.08648411877541501], [-0.07425309653136668, -0.07262462099078197, -0.08198577874733666, 0.10575496863544649, -0.007061845117011342, -0.0099139904383765, -0.20920501714916695, -0.004348845799676134, -0.06815718087644072, -0.012439742827659153, 0.07628355345714312, 0.20152586349595106, 0.06397478178118442, 0.01954609498156806, 0.0904130771365496, -0.09553739342658835, -0.10739349564359874, -0.07840912009795425, -0.035969658299566866, -0.04231729228612121, -0.15099793238712708, 0.06551234982745797, 0.03146716595934696, 0.0031172265860770158, -0.12084853170508564, -0.059985444175689934, -0.061473651967185176, -0.135971346953802, -0.12688140218139696, 0.06278718834336687, -0.05225881350815072, -0.057579160689964784], [-0.00012347291702977285, 0.1060981829592562, 0.03297034858641145, -0.06267550189831628, -0.08673709231212794, -0.11600457569106233, 0.013764209478234002, -0.10193275211665909, 0.08332597301694761, -0.011037321083858442, -0.07562199343638294, -0.024280894794055412, -0.06267393290871841, 0.00932932440740877, 0.12135460231728745, -0.1673083603263329, -0.13159467825016632, 0.0935023499693381, -0.1672238644661824, -0.08513940705458356, -0.045550144935607724, 0.07869080308913268, -0.05801642837256604, -0.05076661539467269, 0.0839009777852693, 0.07270915999252918, 0.12138991116968688, -0.039450898814797686, 0.03954902946682785, -0.023181719197189345, -0.08538206093477212, 0.08872106843112432], [0.031052957193192145, -0.3806823282763824, -0.05047927549921697, -0.04615487811749344, 0.08911205134539943, -0.07489332695076172, 0.13567491895666392, -0.12287055876819131, 0.11164948236704844, -0.060643796113322136, 0.009914704519407527, 0.0547950277485578, 0.027137445130632844, 0.07204730385333048, 0.01411284758484473, 0.0779503232534086, 0.045909862908033276, -0.08452393187884413, 0.2044776982664816, -0.11626332752591997, -0.0628849879899467, -0.007262831005153918, 0.1216349043499025, -0.048719707598113726, 0.024563615272228872, -0.03927895416052438, -0.21755327429194, 0.13584018483477206, -0.0008411755233046583, -0.1375892782299603, 0.12425638198047435, -0.08110356364371807], [-0.020924733878170385, 0.021133110125796585, -0.058864139373029846, 0.023975017671227703, 0.02531357261344748, -0.11018886592913145, 0.039354799373597656, -0.06707489633798067, -0.09807349652366926, -0.07981354408104457, 0.05780135124713092, -0.07829936950227862, -0.08057992688099093, -0.022047164572312903, -0.12226312893948743, -0.15090785995551267, -0.050985490315991235, 0.07072980908909657, -0.022378953960675265, 0.0811199497713966, 0.03097827922914998, -0.10780156929364229, -0.1841168640204429, -0.13275060868531455, -0.1109006106257227, 0.01923187411552876, -0.05467664070243462, 0.08769561108447557, 0.02431178043701511, 0.005303528070213662, 0.04816628800670901, -0.01686874741826187], [-0.13162834227823297, -0.024984244306852584, 0.0006101416612803596, -0.04377439041376174, -0.13671188485544994, -0.10237560543534895, 0.17745302520099981, 0.15198916029940865, 0.015115477042672533, -0.21591353807703353, -0.026600517546260218, -0.04990660895914503, -0.011606876404355738, 0.09316902178463295, 0.10507039884558667, -0.029464363991622645, -0.07146101526950675, -0.05878601890926269, 0.004074167452123261, -0.017029938750629716, -0.06960068893964483, 0.04414989304859565, 0.01786427405366393, -0.11795728638175887, 0.28237659020567646, 0.07499083748775753, 0.0929421865033719, -0.011446060175694191, 0.08396927256506971, -0.07835729861808532, 0.14758065915170193, -0.0954957728907631], [-0.15962273772359178, 0.051799323914358354, 0.042513925296964454, 0.1114699177423185, -0.018580175767714435, -0.024157743252472767, -0.06588869474667496, -0.06171201056931186, -0.04404781156552421, -0.07449142717060771, -0.006270395528637344, -0.05807324558074914, -0.4021928754814836, -0.02969538860338914, 0.0449249604032358, -0.013449725234137106, 0.03310325101244519, -0.03165083725115377, 0.19593671026569984, 0.22139113290563128, 0.24125033897900378, -0.02686220732535376, 0.06654888640631428, -0.04479669549594731, -0.06351405045530142, -0.01617193549538408, -0.030273413732747306, 0.0272910623004406, 0.09213283843236107, 0.2001027267014334, -0.09351547860735933, 0.09925140609144611], [0.029990153567776724, -0.018953127197652905, 0.013780036356061232, 0.1450512139332411, 0.3395892825831751, -0.20239798752041943, -0.03840445201047693, 0.13594476706820113, -0.1159087898885318, -0.029277351389606354, -0.10940819036693826, 0.10589313946761246, 0.09581096213237517, 0.17660498384156653, 0.13444779327237358, -0.14479597653415618, 0.15128637216472451, -0.02749426640398127, 0.008967869543236874, 0.018355426225340636, 0.16937788223241687, -0.1642808474143176, -0.060972623628419514, -0.11172992860981264, 0.2188380579809516, 0.0998235275025232, 0.09570577778582623, -0.017971176268916676, 0.1502248264919579, -0.1315575129391354, 0.11801200473851306, 0.05192858691729642], [0.13036162042406954, -0.06317061491198432, 0.015316440977469915, -0.13172697353768284, 0.18164849599355493, -0.08821050030004665, 0.04057976195695935, -0.025665315738579993, -0.10213005515739018, 0.06253351258660977, -0.026165457082034667, -0.053814878030053526, -0.025722781015986435, -0.07785595618906337, 0.02286653809164087, 0.11248564482391195, -0.047687273431074484, 0.0940198070073224, 0.028392920117263507, 0.0367716347239045, -0.14730254829718004, -0.0472973114608206, -0.1698628213623459, -0.057600032500873366, 0.12416293668391372, -0.03401753703177425, -0.033283587623253244, -0.22379010275220718, 0.06898631489384573, -0.16667253075648247, -0.0036182240858120863, -0.23003939400580614], [0.10302888850167823, 0.055185682193955456, 0.03359855399206044, 0.005505651518288506, -0.07801548864548151, 0.04654577385923271, 0.025149425244723096, -0.07146911939217042, -0.016839037288645022, 0.16482423854352082, 0.03630981444291109, 0.04090249466953824, 0.028696179149772485, 0.02485549549091358, -0.14903015135451975, -0.044043550336566734, -0.17833246156306726, -0.08809746516803381, -0.06818513693765003, -0.049658435356601346, 0.1516644781919535, 0.027473557781996505, -0.03044773335852137, -0.02540250294087312, -0.00899216614218725, -0.026521329459774104, -0.13644454889132648, 0.039124810373192175, 0.01044115624007099, -0.12859624003615253, 0.052616635428654274, -0.07953814774624128], [-0.10517652053870868, 0.04221030509178161, -0.07380190384981844, 0.12297594702977398, 0.12263507121897171, 0.08285152009941524, 0.0960552611918625, -0.07995723032289272, -0.1149371274333812, -0.08900447918111205, -0.14711108775544698, -0.04286685974833662, -0.0012203283034457361, 0.0054262888301765105, 0.05674906314541217, -0.17548851884280048, -0.07410201631086627, 0.1271409833289668, 0.21892097839425997, 0.1355942241026827, -0.05314278575745928, -0.05841791905997523, -0.03787046713816337, -0.029499257582639295, 0.15134141165778026, -0.16014337800169076, 0.010563058316935284, 0.016666308311675232, 0.19273045851977874, -0.10934518922989067, -0.05174957495002831, 0.0011419193404384217], [0.01643181915838241, 0.06116674968098998, 0.10103338667552866, -0.14733558651996737, -0.16230876743640577, -0.0004984024013933651, 0.15666578439385492, 0.06169449903422317, -0.0599252934084899, 0.1243683959008042, 0.07201155770452076, 0.041714322528275505, -0.2369910176297219, 0.11324917361820837, -0.12148174648160757, 0.0016081730050810242, -0.0322766371810397, 0.034383333071070395, -0.14238768277497935, -0.0796056831366285, 0.02460724201338209, -0.13692065621322064, -0.034124694197545546, -0.09565812360027842, -0.03528929444787728, 0.04893640070776436, 0.0016320958025593621, 0.028869628180208218, 0.008952598001723279, 0.14501097488950954, -0.015579068892505106, 0.008947579203985059], [0.03248787321617308, 0.05753699206565341, -0.05302199957531593, -0.11706500323686264, -0.023654552905369736, 0.1236779568260372, 0.2315594482251756, -0.014887233423423789, 0.14459159908675018, -0.026127763072235667, 0.12884291778331336, 0.1163605499437726, -0.004825926419476954, -0.00501084075387414, -0.01292577827442375, -0.04606515710936184, -0.058533622510742706, -0.08443076607487286, -0.23450533334404883, 0.012054986052814085, -0.06381981341338921, -0.045244664804831185, -0.03536763662284847, -0.10926075472097607, 0.10363837330870174, 0.09315752288188972, -0.08365791965476936, -0.0734800821718092, -0.009110288066862685, 0.09278543230939527, 0.12198879310437044, -0.06907164524412536], [0.014447522764402934, 0.14997686652867473, -0.02144499430611139, 0.045865152105131014, -0.08868599464149071, -0.06481396859316171, -0.1859898807888637, -0.09854489296902089, 0.2784934024205911, -0.011017938362082275, -0.08498460722145151, 0.05500600026429651, -0.1804918168452851, 0.11459838893699843, 0.021655058540230115, 0.09336457817829408, 0.16538970287718646, -0.04287954114405343, 0.03590797621876447, -0.11339296247735911, -0.20340530783182867, -0.13710569969067993, 0.17052781331717695, -0.01837273350431811, -0.034926392556082174, -0.009040803703342334, -0.006976848481292249, -0.011199334393504538, -0.09951332218809583, 0.028094403897684306, -0.0269682997504302, -0.034976931452266775], [0.11168093618155742, 0.0494956860212431, -0.17838855719956356, 0.04684448686717324, -0.07849602787296914, -0.004161727976353365, 0.1286919909304118, 0.009906481609717318, 0.2605678324557026, 0.08727223223308599, -0.07561379938964131, -0.08405529254586461, -0.03142661016236268, 0.03850942758452633, -0.2893769608740406, 0.0818609956750847, 0.10282005776696133, 0.14354620500020504, -0.04393418789326553, -0.1007749363783171, 0.07878366378048571, 0.14563112660713382, 0.08338031026752617, 0.07048409316472751, 0.05700333685136231, 0.10124247148978889, 0.08585105812816873, -0.10314579624529269, -0.08344274905242036, -0.16082390465202037, 0.10182357811625398, 0.06629013788879619], [-0.07902777660007347, -0.14932028735131114, 0.08151649145936181, 0.3443916539317643, 0.02375302899518522, -0.015753937328215877, 0.04986223798131437, 0.18553264867548502, -0.13816606140049653, 0.03466511127121678, 0.03952337501828466, -0.22905803469479832, 0.023381208100776634, 0.059417063493684676, -0.03385364366002473, 0.09173686661983399, -0.05666876735748797, 0.19473772781911092, -0.07275895165334427, 0.22745390729936746, 0.03657199387761966, -0.11529350092757128, -0.1622247464502448, -0.02004436107530562, -0.003809014717069676, -0.04336678359886715, 0.19869950818395143, 0.09032607222037133, 0.10305311641502851, -0.018365317017240573, 0.014293659169941426, -0.1739676578361396], [-0.029057893618369975, 0.10120749187817304, 0.06766108141039512, -0.019777048588720255, -0.07956446111365141, -0.12547024503678472, 0.14661154945300814, 0.09185929544257332, -0.07436877037059615, 0.10499038560288412, 0.05731289565296163, 0.1083022603054157, 0.008653992236390382, 0.11339466665451599, -0.08304055569336292, -0.22025983966971446, 0.16220871889593322, -0.2038811350616419, -0.02326215394621566, -0.09394549815594434, -0.022668176828566037, 0.08844345052105801, 0.0026341122326888904, -0.21608905394873146, -0.0514362925832256, 0.053770187363524416, -0.13060487845881105, 0.04693325751915454, -0.07622565526832875, 0.07205568899442047, 0.10867880354872601, -0.0952248291445705], [0.10680995640908582, -0.16106218086311377, -0.0734996822947213, -0.06953863667990398, 0.0990393767816349, -0.1248572478380407, 0.12030542895494525, -0.11832441294243734, 0.07977584235161997, 0.02829294742667142, -0.07706326887406112, 0.08058290554566594, 0.11349554413636659, 0.04934750173742669, -0.07855217924186786, -0.1212185595706818, 0.01169682023229017, -0.13220143940464033, -0.07519652522417765, 0.13551960808916158, 0.17208251210995504, -0.014627286529490092, -0.07747384973324928, -0.24148474745970777, 0.017184257820497793, -0.0205307924627738, -0.019130568246462025, 0.21292960506471995, -0.016789529134727536, -0.0037547344081123287, -0.09569704546615501, 0.10889728399846539], [0.3197817743573177, -0.01418671859684561, 0.05530581934824446, 0.047828397094379485, -0.08026357581705433, -0.10204525192237437, 0.028180331030075736, 0.09160344544559341, 0.16947552490211187, -0.05915532675353812, 0.08607655635249703, 0.013220296001711691, -0.13149509049897187, 0.09235776015146914, -0.011907955756285445, -0.13459598658314, 0.03405932077095497, 0.15804965026093343, -0.12324617196960293, -0.0700762479605039, -0.08290909581468796, -0.1855025104900201, 0.12514353693854913, 0.0027923744334253445, -0.15345424969302032, 0.11452982360560165, 0.03779290326747573, 0.05937425529165788, 0.0628576726943013, 0.034836742936462654, -0.004651781394559193, -0.007479962105476173], [-0.15377902646273006, -0.022354453614308614, -0.04128735310243975, 0.0020478794803336846, -0.16414595595522075, 0.20088444989866228, 0.016144231291682822, 0.0821516287323219, -0.016792244413050276, -0.10903387170245314, 0.045793719629807, 0.15668568635803992, -0.09468825621532866, 0.08718116234598053, -0.08890504270724536, -0.06260099316546854, -0.024579596609194915, 0.07080519929099809, -0.12310352112555481, 0.011414189371551045, -0.08588846036425088, -0.06708289384168302, 0.03449583167513387, 0.07413394859103482, -0.00444656278098623, -0.024031073100657805, -0.001230411917467273, 0.01997689577617706, 0.023734802976239828, -0.19901720712246565, 0.01995406822883455, -0.11338750656899355], [-0.004410950219744654, 0.025549064297438737, 0.13005665932267935, 0.038533579277858145, 0.0455742483672341, -0.1128638799761632, -0.13086079651385293, -0.27200761419967023, 0.11735748380211049, -0.09835986444043493, -0.09360600442874521, -0.02780172712354073, 0.06547169646693579, -0.05321474992100054, 0.0434489518572345, -0.011136642492563381, -0.0634279584125964, 0.12475450836694416, -0.01613158355383019, 0.13759584796146795, 0.03248114917871661, -0.29268436957725835, -0.06276899084091946, 0.03671875650301188, -0.1524014348081359, -0.07562189483351091, -0.020000775142018024, 0.018945336253385854, 0.02882409382300651, -0.19051529355416286, 0.03562230223061055, -0.11661901795476248], [-0.11712768816388447, -0.08620036464936091, 0.005222454416316176, 0.021027084384959982, -0.1368882999749311, 0.04218031011795151, 0.003766998710419382, 0.1826664367478842, -0.06625138082504191, 0.03005899152202145, -0.08332558708373791, -0.05602675379700966, 0.09967954100679817, 0.05432104086763593, -0.16982409427687373, 0.09976661796792696, -0.008962589611509059, -0.1201786897206906, 0.021938388395941956, 0.05715081756622279, -0.021364431378365602, 0.014329671112626516, 0.19515434406066515, -0.09376911205911938, 0.20710021488309144, -0.10215699964186353, -0.007616580760355801, 0.12998898607937162, -0.05133630260505861, 0.13278787957315183, -0.15728463869735312, 0.05838939529058791], [-0.03773592531231508, -0.05210129997426519, -0.0639684643408396, -0.10596076937243369, 0.030650464400904215, 0.0820373760249121, -0.0021913724474678827, -0.0953580730169487, -0.083393847607824, 0.0577094161401997, -0.07923395630786584, 0.004899421335617797, 0.06482514157035921, 0.023144216710269797, 0.07945647867216263, -0.0191808303154661, 0.019337937855301194, 0.13030280545590095, 0.06418445893456813, -0.06782728998438851, 0.05390164657818918, 0.01453089212782777, -0.0702852356958651, 0.028505779931892735, 0.016581098597763154, 0.031569592628567796, -0.14078989541458592, -0.10078991710826879, -0.1329133173019671, -0.12249367823975549, 0.05597004965982896, -0.08212963116729445], [0.09057657248748491, -0.11301829099920808, 0.02640763743364788, -0.12119649437538145, 0.06123514131333927, 0.02976029794874482, -0.11603034579235572, -0.13121631205716788, -0.18488004684855947, -0.0008114878312745901, 0.05180560767552309, -0.12225362696495419, 0.04906480672306571, -0.08817817345741041, -0.2911758019487977, 0.027787792625719135, 0.051282757755585745, -0.018376281550546835, -0.08582313618127585, 0.05614100789683707, -0.07802440603792621, -0.0671798704637474, 0.09682708712793558, -0.17256067714928192, -0.042021469871600395, -0.0375456515559668, -0.2266334463852267, 0.026067390442596778, -0.17606618185564307, 0.045575663008253595, -0.014982757784188568, -0.12838779017918092], [0.02417998514830212, 0.07274576139570692, 0.02585523050537234, -0.14799005650176864, 0.02891827723647766, -0.15853826437907598, -0.028514466779547776, 0.22271219517970514, -0.27430865788929876, 0.013785973864646792, -0.025815135380968537, -0.0824028539456737, -0.07585980811827381, -0.012479886217769172, -0.012102601044556452, 0.08631601834218923, -0.06271687774318611, 0.010517542843965569, -0.041113030625222646, 0.0627456371555938, 0.05021978937072147, 0.10499053698634096, 0.1516483135952101, -0.09091188433648523, 0.11646962782537046, -0.07337449374616785, 0.13023838935208806, 0.002047346839055202, -0.0994765686619076, 0.0930488372330109, 0.07310882784036461, 0.12065696898499684], [-0.015913917757385754, -0.027333903774855606, -0.0865881204961541, 0.05155782434176834, 0.14024398566037966, 0.06518439683214926, -0.17031728969737908, 0.04933784550467507, -0.15941816554343385, 0.08559679398511136, -0.028253373091355078, 0.010479791582101845, 0.0630933693493385, 0.00686366869560864, -0.09597330317638193, 0.028683339070269754, -0.009652177491121398, 0.107562277362777, -0.07338521906982202, -0.08937025964570218, 0.05372171515865816, -0.19343968041934753, 0.010697503687826517, 0.06089132058788102, -0.05609637694831021, 0.03509697679113239, -0.1490200817355702, -0.11171298101730094, -0.06602092712694864, -0.04635528248142417, -0.006170983168639778, -0.03504337885726379], [0.0734603104715167, 0.04194520227975279, 0.04464881920733926, 0.09071553984139802, 0.07482100373983222, -0.09974642307114352, -0.040485033058643594, -0.05370685031479599, -0.15807765846795305, 0.1676295776757509, -0.003914798313430335, 0.06079036960289724, 0.0579030913956338, 0.195988965078037, 0.1800517240100139, -0.05900513043543616, 0.010777300575085212, -0.15315127247657395, -0.0011169192390631632, -0.07103644588579744, -0.1144407368796435, 0.15433601767936847, -0.0020314845492957743, -0.07376208004806938, 0.07516108653514988, -0.06306160721352476, 0.08894928625968955, 0.03480752678039769, -0.00879900760840816, -0.05594540261949424, -0.07453188141601584, -0.015279029259852035], [0.014708682890125014, -0.08958330080176587, -0.007639230321888582, -0.019522134729603374, -0.10121377631203166, -0.07709777260250904, -0.056348427791910655, -0.17172014902759, 0.18235088068380875, -0.08551432741013665, 0.05784043851144351, 0.005009524265354741, -0.035564795054297285, -0.06294687479543346, 0.11405212649942459, 0.023066647615621837, -0.10185411517820508, 0.09541218746902497, 0.048145741676912074, -0.14619796633993024, -0.07013396335785681, -0.14812660542382242, 0.08370763159598478, 0.1954014171516426, -0.019350661519390536, 0.021310522411328026, 0.10386529473281442, 0.08553184973442425, -0.18406006920714496, 0.006976077836740433, 0.16831674443392253, -0.03205865732198717], [0.003384642133635811, -0.08546037085393943, 0.0493989971673837, 0.07140437753606425, 0.0001988498749402534, 0.08401132661301, -0.007040434505076342, -0.0538843629695716, 0.028951886956981573, 0.05107686049870866, -0.09074357203768364, 0.08822210670344878, -0.230742703262644, -0.10040402511748879, -0.11953337529908928, -0.0164685142105104, 0.00677215597813835, -0.14211850128254405, -0.04528101142509738, -0.08022285096541594, 0.045455009679938124, 0.1324478932283624, 0.05497372068729533, 0.07096391807851676, -0.0484642558239978, -0.026392060581543048, 0.04525357662713562, -0.04481158909089812, 0.09169467339653578, -0.05771529815047802, 0.15834511209931953, 0.005949495528039273], [0.17528731979673387, 0.0017310692111818524, 0.02878220635029548, 0.011810880113895821, -0.16168676048536662, 0.09790169003199423, 0.16403043537503886, 0.09187843667546652, 0.027079936886147057, -0.09084307187473308, -0.12092796300088392, -0.05782066366571569, -0.011323503310421708, 0.044436532414319274, -0.09610136886057064, 0.07221308878497625, 0.0453306894679949, 0.004302859080933062, 0.23549931727792559, -0.003462173041950829, 0.13193886430828616, 0.09351923650734636, -0.23198917976895533, 0.015445648541422816, -0.18361593575690865, 0.00495745295407489, 0.014737608776809151, -0.024312277856273656, 0.08738237229415415, 0.20464039011939486, 0.03528998417440201, 0.07224268658629114], [-0.12033607041147572, 0.005151779066191672, 0.07093860304539963, 0.02049817924691752, 0.015245349766896467, -0.03644127287412576, 0.03180368172661814, -0.09193690025989677, -0.06527098396715869, -0.03891192658030976, -0.14115301594986127, -0.016540203136412312, -0.1295184671767025, 0.032579890576810266, -0.04691627349810409, 0.03103107842457742, -0.13672210162647533, -0.025456393894271262, -0.0004960213134770356, 0.06818008867307168, -0.09551101680993888, -0.028204879668372665, -0.012188062942033125, -0.06839987841658908, -0.22206879924503733, -0.03436969225372186, -0.029334942217661565, 0.0497509866773916, 0.22439021788127578, -0.1142899944537714, 0.07408881942520633, -0.11090296143653547], [0.08710032978798937, 0.010834787113057113, 0.02347276970770147, -0.0792246793529935, -0.11978705659779065, 0.02858667686163794, 0.07794157345871916, 0.08850163089350645, -0.102202617450991, 0.06891681272528302, 0.09849309882693552, -0.061153870088431164, 0.08243643662145633, -0.14430845959074376, -0.23446937224267314, -0.07418910107039864, -0.08527458769610435, 0.098599165251817, -0.18568701335089954, 0.009890637332543445, -0.037144034437763526, -0.01274811512230524, 0.1356872043681831, -0.0002100883113792585, -0.027862016677638574, 0.1995880812420025, -0.025675603950790896, -0.23595116138885497, 0.15895609651633866, 0.03294167813806106, -0.02265889026495739, -0.07367897897964172], [0.057547403317528126, -0.24001444732083363, -0.10244827455493277, -0.2940964381323633, -0.19587100377019703, -0.003464545621775, 0.029659416058012335, 0.2287379126319909, -0.00666820750620842, -0.07742875711068593, 0.026982847564141002, -0.04894988347911422, -0.015040564518395928, 0.12638609268952303, -0.17827172284224774, 0.15349141271209288, -0.033077218142254644, 0.13831026829068874, 0.06075276717447922, -0.07699577844287603, 0.12438512962809554, 0.08529667129457913, -0.03582597901068094, 0.07273427163098038, -0.046225224614194704, 0.10562478054767699, 0.05663825619383677, -0.11659508069628924, 0.09497650929781686, -0.014039662009330909, -0.06673205511020286, 0.0986614872626737], [-0.01963944378693307, -0.01753175266986392, 0.004725549782762206, 0.1340883021788757, -0.014474409686798098, 0.03943155535187622, 0.11220453062974059, -0.029581475905632842, -0.03616217581476638, -0.08606226010753168, -0.20072994516761417, 0.1930971127160737, -0.00487452329357747, 0.1416264864820765, -0.015798442947319757, -0.01927615571486274, 0.08141746386382588, -0.057322558140419935, 0.0730841096986596, -0.06408564225589285, -0.07231916931528702, -0.034981868250266335, -0.1466741781413243, -0.1344447502913293, -0.05679788034766162, 0.16413136904330497, 0.030224537731878644, 0.03497822210391668, 0.1147282936529251, 0.10212872202302324, -0.03358296842016937, 0.030527505530766788], [-0.049338849644660926, -0.018627670059264984, 0.08595749656521176, -0.031904028708957255, 0.028225840002120174, -0.002860725292376392, 0.16266824847483002, -0.10289190862932292, -0.0975121501313837, -0.050165239539003204, -0.07638367215941991, 0.1046100905863323, -0.15895935278599846, 0.13890731696110592, 0.1453127084224873, -0.0866138014784795, 0.1962960201414281, 0.004144764799735876, 0.08904657895020604, -0.06868502310387073, 0.09619630329971773, -0.11517946201797412, -0.1514566418141865, 0.23671250366459515, -0.0852122927470138, -0.01564213652562438, -0.015734816149928905, -0.02505978788298471, -0.13222775483565918, -0.16307051494278066, 0.02913581029595433, 0.1335026182986425], [-0.029913086844448017, 0.03063603832809622, 0.1289256690001562, -0.042516929280429334, 0.11748266210946555, -0.014215452355241132, -0.23808535331447592, -0.09704540468556253, 0.07765905396878427, 0.01927010642044502, -0.03915324236616733, -0.0766103318413634, -0.05635258150718763, -0.08560791245483837, -0.023305681013417255, 0.05676594035106526, 0.0107569521154054, 0.2845299084687869, -0.07273055917425526, -0.019787490416087867, 0.17682779414840433, -0.2141860923140667, -0.10330734606463808, 0.03199615010274726, -0.17410027858550392, -0.055447191761317974, -0.1833461090989957, -0.10133068297379172, 0.16415226309560452, -0.06787157390086566, -0.03598916680972224, 0.007733062042667333], [0.07803988798684153, 0.03305781227528652, -0.10978731901819282, -0.011140048305573413, 0.1553819266380562, 0.08994733210790705, -0.21266588704428346, 0.16166611711095838, 0.1524506151935449, -0.18675820537976276, 0.05893679185112284, -0.09499719913902109, 0.006218273774398276, -0.17886249478950678, 0.159640138240439, 0.0589960903914786, 0.01333076251639481, 0.16492716133038218, -0.01510243833869718, 0.006993808820512676, 0.027777030385579382, 0.015229083323109108, 0.006004391214191365, -0.11224400758936924, -0.03878459461471505, -0.01679808996500406, 0.01715080172803301, 0.11239572435519758, -0.11182345899906357, -0.12767956870930702, -0.26713941764569293, 0.17762130459114528], [0.12162038706334684, -0.030084856813116234, -0.2167967497240674, -0.08016991657402059, -0.1441673637662108, 0.04042941822221581, -0.07935544618917635, -0.004662285572897406, 0.11781111091087514, 0.1697931539670583, 0.044227825336491354, -0.06246684801728319, 0.055215651199617556, -0.12685738985754752, 0.05769785449048423, 0.06516167729463535, 0.14210929387496976, 0.0774157119804349, -0.09627291680748473, -0.16935363576174584, -0.0041215790542961294, -0.02029283720274569, -0.09073955190489422, -0.046048121197263744, 0.13159403279977117, -0.015559924514332857, 0.038173029558614825, -0.08067795997646103, 0.023213204892446937, -0.05220915391597406, -0.0065555595519356845, -0.01022439055817143], [-0.23036687725704277, 0.0041354598089767625, -0.00042915285010625365, 0.006896844995203644, -0.02996806511901609, -0.09016336736150668, -0.011605086859893206, -0.05942679556986219, -0.0204443345907323, 0.008886795550199993, -0.01784037268788588, -0.061142004358661434, 0.13431974830027324, -0.04712114163738252, -0.06103593026358948, -0.018505939922839314, 0.035449346014685613, -0.05933163471989176, -0.15883168842240983, -0.12589331033580717, 0.15895034615027054, 0.036667634121293737, 0.03374388685422869, 0.05493463776645522, 0.09596486730416935, -0.0385311955975329, -0.011047210715993672, -0.12392892690451696, 0.21208617060956195, -0.11695763316418427, 0.04064494335089928, -0.14131595972891967], [0.05938460688310439, -0.10643436902471147, -0.052528086256625355, 0.0885724256674376, -0.02744979493363712, -0.126900575509684, 0.12594185487227913, 0.04933888525753439, -0.008213473741452938, 0.07802914605943359, -0.009308677109310524, -0.19239234135050484, -0.0390913306895601, -0.1164907891450008, -0.05357868690314891, -0.10336203672678618, 0.0547732450934606, 0.10074008694274972, 0.15882958404793907, 0.0427430880944035, 0.006508403845890555, -0.11544017039509336, -0.023641979840756906, 0.03278896157497725, 0.0218874999878141, 0.03835234845109797, 0.15007915927451415, 0.005444204740300289, -0.015816217269505186, -0.06668630651352232, -0.012631481230492465, 0.10688975103061282], [-0.003907062575489614, -0.039918363884944436, 0.1495048255941543, 0.00952571411878509, 0.033750730868366656, 0.0446141721083368, 0.07977813417354357, -0.10444322051602058, 0.012219135707524774, 0.1901265360885135, -0.0001737071112152763, -0.019633827332939592, 0.012915509507364063, 0.2383128198737041, -0.059682972525517124, 0.02168014458052506, -0.04896963642156575, 0.2719494417749335, -0.07107745642923184, -0.0063129407631257115, 0.08260534536888435, -0.1311650696854425, 0.044392258457214735, -0.03575650519221015, -0.2146540104067213, 0.11208334418148092, -0.03110700775722496, 0.17691721670931754, -0.05897657292848907, -0.046388535717405026, 0.08545455470674239, 0.039589724194205096], [-0.005368410325023611, 0.006110470609024923, -0.14031691687416045, 0.09676752681824155, 0.08699255720275921, -0.10742832320970422, 0.007723499286627438, -0.0027345628819902567, 0.11444368356284768, -0.04116435917518018, -0.10432537321485924, -0.06430640508515965, -0.0897165476942928, -0.029084129439071533, 0.09921002914056895, -0.03956165101359849, -0.07072998931545874, 0.1010008896947201, 0.016387201674044543, 0.13914646367832578, 0.15469880747080866, 0.052325747104786074, -0.013578409707407708, 0.1873595047771196, -0.060912208811273086, -0.08328630151655901, -0.08853117204548613, 0.16274717019606438, -0.010093759304899284, -0.04523330099797927, 0.0856503922547613, -0.010445617106381684], [0.021184524833479438, 0.07677275390598998, -0.07271801972182762, 0.1871919818325114, 0.080389029198278, 0.0202654088253813, 0.004821039407242059, -0.16581497919236976, 0.15697241046486268, 0.21928202066644864, -0.01750640456777892, -0.05892367302518584, 0.00643735652970425, -0.0644046807155103, 0.16886970788982658, 0.05061231897146558, -0.03199705159081031, -0.013966605031376953, 0.02258005248382086, -0.06292056062971961, -0.07186074381450304, 0.11282308385634242, 0.1264127857603297, 0.12750667678991953, 0.04065494789451573, -0.11522353226792902, 0.10432222875218722, -0.02657058624318467, 0.12422349566577856, -0.01652619790306747, -0.13218246038053294, -0.057988271606354884], [-0.027369629914720778, 0.016696382167057815, -0.12838667251203745, -0.09858560171098141, 0.0771638883988737, 0.01954360460397998, -0.012928854835576448, 0.021223755355648716, 0.13555537500157694, -0.002540669963048856, -0.19162926285339554, -0.2058894967654311, 0.00417162735065938, 0.0008092981239354983, 0.13364459217673544, 0.05389454093368351, 0.06994023099317612, 0.07972787477242135, -0.11103439641856788, -0.051377267933553294, -0.026509223645154137, -0.10898276752174901, 0.1916417648835338, 0.03489010440211773, -0.1265922981149612, -0.11866693410359042, 0.09363482306475751, -0.054860289916226296, -0.04175816682936571, -0.01565931361700701, 0.1008824567570436, -0.03507325393780356], [-0.14182047192985645, -0.1978905898301903, 0.08733877965920875, 0.0036756837990275953, -0.01044883691080827, 0.09287697088241555, 0.09803347106953389, 0.030264889585335398, -0.02833648398083672, -0.011870540177568778, 0.052502507067437844, -0.1672707158429018, 0.12777067023404226, 0.1150194422506101, -0.10854529838251258, -0.11809636021140957, -0.10979410773591779, 0.038922974480612674, -0.08082846246108122, -0.0705331050619075, -0.011692892310694605, 0.09414939517032227, 0.029676340165732663, -0.10168711806944203, -0.009010923455044966, 0.08277915138097029, 0.009794642446769758, -0.002276001879183038, -0.10153988977136603, -0.0032049829986018213, 0.14182401728141666, -0.1546750503648361]], "biases": [[0.0, 0.0, 0.0, 0.0, 0.0, 0.0, 0.0, 0.0, 0.0, 0.0, 0.0, 0.0, 0.0, 0.0, 0.0, 0.0, 0.0, 0.0, 0.0, 0.0, 0.0, 0.0, 0.0, 0.0, 0.0, 0.0, 0.0, 0.0, 0.0, 0.0, 0.0, 0.0]], "output": false}, {"weights": [[0.03366266358372419, 0.11451806333865473, -0.0010677490394554532, -0.11114579273842136, 0.06793805825296945, -0.11171197035775103, -0.10721039699892397, 0.07516485708950178, 0.16802929101419528, 0.16940495798981758, -0.046271783791294624, 0.00412649547912101, 0.00926906274868767, 0.08351291790252695, 0.10985892384576952, -0.044139300579565124, -0.03788489916091926, -0.0854543508249083, -0.1801748675418609, -0.07186658141481604, 0.02976871676699726, 0.058243516881708535, 0.07608985665069015, 0.033547450103428446, 0.008348370418805836, 0.11116486874269033, 0.05097674178610459], [-0.27422643494740145, 0.13020868597478674, -0.0473097680754038, 0.10061909610145109, -0.09652328511411913, -0.09282779949474931, 0.12420451477936426, 0.04117643331652583, -0.060686652763606574, -0.011621000417459922, -0.06457388590845053, -0.02848644881702634, 0.08919382763425228, 0.1584680014652579, 0.21690774148761946, 0.05921345462232761, 0.02796072260893437, -0.13580703494166588, 0.03842118538448161, -0.017573356706153346, 0.10260446321262723, -0.21016695737750288, 0.03113021987205135, 0.021334931122123243, -0.08927126977254575, -0.07998442593036753, -0.07263367576863723], [0.1494503452340588, 0.06453415115001959, 0.03504473227168414, -0.02194550634430292, -0.17609056152805228, -0.057682744840258794, -0.014680662373285839, -0.14190805431230716, -0.0804862403833014, -0.09887569565031062, 0.0025728382829866146, 0.08504823315670614, 0.0946561781979178, 0.03663639077805646, 0.18611708268208724, 0.09123768700220564, -0.06257181556901685, -0.00021520353019638166, 0.12300383031243552, -0.24106051938579698, 0.13658289199088466, 0.1700725042022248, 0.06818051655235849, 0.05420712721260401, -0.023177184239340093, -0.12108160192285529, 0.004065882480039034], [0.14091597223191374, -0.09835711871871342, -0.057081350059114966, 0.016539955911656246, -0.010156551833246368, 0.022787893695317384, 0.15582239030459633, 0.11407535202463442, 0.07365018365685903, -0.0174109666566645, -0.08038591160792993, 0.16720643231858281, -0.10731288536108835, 0.06953806503973785, -0.044451913723987865, 0.30371169206878745, 0.017688124971948868, -0.08919751759834647, 0.0023488268877656384, -0.014230076209661147, -0.09461526809156368, 0.024590247872437868, -0.06123328806864958, -0.029635370066722174, 0.058083047971060967, -0.10323547993506416, 0.06817659032898322], [-0.07486386644184333, 0.1176337966848927, 0.08148635643419151, -0.17676853104420376, -0.11999113648103549, -0.012458987910248097, -0.01113159575645663, -0.006276029929532924, 0.010677822385346616, -0.10919844432691522, -0.1129542721715108, 0.025957449357172032, 0.07419333776924696, -0.10778693471501997, 0.024855752642529726, -0.03774548805118159, 0.09271782125244346, 0.031150213081739753, 0.0073251846666997425, 0.09380240481288016, 0.0948843680690576, -0.0534471903341499, -0.1855760303870107, -0.07614771131121571, -0.06677660810641049, -0.12304353665130772, -0.01379797453154559], [-0.1637236781503859, -0.09586065601904936, 0.10145419007042811, -0.05075952866550833, 0.03180202118336224, -0.022022097938482643, -0.020138834275645227, -0.1502741871121438, 0.009698485000177868, 0.024867463715827626, -0.03950102173422396, 0.1988006178190749, -0.10059938438099286, 0.10603582264817735, -0.11364553447511894, -0.029682534914028176, -0.30693087807724984, -0.15141004885329326, 0.02665569063651779, -0.13621060160527393, -0.12729664655351466, 0.08850598126577908, 0.2520136992693329, -0.04649407397647119, 0.24506741326164458, -0.1724240143608886, 0.11660549744711116], [-0.18772150880351646, 0.009411381448129807, -0.08524797945717968, 0.16181738953080793, -0.11167021953640795, 0.10756903526674443, 0.011377359739266929, -0.06433883345711487, -0.027669870067735344, -0.09938878514980468, 0.019857895771308, -0.06966035595089781, -0.07862483406759707, 0.017929888439762925, -0.020417003866350383, 0.07344180948246304, 0.10625372228576276, -0.0068316508539303395, 0.014759845760726288, -0.2123594236857534, -0.002461917650585882, -0.09103197432970148, -0.14626000816447093, 0.03743581382767422, 0.12796500060658453, 0.04156261878671021, -0.027414856806674555], [0.022530520183922483, 0.21163749049179442, -0.11196127035729496, 0.012914356995165029, -0.09922455926761593, -0.014014410263062528, 0.08549853496875919, 0.06406430850365297, 0.15512554429309963, 0.04249578949297109, -0.22423455710283346, -0.08918322574165854, -0.001829261706632298, 0.14957119268286048, -0.03637347713027772, 0.1376070508194223, -0.06156972117985365, 0.058949040061085416, 0.18155051459752622, 0.03377664545836493, 0.08182025369588419, -0.023827299010527925, -0.08300556519757721, -0.18419672874331283, -0.08189355663029636, -0.014890025577247171, -0.002073351067503512], [-0.0885464166358037, -0.20539627441849692, -0.13299735267561189, 0.09282146655320482, 0.009501019514131863, -0.02367321108230478, 0.042463846179820804, 0.10893818372172302, -0.0793713735204416, -0.10761889164263772, 0.034582431589622604, 0.030593924982510786, 0.10710707461043566, 0.009064316294014938, 0.007346268324220178, 0.08500359976295697, -0.0751281532029557, -0.013769398270657538, 0.11751252077253756, 0.2300842177695389, -0.04118883636416257, -0.07362115349906856, 0.22148623605730544, -0.13199324640130303, -0.052133336003572145, 0.037539445408944765, -0.098212668392619], [0.041697597149271716, 0.13448680256953982, -0.02067303803181671, 0.08412301505593338, -0.0436101957623681, -0.11320349737497869, -0.206834144785987, 0.13753129519672297, 0.07113624339876522, 0.09177042156990856, 0.14299129874610592, 0.03692663518885136, -0.15536770918969742, -0.02573678396791114, -0.1700808099508446, -0.0041895644767586445, -0.008848477694725111, -0.00455084034620337, -0.006896702093511509, 0.19482499904559528, -0.017170068822846718, -0.06975260243461133, -0.17543702126817706, 0.10480435981800261, -0.2160512091091199, -0.006077171325220596, 0.09374009424580335], [-0.07586802445524105, 0.11521354659704347, -0.0812251767956762, 0.024244113174461027, -0.13001083736851235, -0.11059373500266173, 0.1267344105218868, -0.046179642813726766, 0.08672406013031597, 0.05017702588346287, -0.04424051811162288, 0.003912600016790684, -0.2105191820623427, 0.12025271836965437, 0.09014223177092967, -0.05223747738537075, -0.037369226207962014, -0.0048143533459527555, 0.10590240038154382, 0.06808735857086862, -0.033281204565140374, -0.0257240861364362, 0.12426808010877306, 0.04757369195899978, -0.12175812826631097, 0.014736975065371147, -0.11148756600852937], [0.0952780495097017, 0.018302993711949492, -0.10215219267060989, 0.24058087444152998, -0.016153037239186332, 0.03288774145014707, 0.025165077650397688, -0.017501869083329073, -0.09864037038409837, 0.0685615989821566, 0.08925030482745021, -0.1745395206284778, 0.03455653645870479, -0.06880825516171912, -0.022527470896791177, 0.09854200509948173, 0.18384275196572417, -0.13358578970831395, -0.010544541917739823, 0.07087362553765196, -0.05760951903387623, 0.00020400062385027152, 0.08047896395386701, -0.14055952492419754, -0.005654444511254011, -0.0437535882172077, -0.10104415842398079], [-0.06965999670074083, 0.013207263290910085, 0.017068027006973366, -0.0851404971614719, 0.00015870437864332401, 0.10134395981214128, 0.03089313685344885, 0.1359335330103381, -0.01647849559337487, -0.06787967957026766, -0.07929604286265382, -0.03494265153301681, 0.011052095678274186, -0.06268995019342831, 0.031059081939862856, 0.004488635594892839, -0.0979017494873869, -0.020345076591628514, -0.1632588273411792, -0.05304261435725099, -0.016721328018646595, -0.18699894210935336, -0.03177485507078686, 0.03278866139827817, -0.15569309858176442, -0.06264602842294639, 0.10228907656480726], [0.10132770731753803, -0.15600220043694257, -0.1898703104706101, 0.1304859782321994, 0.06311298083865005, -0.09103995339063192, -0.16574181426634324, -0.07257052729119344, 0.05996401157243321, 0.0034509726236068928, 0.1012473529055322, -0.05286948495661077, -0.007858186641191993, -0.03659568117559164, -0.032805805920104326, 0.025598206085138617, 0.03901625960506094, -0.011091553113168333, 0.0463371406391741, -0.10563570844082704, -0.06508081615087834, -0.029017516627422003, 0.1656957559532941, -0.05822737237722944, -0.1405910892580261, 0.05847076552861409, -0.12848106868346906], [0.055101787639508015, 0.08498107513240793, 0.17806066356610398, 0.11718070737671962, -0.08352237616275185, -0.006092423906080069, 0.05328578803759818, -0.1770977032189242, 0.047921373492025354, -0.15870327721780844, 0.06993665319686576, -0.12656621916700528, -0.1468926649478983, 0.07819204175835673, -0.008725657876910278, -0.07759302790538657, -0.11702583161454644, -0.04773301790631468, -0.012744014441915225, -0.13079326394048235, 0.2226041387679204, -0.11413526485889654, -0.09108655073825708, 0.049699263791094, -0.027518601260894338, 0.0742957046616918, 0.16117119654222628], [-0.06698854753029712, -0.21320207988447995, 0.001850242688924361, -0.023435061475988027, -0.13029938915889758, -0.1764781183341363, -0.03152306861116038, -0.021606490068547694, 0.14174765878032314, -0.16873763512406315, 0.004553612845491154, 0.009446449479921662, 0.03187987658147838, -0.1795858775950453, 0.09916015445463683, -0.053263295542559465, 0.006639028990904847, 0.09810464410273245, -0.2584626271974962, 0.07983033088219793, 0.14466168308842803, -0.009877526201512634, 0.21457713654883293, 0.11564195781700688, -0.028920587810678456, 0.07380518084908082, 0.008219197872472087], [-0.05688495161074715, -0.1283902981730953, 0.02372468354478386, 0.02991350655179577, 0.0400055950932562, -0.23823260651906286, 0.02403341839984761, -0.03312870124730329, 0.060505304051599575, -0.03745883460030818, 0.04458921841751211, -0.06839242516402215, -0.08043233827964849, -0.07372859643662015, 0.006037035868361041, -0.1584306978398067, 0.2659203957045823, 0.032189119957641406, 0.040191859728840734, 0.026882868269857974, 0.22417892576870369, 0.0839257144828639, 0.061466861583352586, -0.04206507348253949, 0.012569362280404874, -0.1512801175565191, 0.01771754787405394], [-0.08569306925196579, -0.037758598028234266, -0.07092069171779394, 0.07580022715197873, -0.14579640710102068, -0.08436874015484974, 0.08572860946009608, 0.006185042630095574, -0.06947759815499921, -0.025575515138155553, 0.1098050202646703, 0.1069985064606452, -0.19980608797225105, 0.03183818684803496, -0.10891641073777458, 0.16049479627439744, -0.04564146827998908, -0.024057157075814267, -0.05574974744883844, 0.10686715411980943, -0.06595939552812312, 0.12894844564331295, 0.06244635188310861, -0.10555192952976121, 0.10082740609917584, 0.129947417559205, -0.019761202476844555], [-0.018934964462895165, -0.05235132523175859, -0.147349594170615, 0.09645137421949303, 0.06825696494228299, -0.08381262320469389, 0.011093831636867231, -0.03410811003813201, -0.0032468371087948215, -0.004084479148394052, -0.012244614894185558, 0.09413587245934958, -0.016195849173652545, 0.057452272393747776, 0.013392712490817058, -0.001712656351722397, -0.1560378773892621, -0.009008724018518629, -0.10087716878158828, 0.034176260154899295, 0.0013959958106804864, 0.17763453613363234, 0.012003538009528008, 0.07337978903874141, -0.027829264458434352, -0.1596251988878742, -0.009582612811307727], [-0.042031014178365494, 0.10250031319470199, -0.025984867385749538, -0.1713473600569981, 0.05269301917004918, 0.1151941738032049, 0.13680043531097866, 0.10441842822207809, 0.0008138972372049761, 0.02389225932164947, -0.22350712037859402, -0.005643977144987964, -0.2043138739776445, -0.1558260291416075, 0.01848446007804233, 0.08996464887772809, 0.12772722821924778, 0.06113480656451856, -0.18672097610387053, -0.05367019701036274, -0.12291716080766674, -0.0761181354113259, -0.10282103191194292, -0.07795847414480524, 0.013108290817817937, -0.0432752863834795, 0.059212684062336124], [0.11041464818445819, -0.002985940188531304, -0.003931663724222503, -0.11069981339859546, 0.07312395577238255, 0.0774800325309505, -0.11078232398328668, -0.026933442199001924, 0.008219710020576849, 0.038403970398981205, -0.010513059016053684, 0.06222696623517596, -0.06568466930538172, 0.015409760364257367, -0.02112109811543765, 0.026355640726528698, -0.01772859847815297, 0.04075484581690694, -0.01536797868818646, 0.06616094261232792, 0.11118039612386986, 0.0008718283834616878, 0.004241121860648085, -0.051552680581220124, -0.06443753403497801, -0.03744707588057715, -0.10551516390354186], [-0.09883751104749078, 0.1292093921488406, -0.13723964324953328, -0.04999283375582069, -0.006877339563205723, -0.04864839145409752, 0.04394480644560672, -0.11462456579935193, -0.009103994582467466, 0.08611629073553008, 0.009293861099076397, 0.039889473689814776, 0.1550538365974271, 0.13726674670835962, -0.08836919576194108, -0.03620011038892967, -0.16835104554669522, 0.018458931746775965, 0.02218043461253722, -0.08348613604418773, -0.043282352145269654, -0.10445051317903527, -0.0846047257003461, -0.04778495754222381, 0.1501362733436649, -0.10941090775762317, -0.04968660168868812], [0.2640676738192984, 0.09242207434876029, 0.015950481427300146, -0.11413152145609747, 0.07940496768161087, -0.057156066675353216, -0.003931296096203724, -0.046792555654494354, 0.03624780785859799, 0.04453035270276367, -0.056557440301912155, 0.043173932033443344, -0.13043723911873087, -0.11703347574445666, -0.03574206722141913, 0.04573083061735275, 0.027721735458572733, 0.04548733695617627, 0.014467040882930183, 0.09880420049345938, -0.11944241891386971, -0.24921782729198552, -0.09433127149928454, 0.06263401997201427, -0.039323713281385585, -0.017401767242795962, 0.004366108362507179], [-0.020500134650371215, -0.21356847943647123, 0.19457628889647713, 0.10662813467025847, -0.027732015495392927, -0.11200295712353561, -0.029955093792927726, -0.11134214144461115, -0.15319890390879398, -0.013554426363690107, 0.202762913317458, 0.11672537748498808, 0.09148336165505783, 0.027286238471672622, 0.001332713683112196, 0.010195596699091085, 0.07227743990413987, 0.05411711514121469, 0.021861915484747835, 0.1732221695408378, 0.10297473765916527, 0.08530043209365754, -0.046427059757842594, -0.05551368618945123, 0.15827368215346607, 0.14828033125957152, -0.05570673913745327], [0.17600399432636674, -0.232591931012345, 0.07479565607636678, 0.14552622655329753, 0.18280090861224316, 0.06385093197548992, 0.01578396614100242, 0.1494039560114597, 0.11859036416170306, -0.06967691050926705, -0.012043625573483608, 0.0008908837123082731, 0.1770924187883523, 0.055380513405714565, 0.108356604497301, -0.1296315116245815, 0.019775294574356155, -0.004162970218595214, -0.05565048392307799, 0.11458184595010289, -0.04027223560907744, -0.14356763792598654, -0.06248428848976439, 0.09891115521035825, 0.0077451405037726115, 0.06117865425991545, 0.11011966776150435], [0.07759752296136793, 0.10286670426595078, 0.07407279195526807, -0.12497761593740256, 0.0761364191916686, 0.028391298196231707, 0.006611613214580947, -0.01533301032802007, -0.1106881673131146, 0.13847094431403723, -0.017370789737839534, 0.13240744490187845, 0.04313275162387965, -0.09272187661191683, 0.041114089545793174, -0.1485174539151309, 0.07901041157474685, 0.05450393697425816, 0.03306927701313231, -0.15358161909524318, 0.2529238847609278, 0.05108186369697887, 0.09707393498522753, -0.014508367023574706, 0.08251265920434107, -0.10244321574883825, 0.04031780593316156], [-0.11060598317800452, 0.010835925049738003, 0.05956207309930503, -0.12346021197265078, -0.14689423485128217, -0.08551534203379207, 0.12641762722091052, 0.10374628965875848, -0.00041125663602252586, -0.0381083239728373, 0.07186312723987737, 0.19506396556835431, 0.004675483846979966, -0.0625546467626719, -0.14016866520910817, 0.00968393033882994, -0.06811096222602205, -0.01314786863071924, -0.25491865208801, -0.26847628313861105, 0.03651648174121099, 0.18300799783494548, -0.0002097639480250554, 0.06438968021007374, -0.12898721904805058, -0.19285303402212714, 0.04417489266949607], [-0.12147020007045409, 0.04999072274631193, 0.03840928626121356, 0.18899624034197168, -0.11728806374977763, 0.18664468339195503, -0.06013780333456164, -0.0955453769047348, -0.11380813060765566, 0.03285676554464008, -0.00988990269559101, 0.06314047674697934, -0.009860497837943707, 0.1884748363306417, -0.03559487156666106, -0.06260318875468458, -0.24008349250185962, -0.03450562504491452, -0.03816938270946612, 0.09994925698847681, -0.0020621110496836094, -0.02136287999315257, -0.018212552867378905, 0.07409984080029146, -0.039708671957977705, 0.06987923157961981, -0.08944388978287038], [0.11248631592270414, 0.009970644285284444, 0.03955416616234334, -0.043441142482542654, 0.007147643764076334, -0.04998617666452075, 0.027797144602558582, -0.0005485413242253116, 0.06866090567750097, -0.15579826891095025, -0.03887108425720084, 0.07482507920620986, 0.02027693617829504, -0.2091361490005865, -0.11368542790295118, -0.0266768524070091, -0.12533949882380044, 0.09158599873444581, 0.03618089425472186, 0.01622118091295874, 0.036875763323845, 0.05663734851255088, 0.0829303411598794, 0.00017736080765537134, -0.1381901211113378, -0.0930505096327523, -0.042253250616117816], [-0.33527493621140336, 0.050208798157019376, -0.0019404592228003143, 0.0347345629758542, -0.10172296383421082, 0.03066459840407342, -0.2410907144574957, -0.08522532903692039, 0.17314679796171062, 0.05130411788778793, 0.1445559747397153, 0.07268947844740217, 0.05343376462077738, 0.0007538505108085625, 0.03906683901983857, 0.006344915306359871, -0.03423319423493281, -0.008403886385477387, -0.0013858874113597032, -0.14910344189491542, -0.12113695213278114, 0.016887323088911416, -0.12816284366265954, 0.1368806903835549, 0.04094803352514759, -0.022795469569747526, 0.09616495749996894], [-0.15011222134673544, -0.05622852301931272, 0.11892953288474423, 0.21229718342999881, 0.1524468351627302, 0.1003653506441997, -0.05674781199033777, 0.0013948457912916188, -0.10801970790631397, 0.051027099835985905, 0.0002241704209983611, -0.12200343091919517, -0.06837440811111095, -0.06645314383635173, -0.00240541181245944, -0.0006186172595771042, -0.04382660278321377, 0.09629824275226984, 0.09036290848105287, -0.013872943416731336, 0.010780581193799432, 0.1389821748933491, 0.05143350848556945, -0.054398358376403645, 0.0498041607673808, -0.09966071378581398, 0.08890219075363033], [-0.04734999015156897, 0.0726565288213009, 0.09440567382536924, 0.01670471238302703, -0.07629489648519869, -0.031240997076235667, 0.035969328152649985, 0.02292407103589795, -0.037452027759288596, -0.002719267549768467, -0.09705143065305995, -0.03611927608204789, -0.13871460637479247, 0.11572608939795777, 0.023738410283307598, 0.05708872507184248, -0.07081302438400715, 0.0072755824955295645, 0.14334839223786708, -0.036872113553733786, -0.058050537499988224, 0.07400440963281014, -0.12117692067194899, -0.040285315901373145, -0.040689627823582764, 0.0015789612852557641, -0.08653164488058109]], "biases": [[0.0, 0.0, 0.0, 0.0, 0.0, 0.0, 0.0, 0.0, 0.0, 0.0, 0.0, 0.0, 0.0, 0.0, 0.0, 0.0, 0.0, 0.0, 0.0, 0.0, 0.0, 0.0, 0.0, 0.0, 0.0, 0.0, 0.0]], "output": true}], "shape": [54, 32, 27]}